<?xml version="1.0"?>
<MethodSetup Method="BDT::BDTG">
  <GeneralInfo>
    <Info name="TMVA Release" value="4.2.1 [262657]"/>
    <Info name="ROOT Release" value="6.18/00 [397824]"/>
    <Info name="Creator" value="shchauha"/>
    <Info name="Date" value="Wed Aug 21 16:21:12 2019"/>
    <Info name="Host" value="Linux felixonmars2 5.2.1-arch1-1-ARCH #1 SMP PREEMPT Sun Jul 14 14:52:52 UTC 2019 x86_64 GNU/Linux"/>
    <Info name="Dir" value="/home/shchauha/2019/Analysis/FCNC/MVA"/>
    <Info name="Training events" value="9195"/>
    <Info name="TrainingTime" value="1.61253500e+00"/>
    <Info name="AnalysisType" value="Classification"/>
  </GeneralInfo>
  <Options>
    <Option name="V" modified="Yes">False</Option>
    <Option name="VerbosityLevel" modified="No">Default</Option>
    <Option name="VarTransform" modified="No">None</Option>
    <Option name="H" modified="Yes">False</Option>
    <Option name="CreateMVAPdfs" modified="No">False</Option>
    <Option name="IgnoreNegWeightsInTraining" modified="No">False</Option>
    <Option name="NTrees" modified="Yes">1000</Option>
    <Option name="MaxDepth" modified="Yes">2</Option>
    <Option name="MinNodeSize" modified="Yes">2.5%</Option>
    <Option name="nCuts" modified="Yes">20</Option>
    <Option name="BoostType" modified="Yes">Grad</Option>
    <Option name="AdaBoostR2Loss" modified="No">quadratic</Option>
    <Option name="UseBaggedBoost" modified="Yes">True</Option>
    <Option name="Shrinkage" modified="Yes">1.000000e-01</Option>
    <Option name="AdaBoostBeta" modified="No">5.000000e-01</Option>
    <Option name="UseRandomisedTrees" modified="No">False</Option>
    <Option name="UseNvars" modified="No">2</Option>
    <Option name="UsePoissonNvars" modified="No">True</Option>
    <Option name="BaggedSampleFraction" modified="Yes">5.000000e-01</Option>
    <Option name="UseYesNoLeaf" modified="No">True</Option>
    <Option name="NegWeightTreatment" modified="No">pray</Option>
    <Option name="Css" modified="No">1.000000e+00</Option>
    <Option name="Cts_sb" modified="No">1.000000e+00</Option>
    <Option name="Ctb_ss" modified="No">1.000000e+00</Option>
    <Option name="Cbb" modified="No">1.000000e+00</Option>
    <Option name="NodePurityLimit" modified="No">5.000000e-01</Option>
    <Option name="SeparationType" modified="No">giniindex</Option>
    <Option name="RegressionLossFunctionBDTG" modified="No">huber</Option>
    <Option name="HuberQuantile" modified="No">7.000000e-01</Option>
    <Option name="DoBoostMonitor" modified="No">False</Option>
    <Option name="UseFisherCuts" modified="No">False</Option>
    <Option name="MinLinCorrForFisher" modified="No">8.000000e-01</Option>
    <Option name="UseExclusiveVars" modified="No">False</Option>
    <Option name="DoPreselection" modified="No">False</Option>
    <Option name="SigToBkgFraction" modified="No">1.000000e+00</Option>
    <Option name="PruneMethod" modified="No">nopruning</Option>
    <Option name="PruneStrength" modified="No">0.000000e+00</Option>
    <Option name="PruningValFraction" modified="No">5.000000e-01</Option>
    <Option name="SkipNormalization" modified="No">False</Option>
    <Option name="nEventsMin" modified="No">0</Option>
    <Option name="UseBaggedGrad" modified="No">False</Option>
    <Option name="GradBaggingFraction" modified="No">5.000000e-01</Option>
    <Option name="UseNTrainEvents" modified="No">0</Option>
    <Option name="NNodesMax" modified="No">0</Option>
  </Options>
  <Variables NVar="3">
    <Variable VarIndex="0" Expression="nbtags" Label="nbtags" Title="nbtags" Unit="" Internal="nbtags" Type="F" Min="1.00000000e+00" Max="4.00000000e+00"/>
    <Variable VarIndex="1" Expression="njets" Label="njets" Title="njets" Unit="" Internal="njets" Type="F" Min="2.00000000e+00" Max="1.00000000e+01"/>
    <Variable VarIndex="2" Expression="met" Label="met" Title="met" Unit="" Internal="met" Type="F" Min="5.00055618e+01" Max="5.10350342e+02"/>
  </Variables>
  <Spectators NSpec="0"/>
  <Classes NClass="2">
    <Class Name="Signal" Index="0"/>
    <Class Name="Background" Index="1"/>
  </Classes>
  <Transformations NTransformations="0"/>
  <MVAPdfs/>
  <Weights NTrees="1000" AnalysisType="1">
    <BinaryTree type="DecisionTree" boostWeight="1.0000000000000000e+00" itree="0">
      <Node pos="s" depth="0" NCoef="0" IVar="0" Cut="1.1428571939468384e+00" cType="1" res="3.2804503571242094e-03" rms="4.9998924136161804e-01" purity="5.0328046083450317e-01" nType="0">
        <Node pos="l" depth="1" NCoef="0" IVar="1" Cut="2.3809523582458496e+00" cType="1" res="0.0000000000000000e+00" rms="0.0000000000000000e+00" purity="5.2870148420333862e-01" nType="0">
          <Node pos="l" depth="2" NCoef="0" IVar="-1" Cut="0.0000000000000000e+00" cType="1" res="1.1413963511586189e-02" rms="4.9673235416412354e-01" purity="5.5706983804702759e-01" nType="-99"/>
          <Node pos="r" depth="2" NCoef="0" IVar="-1" Cut="0.0000000000000000e+00" cType="1" res="1.1181690497323871e-03" rms="4.9996873736381531e-01" purity="5.0559085607528687e-01" nType="-99"/>
        </Node>
        <Node pos="r" depth="1" NCoef="0" IVar="2" Cut="7.9788703918457031e+01" cType="1" res="-1.6858287155628204e-01" rms="4.7072264552116394e-01" purity="3.3141711354255676e-01" nType="0">
          <Node pos="l" depth="2" NCoef="0" IVar="-1" Cut="0.0000000000000000e+00" cType="1" res="-2.5450048968195915e-02" rms="4.8353633284568787e-01" purity="3.7274974584579468e-01" nType="-99"/>
          <Node pos="r" depth="2" NCoef="0" IVar="-1" Cut="0.0000000000000000e+00" cType="1" res="-3.9575908333063126e-02" rms="4.5917719602584839e-01" purity="3.0212047696113586e-01" nType="-99"/>
        </Node>
      </Node>
    </BinaryTree>
    <BinaryTree type="DecisionTree" boostWeight="1.0000000000000000e+00" itree="1">
      <Node pos="s" depth="0" NCoef="0" IVar="0" Cut="1.1428571939468384e+00" cType="1" res="-4.7870227135717869e-03" rms="4.9905285239219666e-01" purity="4.9567928910255432e-01" nType="0">
        <Node pos="l" depth="1" NCoef="0" IVar="2" Cut="7.1931427001953125e+01" cType="1" res="0.0000000000000000e+00" rms="0.0000000000000000e+00" purity="5.2008146047592163e-01" nType="0">
          <Node pos="l" depth="2" NCoef="0" IVar="-1" Cut="0.0000000000000000e+00" cType="1" res="-7.0095798000693321e-03" rms="4.9902820587158203e-01" purity="4.6832051873207092e-01" nType="-99"/>
          <Node pos="r" depth="2" NCoef="0" IVar="-1" Cut="0.0000000000000000e+00" cType="1" res="1.0178712196648121e-02" rms="4.9688589572906494e-01" purity="5.5351632833480835e-01" nType="-99"/>
        </Node>
        <Node pos="r" depth="1" NCoef="0" IVar="1" Cut="3.1428570747375488e+00" cType="1" res="-1.6253720223903656e-01" rms="4.6641597151756287e-01" purity="3.2032519578933716e-01" nType="0">
          <Node pos="l" depth="2" NCoef="0" IVar="-1" Cut="0.0000000000000000e+00" cType="1" res="-2.2076316177845001e-02" rms="4.8331475257873535e-01" purity="3.7272268533706665e-01" nType="-99"/>
          <Node pos="r" depth="2" NCoef="0" IVar="-1" Cut="0.0000000000000000e+00" cType="1" res="-4.5864637941122055e-02" rms="4.3500843644142151e-01" purity="2.5368532538414001e-01" nType="-99"/>
        </Node>
      </Node>
    </BinaryTree>
    <BinaryTree type="DecisionTree" boostWeight="1.0000000000000000e+00" itree="2">
      <Node pos="s" depth="0" NCoef="0" IVar="0" Cut="1.1428571939468384e+00" cType="1" res="1.9638506695628166e-02" rms="4.9767816066741943e-01" purity="5.1980620622634888e-01" nType="0">
        <Node pos="l" depth="1" NCoef="0" IVar="1" Cut="4.3333334922790527e+00" cType="1" res="0.0000000000000000e+00" rms="0.0000000000000000e+00" purity="5.4818898439407349e-01" nType="0">
          <Node pos="l" depth="2" NCoef="0" IVar="-1" Cut="0.0000000000000000e+00" cType="1" res="1.1917585507035255e-02" rms="4.9562796950340271e-01" purity="5.6463015079498291e-01" nType="-99"/>
          <Node pos="r" depth="2" NCoef="0" IVar="-1" Cut="0.0000000000000000e+00" cType="1" res="-2.0712856203317642e-02" rms="4.9013444781303406e-01" purity="4.0033999085426331e-01" nType="-99"/>
        </Node>
        <Node pos="r" depth="1" NCoef="0" IVar="1" Cut="2.3333332538604736e+00" cType="1" res="-1.4263065159320831e-01" rms="4.6772867441177368e-01" purity="3.2475721836090088e-01" nType="0">
          <Node pos="l" depth="2" NCoef="0" IVar="-1" Cut="0.0000000000000000e+00" cType="1" res="-1.2488283216953278e-02" rms="4.9210897088050842e-01" purity="4.1034689545631409e-01" nType="-99"/>
          <Node pos="r" depth="2" NCoef="0" IVar="-1" Cut="0.0000000000000000e+00" cType="1" res="-3.4447766840457916e-02" rms="4.5525619387626648e-01" purity="2.9413288831710815e-01" nType="-99"/>
        </Node>
      </Node>
    </BinaryTree>
    <BinaryTree type="DecisionTree" boostWeight="1.0000000000000000e+00" itree="3">
      <Node pos="s" depth="0" NCoef="0" IVar="0" Cut="1.1428571939468384e+00" cType="1" res="7.4660517275333405e-03" rms="4.9755871295928955e-01" purity="5.0943607091903687e-01" nType="0">
        <Node pos="l" depth="1" NCoef="0" IVar="1" Cut="2.3333332538604736e+00" cType="1" res="0.0000000000000000e+00" rms="0.0000000000000000e+00" purity="5.3505355119705200e-01" nType="0">
          <Node pos="l" depth="2" NCoef="0" IVar="-1" Cut="0.0000000000000000e+00" cType="1" res="9.9896658211946487e-03" rms="4.9559542536735535e-01" purity="5.6314611434936523e-01" nType="-99"/>
          <Node pos="r" depth="2" NCoef="0" IVar="-1" Cut="0.0000000000000000e+00" cType="1" res="8.9798425324261189e-04" rms="5.0026583671569824e-01" purity="5.1095247268676758e-01" nType="-99"/>
        </Node>
        <Node pos="r" depth="1" NCoef="0" IVar="2" Cut="1.0084420013427734e+02" cType="1" res="-1.0750789195299149e-01" rms="4.7483065724372864e-01" purity="3.4577137231826782e-01" nType="0">
          <Node pos="l" depth="2" NCoef="0" IVar="-1" Cut="0.0000000000000000e+00" cType="1" res="-2.6524730026721954e-02" rms="4.6698558330535889e-01" purity="3.2368019223213196e-01" nType="-99"/>
          <Node pos="r" depth="2" NCoef="0" IVar="-1" Cut="0.0000000000000000e+00" cType="1" res="-1.1174823157489300e-02" rms="4.8740845918655396e-01" purity="3.9386019110679626e-01" nType="-99"/>
        </Node>
      </Node>
    </BinaryTree>
    <BinaryTree type="DecisionTree" boostWeight="1.0000000000000000e+00" itree="4">
      <Node pos="s" depth="0" NCoef="0" IVar="0" Cut="1.1428571939468384e+00" cType="1" res="-1.4275922439992428e-03" rms="4.9630314111709595e-01" purity="5.0104850530624390e-01" nType="0">
        <Node pos="l" depth="1" NCoef="0" IVar="1" Cut="2.3333332538604736e+00" cType="1" res="0.0000000000000000e+00" rms="0.0000000000000000e+00" purity="5.3038930892944336e-01" nType="0">
          <Node pos="l" depth="2" NCoef="0" IVar="-1" Cut="0.0000000000000000e+00" cType="1" res="1.1847869493067265e-02" rms="4.9325129389762878e-01" purity="5.7708305120468140e-01" nType="-99"/>
          <Node pos="r" depth="2" NCoef="0" IVar="-1" Cut="0.0000000000000000e+00" cType="1" res="-2.3584940936416388e-03" rms="4.9996587634086609e-01" purity="4.9521318078041077e-01" nType="-99"/>
        </Node>
        <Node pos="r" depth="1" NCoef="0" IVar="2" Cut="1.0084420013427734e+02" cType="1" res="-1.3141216337680817e-01" rms="4.6235850453376770e-01" purity="3.1151711940765381e-01" nType="0">
          <Node pos="l" depth="2" NCoef="0" IVar="-1" Cut="0.0000000000000000e+00" cType="1" res="-3.3830471336841583e-02" rms="4.4575858116149902e-01" purity="2.7492564916610718e-01" nType="-99"/>
          <Node pos="r" depth="2" NCoef="0" IVar="-1" Cut="0.0000000000000000e+00" cType="1" res="-1.1644744314253330e-02" rms="4.8702946305274963e-01" purity="3.8797217607498169e-01" nType="-99"/>
        </Node>
      </Node>
    </BinaryTree>
    <BinaryTree type="DecisionTree" boostWeight="1.0000000000000000e+00" itree="5">
      <Node pos="s" depth="0" NCoef="0" IVar="0" Cut="1.1428571939468384e+00" cType="1" res="-1.5028925612568855e-02" rms="4.9537757039070129e-01" purity="4.8580437898635864e-01" nType="0">
        <Node pos="l" depth="1" NCoef="0" IVar="2" Cut="7.1931427001953125e+01" cType="1" res="0.0000000000000000e+00" rms="0.0000000000000000e+00" purity="5.2079910039901733e-01" nType="0">
          <Node pos="l" depth="2" NCoef="0" IVar="-1" Cut="0.0000000000000000e+00" cType="1" res="-7.4747903272509575e-03" rms="4.9956461787223816e-01" purity="4.7241133451461792e-01" nType="-99"/>
          <Node pos="r" depth="2" NCoef="0" IVar="-1" Cut="0.0000000000000000e+00" cType="1" res="6.8983463570475578e-03" rms="4.9708783626556396e-01" purity="5.5106884241104126e-01" nType="-99"/>
        </Node>
        <Node pos="r" depth="1" NCoef="0" IVar="2" Cut="6.7865776062011719e+01" cType="1" res="-1.3267077505588531e-01" rms="4.5624700188636780e-01" purity="2.9732412099838257e-01" nType="0">
          <Node pos="l" depth="2" NCoef="0" IVar="-1" Cut="0.0000000000000000e+00" cType="1" res="-1.3053554110229015e-02" rms="4.8153012990951538e-01" purity="3.6557793617248535e-01" nType="-99"/>
          <Node pos="r" depth="2" NCoef="0" IVar="-1" Cut="0.0000000000000000e+00" cType="1" res="-3.0954632908105850e-02" rms="4.4715812802314758e-01" purity="2.7847799658775330e-01" nType="-99"/>
        </Node>
      </Node>
    </BinaryTree>
    <BinaryTree type="DecisionTree" boostWeight="1.0000000000000000e+00" itree="6">
      <Node pos="s" depth="0" NCoef="0" IVar="2" Cut="1.1576910400390625e+02" cType="1" res="-2.1175188943743706e-02" rms="4.9639597535133362e-01" purity="4.8034068942070007e-01" nType="0">
        <Node pos="l" depth="1" NCoef="0" IVar="2" Cut="1.0949932861328125e+02" cType="1" res="-3.5830765962600708e-02" rms="4.9576103687286377e-01" purity="4.6501684188842773e-01" nType="0">
          <Node pos="l" depth="2" NCoef="0" IVar="-1" Cut="0.0000000000000000e+00" cType="1" res="-5.4024681448936462e-03" rms="4.9636504054069519e-01" purity="4.7404348850250244e-01" nType="-99"/>
          <Node pos="r" depth="2" NCoef="0" IVar="-1" Cut="0.0000000000000000e+00" cType="1" res="-3.1640209257602692e-02" rms="4.7098058462142944e-01" purity="3.4263595938682556e-01" nType="-99"/>
        </Node>
        <Node pos="r" depth="1" NCoef="0" IVar="2" Cut="1.3460623168945312e+02" cType="1" res="3.7142708897590637e-02" rms="4.9463132023811340e-01" purity="5.4131782054901123e-01" nType="0">
          <Node pos="l" depth="2" NCoef="0" IVar="-1" Cut="0.0000000000000000e+00" cType="1" res="2.5942558422684669e-02" rms="4.7431033849716187e-01" purity="6.3332825899124146e-01" nType="-99"/>
          <Node pos="r" depth="2" NCoef="0" IVar="-1" Cut="0.0000000000000000e+00" cType="1" res="-1.2743215775117278e-03" rms="4.9809703230857849e-01" purity="4.9774694442749023e-01" nType="-99"/>
        </Node>
      </Node>
    </BinaryTree>
    <BinaryTree type="DecisionTree" boostWeight="1.0000000000000000e+00" itree="7">
      <Node pos="s" depth="0" NCoef="0" IVar="0" Cut="1.1428571939468384e+00" cType="1" res="-1.2136622332036495e-02" rms="4.9632239341735840e-01" purity="4.8887968063354492e-01" nType="0">
        <Node pos="l" depth="1" NCoef="0" IVar="1" Cut="2.3333332538604736e+00" cType="1" res="0.0000000000000000e+00" rms="0.0000000000000000e+00" purity="5.1050025224685669e-01" nType="0">
          <Node pos="l" depth="2" NCoef="0" IVar="-1" Cut="0.0000000000000000e+00" cType="1" res="3.9169494993984699e-03" rms="4.9775841832160950e-01" purity="5.4236823320388794e-01" nType="-99"/>
          <Node pos="r" depth="2" NCoef="0" IVar="-1" Cut="0.0000000000000000e+00" cType="1" res="-4.0889168158173561e-03" rms="4.9931883811950684e-01" purity="4.8406860232353210e-01" nType="-99"/>
        </Node>
        <Node pos="r" depth="1" NCoef="0" IVar="1" Cut="3.1428570747375488e+00" cType="1" res="-8.3105035126209259e-02" rms="4.7041100263595581e-01" purity="3.3269986510276794e-01" nType="0">
          <Node pos="l" depth="2" NCoef="0" IVar="-1" Cut="0.0000000000000000e+00" cType="1" res="-9.9831540137529373e-03" rms="4.8362138867378235e-01" purity="3.7396100163459778e-01" nType="-99"/>
          <Node pos="r" depth="2" NCoef="0" IVar="-1" Cut="0.0000000000000000e+00" cType="1" res="-2.6741113513708115e-02" rms="4.4809353351593018e-01" purity="2.7765905857086182e-01" nType="-99"/>
        </Node>
      </Node>
    </BinaryTree>
    <BinaryTree type="DecisionTree" boostWeight="1.0000000000000000e+00" itree="8">
      <Node pos="s" depth="0" NCoef="0" IVar="1" Cut="2.2857143878936768e+00" cType="1" res="-3.3767567947506905e-03" rms="4.9629840254783630e-01" purity="4.9633097648620605e-01" nType="0">
        <Node pos="l" depth="1" NCoef="0" IVar="2" Cut="1.2460298919677734e+02" cType="1" res="2.8215115889906883e-02" rms="4.9729904532432556e-01" purity="5.4621368646621704e-01" nType="0">
          <Node pos="l" depth="2" NCoef="0" IVar="-1" Cut="0.0000000000000000e+00" cType="1" res="3.4517690073698759e-03" rms="4.9872499704360962e-01" purity="5.3382968902587891e-01" nType="-99"/>
          <Node pos="r" depth="2" NCoef="0" IVar="-1" Cut="0.0000000000000000e+00" cType="1" res="2.3046376183629036e-02" rms="4.7725427150726318e-01" purity="6.4321303367614746e-01" nType="-99"/>
        </Node>
        <Node pos="r" depth="1" NCoef="0" IVar="0" Cut="1.0952380895614624e+00" cType="1" res="-2.7440715581178665e-02" rms="4.9418163299560547e-01" purity="4.5833465456962585e-01" nType="0">
          <Node pos="l" depth="2" NCoef="0" IVar="-1" Cut="0.0000000000000000e+00" cType="1" res="-2.6002344675362110e-03" rms="4.9948579072952271e-01" purity="4.8960232734680176e-01" nType="-99"/>
          <Node pos="r" depth="2" NCoef="0" IVar="-1" Cut="0.0000000000000000e+00" cType="1" res="-2.0341871306300163e-02" rms="4.6102082729339600e-01" purity="3.0588451027870178e-01" nType="-99"/>
        </Node>
      </Node>
    </BinaryTree>
    <BinaryTree type="DecisionTree" boostWeight="1.0000000000000000e+00" itree="9">
      <Node pos="s" depth="0" NCoef="0" IVar="0" Cut="1.1428571939468384e+00" cType="1" res="2.4600001052021980e-02" rms="4.9460458755493164e-01" purity="5.2374607324600220e-01" nType="0">
        <Node pos="l" depth="1" NCoef="0" IVar="2" Cut="7.1931427001953125e+01" cType="1" res="0.0000000000000000e+00" rms="0.0000000000000000e+00" purity="5.5167967081069946e-01" nType="0">
          <Node pos="l" depth="2" NCoef="0" IVar="-1" Cut="0.0000000000000000e+00" cType="1" res="-1.0333851241739467e-04" rms="5.0024205446243286e-01" purity="5.0338053703308105e-01" nType="-99"/>
          <Node pos="r" depth="2" NCoef="0" IVar="-1" Cut="0.0000000000000000e+00" cType="1" res="1.2355988845229149e-02" rms="4.9270489811897278e-01" purity="5.8131510019302368e-01" nType="-99"/>
        </Node>
        <Node pos="r" depth="1" NCoef="0" IVar="2" Cut="7.7262466430664062e+01" cType="1" res="-6.5315239131450653e-02" rms="4.7193273901939392e-01" purity="3.3617627620697021e-01" nType="0">
          <Node pos="l" depth="2" NCoef="0" IVar="-1" Cut="0.0000000000000000e+00" cType="1" res="-2.0789375528693199e-02" rms="4.6036607027053833e-01" purity="3.0355465412139893e-01" nType="-99"/>
          <Node pos="r" depth="2" NCoef="0" IVar="-1" Cut="0.0000000000000000e+00" cType="1" res="-9.0342126786708832e-03" rms="4.7784474492073059e-01" purity="3.5694038867950439e-01" nType="-99"/>
        </Node>
      </Node>
    </BinaryTree>
    <BinaryTree type="DecisionTree" boostWeight="1.0000000000000000e+00" itree="10">
      <Node pos="s" depth="0" NCoef="0" IVar="0" Cut="1.1428571939468384e+00" cType="1" res="-1.5542122535407543e-02" rms="4.9430364370346069e-01" purity="4.8426312208175659e-01" nType="0">
        <Node pos="l" depth="1" NCoef="0" IVar="2" Cut="7.1095977783203125e+01" cType="1" res="0.0000000000000000e+00" rms="0.0000000000000000e+00" purity="5.1400184631347656e-01" nType="0">
          <Node pos="l" depth="2" NCoef="0" IVar="-1" Cut="0.0000000000000000e+00" cType="1" res="-6.5234331414103508e-03" rms="4.9997931718826294e-01" purity="4.7157230973243713e-01" nType="-99"/>
          <Node pos="r" depth="2" NCoef="0" IVar="-1" Cut="0.0000000000000000e+00" cType="1" res="3.1159278005361557e-03" rms="4.9700096249580383e-01" purity="5.4037445783615112e-01" nType="-99"/>
        </Node>
        <Node pos="r" depth="1" NCoef="0" IVar="2" Cut="1.0319412231445312e+02" cType="1" res="-9.2142604291439056e-02" rms="4.5939841866493225e-01" purity="3.0379441380500793e-01" nType="0">
          <Node pos="l" depth="2" NCoef="0" IVar="-1" Cut="0.0000000000000000e+00" cType="1" res="-1.3547607697546482e-02" rms="4.6832808852195740e-01" purity="3.2680159807205200e-01" nType="-99"/>
          <Node pos="r" depth="2" NCoef="0" IVar="-1" Cut="0.0000000000000000e+00" cType="1" res="-2.9857613146305084e-02" rms="4.3768265843391418e-01" purity="2.6101359724998474e-01" nType="-99"/>
        </Node>
      </Node>
    </BinaryTree>
    <BinaryTree type="DecisionTree" boostWeight="1.0000000000000000e+00" itree="11">
      <Node pos="s" depth="0" NCoef="0" IVar="2" Cut="1.7516545104980469e+02" cType="1" res="2.2909890394657850e-03" rms="4.9557101726531982e-01" purity="5.0240015983581543e-01" nType="0">
        <Node pos="l" depth="1" NCoef="0" IVar="2" Cut="6.7874794006347656e+01" cType="1" res="8.9032873511314392e-03" rms="4.9574172496795654e-01" purity="5.0920718908309937e-01" nType="0">
          <Node pos="l" depth="2" NCoef="0" IVar="-1" Cut="0.0000000000000000e+00" cType="1" res="-7.0943338796496391e-03" rms="4.9784252047538757e-01" purity="4.5282000303268433e-01" nType="-99"/>
          <Node pos="r" depth="2" NCoef="0" IVar="-1" Cut="0.0000000000000000e+00" cType="1" res="6.0741398483514786e-03" rms="4.9333441257476807e-01" purity="5.3622692823410034e-01" nType="-99"/>
        </Node>
        <Node pos="r" depth="1" NCoef="0" IVar="-1" Cut="0.0000000000000000e+00" cType="1" res="-2.1777298301458359e-02" rms="4.7965297102928162e-01" purity="3.8964998722076416e-01" nType="-99"/>
      </Node>
    </BinaryTree>
    <BinaryTree type="DecisionTree" boostWeight="1.0000000000000000e+00" itree="12">
      <Node pos="s" depth="0" NCoef="0" IVar="1" Cut="2.2857143878936768e+00" cType="1" res="1.0556622408330441e-02" rms="4.9332696199417114e-01" purity="5.0986856222152710e-01" nType="0">
        <Node pos="l" depth="1" NCoef="0" IVar="2" Cut="6.3243499755859375e+01" cType="1" res="5.1169160753488541e-02" rms="4.9042743444442749e-01" purity="5.7210534811019897e-01" nType="0">
          <Node pos="l" depth="2" NCoef="0" IVar="-1" Cut="0.0000000000000000e+00" cType="1" res="-1.0260611306875944e-03" rms="5.0122010707855225e-01" purity="4.9863195419311523e-01" nType="-99"/>
          <Node pos="r" depth="2" NCoef="0" IVar="-1" Cut="0.0000000000000000e+00" cType="1" res="1.3620587065815926e-02" rms="4.8604354262351990e-01" purity="5.9337401390075684e-01" nType="-99"/>
        </Node>
        <Node pos="r" depth="1" NCoef="0" IVar="0" Cut="1.0952380895614624e+00" cType="1" res="-1.8165839836001396e-02" rms="4.9335312843322754e-01" purity="4.6585267782211304e-01" nType="0">
          <Node pos="l" depth="2" NCoef="0" IVar="-1" Cut="0.0000000000000000e+00" cType="1" res="-1.2819934636354446e-03" rms="4.9959543347358704e-01" purity="4.9992829561233521e-01" nType="-99"/>
          <Node pos="r" depth="2" NCoef="0" IVar="-1" Cut="0.0000000000000000e+00" cType="1" res="-1.6098780557513237e-02" rms="4.5744869112968445e-01" purity="2.9992282390594482e-01" nType="-99"/>
        </Node>
      </Node>
    </BinaryTree>
    <BinaryTree type="DecisionTree" boostWeight="1.0000000000000000e+00" itree="13">
      <Node pos="s" depth="0" NCoef="0" IVar="1" Cut="4.2857141494750977e+00" cType="1" res="1.3719116337597370e-02" rms="4.9585026502609253e-01" purity="5.1496994495391846e-01" nType="0">
        <Node pos="l" depth="1" NCoef="0" IVar="2" Cut="1.2759648895263672e+02" cType="1" res="8.2893874496221542e-03" rms="4.9579244852066040e-01" purity="5.1353865861892700e-01" nType="0">
          <Node pos="l" depth="2" NCoef="0" IVar="-1" Cut="0.0000000000000000e+00" cType="1" res="1.5808749594725668e-04" rms="4.9683555960655212e-01" purity="5.0417023897171021e-01" nType="-99"/>
          <Node pos="r" depth="2" NCoef="0" IVar="-1" Cut="0.0000000000000000e+00" cType="1" res="1.0318769142031670e-02" rms="4.8765012621879578e-01" purity="5.6668645143508911e-01" nType="-99"/>
        </Node>
        <Node pos="r" depth="1" NCoef="0" IVar="2" Cut="9.2190849304199219e+01" cType="1" res="7.6455868780612946e-02" rms="4.9219253659248352e-01" purity="5.3150755167007446e-01" nType="0">
          <Node pos="l" depth="2" NCoef="0" IVar="-1" Cut="0.0000000000000000e+00" cType="1" res="7.6411683112382889e-03" rms="4.9757421016693115e-01" purity="4.9218481779098511e-01" nType="-99"/>
          <Node pos="r" depth="2" NCoef="0" IVar="-1" Cut="0.0000000000000000e+00" cType="1" res="2.5778882205486298e-02" rms="4.8079943656921387e-01" purity="5.8117520809173584e-01" nType="-99"/>
        </Node>
      </Node>
    </BinaryTree>
    <BinaryTree type="DecisionTree" boostWeight="1.0000000000000000e+00" itree="14">
      <Node pos="s" depth="0" NCoef="0" IVar="0" Cut="1.1428571939468384e+00" cType="1" res="3.3256893511861563e-03" rms="4.9385556578636169e-01" purity="5.0461769104003906e-01" nType="0">
        <Node pos="l" depth="1" NCoef="0" IVar="2" Cut="1.1577384185791016e+02" cType="1" res="0.0000000000000000e+00" rms="0.0000000000000000e+00" purity="5.3465634584426880e-01" nType="0">
          <Node pos="l" depth="2" NCoef="0" IVar="-1" Cut="0.0000000000000000e+00" cType="1" res="-1.7060774553101510e-04" rms="4.9974501132965088e-01" purity="5.1541352272033691e-01" nType="-99"/>
          <Node pos="r" depth="2" NCoef="0" IVar="-1" Cut="0.0000000000000000e+00" cType="1" res="1.4941470697522163e-02" rms="4.8454442620277405e-01" purity="6.1208462715148926e-01" nType="-99"/>
        </Node>
        <Node pos="r" depth="1" NCoef="0" IVar="1" Cut="3.1904761791229248e+00" cType="1" res="-6.2204986810684204e-02" rms="4.6466276049613953e-01" purity="3.2148498296737671e-01" nType="0">
          <Node pos="l" depth="2" NCoef="0" IVar="-1" Cut="0.0000000000000000e+00" cType="1" res="-3.3930318895727396e-03" rms="4.8522007465362549e-01" purity="3.8101491332054138e-01" nType="-99"/>
          <Node pos="r" depth="2" NCoef="0" IVar="-1" Cut="0.0000000000000000e+00" cType="1" res="-2.7065094560384750e-02" rms="4.2680534720420837e-01" purity="2.3964497447013855e-01" nType="-99"/>
        </Node>
      </Node>
    </BinaryTree>
    <BinaryTree type="DecisionTree" boostWeight="1.0000000000000000e+00" itree="15">
      <Node pos="s" depth="0" NCoef="0" IVar="0" Cut="1.1428571939468384e+00" cType="1" res="-1.6214063391089439e-02" rms="4.9483433365821838e-01" purity="4.8707342147827148e-01" nType="0">
        <Node pos="l" depth="1" NCoef="0" IVar="1" Cut="3.3333332538604736e+00" cType="1" res="0.0000000000000000e+00" rms="0.0000000000000000e+00" purity="5.1330292224884033e-01" nType="0">
          <Node pos="l" depth="2" NCoef="0" IVar="-1" Cut="0.0000000000000000e+00" cType="1" res="-3.0703777447342873e-03" rms="4.9885129928588867e-01" purity="5.1144915819168091e-01" nType="-99"/>
          <Node pos="r" depth="2" NCoef="0" IVar="-1" Cut="0.0000000000000000e+00" cType="1" res="1.9615110941231251e-03" rms="4.9994874000549316e-01" purity="5.2026605606079102e-01" nType="-99"/>
        </Node>
        <Node pos="r" depth="1" NCoef="0" IVar="2" Cut="7.9960556030273438e+01" cType="1" res="-5.6002419441938400e-02" rms="4.6403709053993225e-01" purity="3.1913256645202637e-01" nType="0">
          <Node pos="l" depth="2" NCoef="0" IVar="-1" Cut="0.0000000000000000e+00" cType="1" res="-4.5882407575845718e-03" rms="4.7620233893394470e-01" purity="3.5057339072227478e-01" nType="-99"/>
          <Node pos="r" depth="2" NCoef="0" IVar="-1" Cut="0.0000000000000000e+00" cType="1" res="-1.7496664077043533e-02" rms="4.5297962427139282e-01" purity="2.9557806253433228e-01" nType="-99"/>
        </Node>
      </Node>
    </BinaryTree>
    <BinaryTree type="DecisionTree" boostWeight="1.0000000000000000e+00" itree="16">
      <Node pos="s" depth="0" NCoef="0" IVar="2" Cut="9.3847923278808594e+01" cType="1" res="-1.3366733677685261e-02" rms="4.9663504958152771e-01" purity="4.8833557963371277e-01" nType="0">
        <Node pos="l" depth="1" NCoef="0" IVar="2" Cut="5.2092128753662109e+01" cType="1" res="9.7040989203378558e-04" rms="4.9809354543685913e-01" purity="4.9587064981460571e-01" nType="0">
          <Node pos="l" depth="2" NCoef="0" IVar="-1" Cut="0.0000000000000000e+00" cType="1" res="-2.0624103024601936e-02" rms="4.9002608656883240e-01" purity="3.8206863403320312e-01" nType="-99"/>
          <Node pos="r" depth="2" NCoef="0" IVar="-1" Cut="0.0000000000000000e+00" cType="1" res="1.8078597495332360e-03" rms="4.9782010912895203e-01" purity="5.0464785099029541e-01" nType="-99"/>
        </Node>
        <Node pos="r" depth="1" NCoef="0" IVar="1" Cut="3.3333332538604736e+00" cType="1" res="-3.5932619124650955e-02" rms="4.9348771572113037e-01" purity="4.7647568583488464e-01" nType="0">
          <Node pos="l" depth="2" NCoef="0" IVar="-1" Cut="0.0000000000000000e+00" cType="1" res="-4.0908879600465298e-03" rms="4.9547001719474792e-01" purity="5.0518399477005005e-01" nType="-99"/>
          <Node pos="r" depth="2" NCoef="0" IVar="-1" Cut="0.0000000000000000e+00" cType="1" res="-1.4895524829626083e-02" rms="4.8684671521186829e-01" purity="4.0944120287895203e-01" nType="-99"/>
        </Node>
      </Node>
    </BinaryTree>
    <BinaryTree type="DecisionTree" boostWeight="1.0000000000000000e+00" itree="17">
      <Node pos="s" depth="0" NCoef="0" IVar="2" Cut="1.3437170410156250e+02" cType="1" res="3.5852028522640467e-03" rms="4.9506926536560059e-01" purity="5.0379383563995361e-01" nType="0">
        <Node pos="l" depth="1" NCoef="0" IVar="2" Cut="1.1824678802490234e+02" cType="1" res="1.2865435332059860e-02" rms="4.9548989534378052e-01" purity="5.1252472400665283e-01" nType="0">
          <Node pos="l" depth="2" NCoef="0" IVar="-1" Cut="0.0000000000000000e+00" cType="1" res="5.6901085190474987e-04" rms="4.9651288986206055e-01" purity="4.9981924891471863e-01" nType="-99"/>
          <Node pos="r" depth="2" NCoef="0" IVar="-1" Cut="0.0000000000000000e+00" cType="1" res="3.6045189946889877e-02" rms="4.4753661751747131e-01" purity="7.2014635801315308e-01" nType="-99"/>
        </Node>
        <Node pos="r" depth="1" NCoef="0" IVar="2" Cut="2.0278088378906250e+02" cType="1" res="-4.5998968183994293e-02" rms="4.8984557390213013e-01" purity="4.5714452862739563e-01" nType="0">
          <Node pos="l" depth="2" NCoef="0" IVar="-1" Cut="0.0000000000000000e+00" cType="1" res="-1.2618707492947578e-02" rms="4.8539149761199951e-01" purity="4.4177019596099854e-01" nType="-99"/>
          <Node pos="r" depth="2" NCoef="0" IVar="-1" Cut="0.0000000000000000e+00" cType="1" res="2.9509514570236206e-03" rms="5.0211638212203979e-01" purity="5.1657062768936157e-01" nType="-99"/>
        </Node>
      </Node>
    </BinaryTree>
    <BinaryTree type="DecisionTree" boostWeight="1.0000000000000000e+00" itree="18">
      <Node pos="s" depth="0" NCoef="0" IVar="1" Cut="3.3333332538604736e+00" cType="1" res="-6.2397890724241734e-03" rms="4.9557361006736755e-01" purity="4.9692353606224060e-01" nType="0">
        <Node pos="l" depth="1" NCoef="0" IVar="1" Cut="2.0476191043853760e+00" cType="1" res="3.5159878898411989e-03" rms="4.9656924605369568e-01" purity="5.1656562089920044e-01" nType="0">
          <Node pos="l" depth="2" NCoef="0" IVar="-1" Cut="0.0000000000000000e+00" cType="1" res="-2.9572683852165937e-03" rms="4.9641060829162598e-01" purity="5.1180583238601685e-01" nType="-99"/>
          <Node pos="r" depth="2" NCoef="0" IVar="-1" Cut="0.0000000000000000e+00" cType="1" res="6.0632280074059963e-03" rms="4.9560609459877014e-01" purity="5.2352356910705566e-01" nType="-99"/>
        </Node>
        <Node pos="r" depth="1" NCoef="0" IVar="2" Cut="8.8834266662597656e+01" cType="1" res="-3.4529358148574829e-02" rms="4.9158164858818054e-01" purity="4.3996596336364746e-01" nType="0">
          <Node pos="l" depth="2" NCoef="0" IVar="-1" Cut="0.0000000000000000e+00" cType="1" res="-1.2375066988170147e-02" rms="4.8811629414558411e-01" purity="4.0740814805030823e-01" nType="-99"/>
          <Node pos="r" depth="2" NCoef="0" IVar="-1" Cut="0.0000000000000000e+00" cType="1" res="-1.3660849072039127e-03" rms="4.9373576045036316e-01" purity="4.7472843527793884e-01" nType="-99"/>
        </Node>
      </Node>
    </BinaryTree>
    <BinaryTree type="DecisionTree" boostWeight="1.0000000000000000e+00" itree="19">
      <Node pos="s" depth="0" NCoef="0" IVar="1" Cut="2.3809523582458496e+00" cType="1" res="-1.0714869014918804e-02" rms="4.9226883053779602e-01" purity="4.8800355195999146e-01" nType="0">
        <Node pos="l" depth="1" NCoef="0" IVar="2" Cut="6.2976440429687500e+01" cType="1" res="2.0654369145631790e-02" rms="4.9489444494247437e-01" purity="5.4610633850097656e-01" nType="0">
          <Node pos="l" depth="2" NCoef="0" IVar="-1" Cut="0.0000000000000000e+00" cType="1" res="-5.6630885228514671e-03" rms="5.0260293483734131e-01" purity="4.7310861945152283e-01" nType="-99"/>
          <Node pos="r" depth="2" NCoef="0" IVar="-1" Cut="0.0000000000000000e+00" cType="1" res="7.3942816816270351e-03" rms="4.9131670594215393e-01" purity="5.6982272863388062e-01" nType="-99"/>
        </Node>
        <Node pos="r" depth="1" NCoef="0" IVar="2" Cut="8.7140991210937500e+01" cType="1" res="-3.3749036490917206e-02" rms="4.8905238509178162e-01" purity="4.4533914327621460e-01" nType="0">
          <Node pos="l" depth="2" NCoef="0" IVar="-1" Cut="0.0000000000000000e+00" cType="1" res="-1.2567724101245403e-02" rms="4.8730918765068054e-01" purity="4.0939572453498840e-01" nType="-99"/>
          <Node pos="r" depth="2" NCoef="0" IVar="-1" Cut="0.0000000000000000e+00" cType="1" res="-3.3202566555701196e-04" rms="4.8906201124191284e-01" purity="4.8639911413192749e-01" nType="-99"/>
        </Node>
      </Node>
    </BinaryTree>
    <BinaryTree type="DecisionTree" boostWeight="1.0000000000000000e+00" itree="20">
      <Node pos="s" depth="0" NCoef="0" IVar="2" Cut="1.7516304016113281e+02" cType="1" res="-1.0653101839125156e-02" rms="4.9333018064498901e-01" purity="4.8680195212364197e-01" nType="0">
        <Node pos="l" depth="1" NCoef="0" IVar="2" Cut="1.2138963317871094e+02" cType="1" res="-6.0821813531219959e-03" rms="4.9340957403182983e-01" purity="4.9186450242996216e-01" nType="0">
          <Node pos="l" depth="2" NCoef="0" IVar="-1" Cut="0.0000000000000000e+00" cType="1" res="-3.3551834058016539e-03" rms="4.9485829472541809e-01" purity="4.7741723060607910e-01" nType="-99"/>
          <Node pos="r" depth="2" NCoef="0" IVar="-1" Cut="0.0000000000000000e+00" cType="1" res="1.3489695265889168e-02" rms="4.7711738944053650e-01" purity="5.9132713079452515e-01" nType="-99"/>
        </Node>
        <Node pos="r" depth="1" NCoef="0" IVar="2" Cut="2.1121798706054688e+02" cType="1" res="-7.9347252845764160e-02" rms="4.8699551820755005e-01" purity="4.1071900725364685e-01" nType="0">
          <Node pos="l" depth="2" NCoef="0" IVar="-1" Cut="0.0000000000000000e+00" cType="1" res="-1.8831711262464523e-02" rms="4.7653019428253174e-01" purity="3.8476839661598206e-01" nType="-99"/>
          <Node pos="r" depth="2" NCoef="0" IVar="-1" Cut="0.0000000000000000e+00" cType="1" res="-1.2930182740092278e-02" rms="4.9935412406921387e-01" purity="4.4316074252128601e-01" nType="-99"/>
        </Node>
      </Node>
    </BinaryTree>
    <BinaryTree type="DecisionTree" boostWeight="1.0000000000000000e+00" itree="21">
      <Node pos="s" depth="0" NCoef="0" IVar="1" Cut="4.3333334922790527e+00" cType="1" res="2.2332156077027321e-03" rms="4.9671730399131775e-01" purity="5.0243282318115234e-01" nType="0">
        <Node pos="l" depth="1" NCoef="0" IVar="2" Cut="1.4701934814453125e+02" cType="1" res="-5.4339575581252575e-03" rms="4.9665686488151550e-01" purity="4.9762362241744995e-01" nType="0">
          <Node pos="l" depth="2" NCoef="0" IVar="-1" Cut="0.0000000000000000e+00" cType="1" res="2.3317527666222304e-04" rms="4.9659505486488342e-01" purity="5.0309145450592041e-01" nType="-99"/>
          <Node pos="r" depth="2" NCoef="0" IVar="-1" Cut="0.0000000000000000e+00" cType="1" res="-1.3114820234477520e-02" rms="4.9330884218215942e-01" purity="4.4867378473281860e-01" nType="-99"/>
        </Node>
        <Node pos="r" depth="1" NCoef="0" IVar="1" Cut="5.1904764175415039e+00" cType="1" res="9.2750936746597290e-02" rms="4.8841527104377747e-01" purity="5.5920928716659546e-01" nType="0">
          <Node pos="l" depth="2" NCoef="0" IVar="-1" Cut="0.0000000000000000e+00" cType="1" res="2.2968903183937073e-02" rms="4.7283816337585449e-01" purity="5.7837122678756714e-01" nType="-99"/>
          <Node pos="r" depth="2" NCoef="0" IVar="-1" Cut="0.0000000000000000e+00" cType="1" res="1.0937158018350601e-02" rms="5.1612007617950439e-01" purity="5.2060455083847046e-01" nType="-99"/>
        </Node>
      </Node>
    </BinaryTree>
    <BinaryTree type="DecisionTree" boostWeight="1.0000000000000000e+00" itree="22">
      <Node pos="s" depth="0" NCoef="0" IVar="1" Cut="2.3333332538604736e+00" cType="1" res="-7.3473602533340454e-03" rms="4.9423462152481079e-01" purity="4.9056789278984070e-01" nType="0">
        <Node pos="l" depth="1" NCoef="0" IVar="2" Cut="1.2225782012939453e+02" cType="1" res="1.2258673086762428e-02" rms="4.9610149860382080e-01" purity="5.3803122043609619e-01" nType="0">
          <Node pos="l" depth="2" NCoef="0" IVar="-1" Cut="0.0000000000000000e+00" cType="1" res="1.7369388660881668e-04" rms="4.9828317761421204e-01" purity="5.2185571193695068e-01" nType="-99"/>
          <Node pos="r" depth="2" NCoef="0" IVar="-1" Cut="0.0000000000000000e+00" cType="1" res="1.9974324852228165e-02" rms="4.7071394324302673e-01" purity="6.5932464599609375e-01" nType="-99"/>
        </Node>
        <Node pos="r" depth="1" NCoef="0" IVar="2" Cut="9.2186393737792969e+01" cType="1" res="-2.1887402981519699e-02" rms="4.9234160780906677e-01" purity="4.5536866784095764e-01" nType="0">
          <Node pos="l" depth="2" NCoef="0" IVar="-1" Cut="0.0000000000000000e+00" cType="1" res="-1.9025771180167794e-03" rms="4.9362808465957642e-01" purity="4.5982772111892700e-01" nType="-99"/>
          <Node pos="r" depth="2" NCoef="0" IVar="-1" Cut="0.0000000000000000e+00" cType="1" res="-7.7591440640389919e-03" rms="4.9020984768867493e-01" purity="4.4962909817695618e-01" nType="-99"/>
        </Node>
      </Node>
    </BinaryTree>
    <BinaryTree type="DecisionTree" boostWeight="1.0000000000000000e+00" itree="23">
      <Node pos="s" depth="0" NCoef="0" IVar="1" Cut="2.2857143878936768e+00" cType="1" res="-1.7859755083918571e-02" rms="4.9477136135101318e-01" purity="4.8034781217575073e-01" nType="0">
        <Node pos="l" depth="1" NCoef="0" IVar="2" Cut="7.8906509399414062e+01" cType="1" res="2.5028688833117485e-03" rms="4.9716344475746155e-01" purity="5.2966421842575073e-01" nType="0">
          <Node pos="l" depth="2" NCoef="0" IVar="-1" Cut="0.0000000000000000e+00" cType="1" res="-3.0498234555125237e-03" rms="4.9967929720878601e-01" purity="4.9412357807159424e-01" nType="-99"/>
          <Node pos="r" depth="2" NCoef="0" IVar="-1" Cut="0.0000000000000000e+00" cType="1" res="4.4146589934825897e-03" rms="4.9370351433753967e-01" purity="5.6822323799133301e-01" nType="-99"/>
        </Node>
        <Node pos="r" depth="1" NCoef="0" IVar="1" Cut="4.1904764175415039e+00" cType="1" res="-3.2366652041673660e-02" rms="4.9254685640335083e-01" purity="4.4521343708038330e-01" nType="0">
          <Node pos="l" depth="2" NCoef="0" IVar="-1" Cut="0.0000000000000000e+00" cType="1" res="-8.4211388602852821e-03" rms="4.9082776904106140e-01" purity="4.3750393390655518e-01" nType="-99"/>
          <Node pos="r" depth="2" NCoef="0" IVar="-1" Cut="0.0000000000000000e+00" cType="1" res="5.2462192252278328e-03" rms="4.9950602650642395e-01" purity="4.9445152282714844e-01" nType="-99"/>
        </Node>
      </Node>
    </BinaryTree>
    <BinaryTree type="DecisionTree" boostWeight="1.0000000000000000e+00" itree="24">
      <Node pos="s" depth="0" NCoef="0" IVar="2" Cut="1.9765301513671875e+02" cType="1" res="9.1465916484594345e-03" rms="4.9407628178596497e-01" purity="5.0405925512313843e-01" nType="0">
        <Node pos="l" depth="1" NCoef="0" IVar="2" Cut="7.1100051879882812e+01" cType="1" res="1.5015452168881893e-02" rms="4.9370262026786804e-01" purity="5.1040995121002197e-01" nType="0">
          <Node pos="l" depth="2" NCoef="0" IVar="-1" Cut="0.0000000000000000e+00" cType="1" res="-3.8187101017683744e-03" rms="4.9529030919075012e-01" purity="4.5293042063713074e-01" nType="-99"/>
          <Node pos="r" depth="2" NCoef="0" IVar="-1" Cut="0.0000000000000000e+00" cType="1" res="7.1747857145965099e-03" rms="4.9163857102394104e-01" purity="5.4475462436676025e-01" nType="-99"/>
        </Node>
        <Node pos="r" depth="1" NCoef="0" IVar="-1" Cut="0.0000000000000000e+00" cType="1" res="-2.5460815057158470e-02" rms="4.8348188400268555e-01" purity="3.5884666442871094e-01" nType="-99"/>
      </Node>
    </BinaryTree>
    <BinaryTree type="DecisionTree" boostWeight="1.0000000000000000e+00" itree="25">
      <Node pos="s" depth="0" NCoef="0" IVar="0" Cut="1.1428571939468384e+00" cType="1" res="1.1954583227634430e-02" rms="4.9445211887359619e-01" purity="5.0986289978027344e-01" nType="0">
        <Node pos="l" depth="1" NCoef="0" IVar="1" Cut="2.2857143878936768e+00" cType="1" res="0.0000000000000000e+00" rms="0.0000000000000000e+00" purity="5.3496557474136353e-01" nType="0">
          <Node pos="l" depth="2" NCoef="0" IVar="-1" Cut="0.0000000000000000e+00" cType="1" res="6.3657057471573353e-03" rms="4.9407303333282471e-01" purity="5.7039362192153931e-01" nType="-99"/>
          <Node pos="r" depth="2" NCoef="0" IVar="-1" Cut="0.0000000000000000e+00" cType="1" res="1.1534102959558368e-03" rms="5.0002533197402954e-01" purity="5.0597798824310303e-01" nType="-99"/>
        </Node>
        <Node pos="r" depth="1" NCoef="0" IVar="1" Cut="3.1428570747375488e+00" cType="1" res="-2.3329822346568108e-02" rms="4.7233697772026062e-01" purity="3.4536403417587280e-01" nType="0">
          <Node pos="l" depth="2" NCoef="0" IVar="-1" Cut="0.0000000000000000e+00" cType="1" res="2.9796522576361895e-03" rms="4.9004685878753662e-01" purity="4.0270325541496277e-01" nType="-99"/>
          <Node pos="r" depth="2" NCoef="0" IVar="-1" Cut="0.0000000000000000e+00" cType="1" res="-1.6798313707113266e-02" rms="4.4131028652191162e-01" purity="2.6566696166992188e-01" nType="-99"/>
        </Node>
      </Node>
    </BinaryTree>
    <BinaryTree type="DecisionTree" boostWeight="1.0000000000000000e+00" itree="26">
      <Node pos="s" depth="0" NCoef="0" IVar="0" Cut="1.1428571939468384e+00" cType="1" res="1.9665438681840897e-02" rms="4.9439862370491028e-01" purity="5.2079349756240845e-01" nType="0">
        <Node pos="l" depth="1" NCoef="0" IVar="1" Cut="4.3333334922790527e+00" cType="1" res="0.0000000000000000e+00" rms="0.0000000000000000e+00" purity="5.4393118619918823e-01" nType="0">
          <Node pos="l" depth="2" NCoef="0" IVar="-1" Cut="0.0000000000000000e+00" cType="1" res="3.7789759226143360e-03" rms="4.9666354060173035e-01" purity="5.3970938920974731e-01" nType="-99"/>
          <Node pos="r" depth="2" NCoef="0" IVar="-1" Cut="0.0000000000000000e+00" cType="1" res="1.7438771203160286e-02" rms="4.9577647447586060e-01" purity="5.9857684373855591e-01" nType="-99"/>
        </Node>
        <Node pos="r" depth="1" NCoef="0" IVar="1" Cut="3.1428570747375488e+00" cType="1" res="-8.7080905213952065e-03" rms="4.7515475749969482e-01" purity="3.5599547624588013e-01" nType="0">
          <Node pos="l" depth="2" NCoef="0" IVar="-1" Cut="0.0000000000000000e+00" cType="1" res="7.0720980875194073e-03" rms="4.9192807078361511e-01" purity="4.2177847027778625e-01" nType="-99"/>
          <Node pos="r" depth="2" NCoef="0" IVar="-1" Cut="0.0000000000000000e+00" cType="1" res="-1.3987032696604729e-02" rms="4.4732788205146790e-01" purity="2.7263566851615906e-01" nType="-99"/>
        </Node>
      </Node>
    </BinaryTree>
    <BinaryTree type="DecisionTree" boostWeight="1.0000000000000000e+00" itree="27">
      <Node pos="s" depth="0" NCoef="0" IVar="0" Cut="1.1428571939468384e+00" cType="1" res="-4.9834828823804855e-03" rms="4.9300584197044373e-01" purity="4.9713242053985596e-01" nType="0">
        <Node pos="l" depth="1" NCoef="0" IVar="2" Cut="8.9470184326171875e+01" cType="1" res="0.0000000000000000e+00" rms="0.0000000000000000e+00" purity="5.2810454368591309e-01" nType="0">
          <Node pos="l" depth="2" NCoef="0" IVar="-1" Cut="0.0000000000000000e+00" cType="1" res="-1.9650412723422050e-03" rms="4.9945124983787537e-01" purity="5.0048404932022095e-01" nType="-99"/>
          <Node pos="r" depth="2" NCoef="0" IVar="-1" Cut="0.0000000000000000e+00" cType="1" res="5.6309853680431843e-03" rms="4.9364537000656128e-01" purity="5.7018738985061646e-01" nType="-99"/>
        </Node>
        <Node pos="r" depth="1" NCoef="0" IVar="1" Cut="2.3333332538604736e+00" cType="1" res="-7.1001678705215454e-02" rms="4.5708984136581421e-01" purity="2.9462069272994995e-01" nType="0">
          <Node pos="l" depth="2" NCoef="0" IVar="-1" Cut="0.0000000000000000e+00" cType="1" res="-2.3899996653199196e-02" rms="4.6157246828079224e-01" purity="3.0254966020584106e-01" nType="-99"/>
          <Node pos="r" depth="2" NCoef="0" IVar="-1" Cut="0.0000000000000000e+00" cType="1" res="-1.2139375321567059e-02" rms="4.5437943935394287e-01" purity="2.9177841544151306e-01" nType="-99"/>
        </Node>
      </Node>
    </BinaryTree>
    <BinaryTree type="DecisionTree" boostWeight="1.0000000000000000e+00" itree="28">
      <Node pos="s" depth="0" NCoef="0" IVar="1" Cut="2.2857143878936768e+00" cType="1" res="-5.9434557333588600e-03" rms="4.9463218450546265e-01" purity="4.9535229802131653e-01" nType="0">
        <Node pos="l" depth="1" NCoef="0" IVar="0" Cut="1.0952380895614624e+00" cType="1" res="-2.7962334454059601e-02" rms="4.9440482258796692e-01" purity="5.0214833021163940e-01" nType="0">
          <Node pos="l" depth="2" NCoef="0" IVar="-1" Cut="0.0000000000000000e+00" cType="1" res="-4.0546068921685219e-03" rms="4.9663349986076355e-01" purity="5.2248096466064453e-01" nType="-99"/>
          <Node pos="r" depth="2" NCoef="0" IVar="-1" Cut="0.0000000000000000e+00" cType="1" res="-2.2046672180294991e-02" rms="4.6464827656745911e-01" purity="3.0155143141746521e-01" nType="-99"/>
        </Node>
        <Node pos="r" depth="1" NCoef="0" IVar="2" Cut="1.2887097167968750e+02" cType="1" res="1.1819790117442608e-02" rms="4.9410092830657959e-01" purity="4.8986974358558655e-01" nType="0">
          <Node pos="l" depth="2" NCoef="0" IVar="-1" Cut="0.0000000000000000e+00" cType="1" res="3.8081924431025982e-03" rms="4.9369573593139648e-01" purity="4.9450343847274780e-01" nType="-99"/>
          <Node pos="r" depth="2" NCoef="0" IVar="-1" Cut="0.0000000000000000e+00" cType="1" res="-3.5578736569732428e-03" rms="4.9475306272506714e-01" purity="4.7022497653961182e-01" nType="-99"/>
        </Node>
      </Node>
    </BinaryTree>
    <BinaryTree type="DecisionTree" boostWeight="1.0000000000000000e+00" itree="29">
      <Node pos="s" depth="0" NCoef="0" IVar="2" Cut="2.0345509338378906e+02" cType="1" res="-6.6483719274401665e-03" rms="4.9406492710113525e-01" purity="4.9554532766342163e-01" nType="0">
        <Node pos="l" depth="1" NCoef="0" IVar="2" Cut="8.6398559570312500e+01" cType="1" res="-2.6755025610327721e-03" rms="4.9393704533576965e-01" purity="4.9989598989486694e-01" nType="0">
          <Node pos="l" depth="2" NCoef="0" IVar="-1" Cut="0.0000000000000000e+00" cType="1" res="-4.3389224447309971e-03" rms="4.9537247419357300e-01" purity="4.6790254116058350e-01" nType="-99"/>
          <Node pos="r" depth="2" NCoef="0" IVar="-1" Cut="0.0000000000000000e+00" cType="1" res="4.4968300499022007e-03" rms="4.9095317721366882e-01" purity="5.4200541973114014e-01" nType="-99"/>
        </Node>
        <Node pos="r" depth="1" NCoef="0" IVar="-1" Cut="0.0000000000000000e+00" cType="1" res="-2.4052554741501808e-02" rms="4.8436665534973145e-01" purity="3.7254822254180908e-01" nType="-99"/>
      </Node>
    </BinaryTree>
    <BinaryTree type="DecisionTree" boostWeight="1.0000000000000000e+00" itree="30">
      <Node pos="s" depth="0" NCoef="0" IVar="2" Cut="9.3849655151367188e+01" cType="1" res="1.9848424941301346e-02" rms="4.9334481358528137e-01" purity="5.1894354820251465e-01" nType="0">
        <Node pos="l" depth="1" NCoef="0" IVar="2" Cut="8.3395530700683594e+01" cType="1" res="3.5122636705636978e-02" rms="4.9339637160301208e-01" purity="5.2322870492935181e-01" nType="0">
          <Node pos="l" depth="2" NCoef="0" IVar="-1" Cut="0.0000000000000000e+00" cType="1" res="3.4992864821106195e-03" rms="4.9534302949905396e-01" purity="4.9973723292350769e-01" nType="-99"/>
          <Node pos="r" depth="2" NCoef="0" IVar="-1" Cut="0.0000000000000000e+00" cType="1" res="2.5428121909499168e-02" rms="4.7346001863479614e-01" purity="6.4091408252716064e-01" nType="-99"/>
        </Node>
        <Node pos="r" depth="1" NCoef="0" IVar="1" Cut="2.3333332538604736e+00" cType="1" res="-4.8708743415772915e-03" rms="4.9225828051567078e-01" purity="5.1200860738754272e-01" nType="0">
          <Node pos="l" depth="2" NCoef="0" IVar="-1" Cut="0.0000000000000000e+00" cType="1" res="-9.7952829673886299e-03" rms="4.9828693270683289e-01" purity="5.1363611221313477e-01" nType="-99"/>
          <Node pos="r" depth="2" NCoef="0" IVar="-1" Cut="0.0000000000000000e+00" cType="1" res="4.8097879625856876e-03" rms="4.8615688085556030e-01" purity="5.1093101501464844e-01" nType="-99"/>
        </Node>
      </Node>
    </BinaryTree>
    <BinaryTree type="DecisionTree" boostWeight="1.0000000000000000e+00" itree="31">
      <Node pos="s" depth="0" NCoef="0" IVar="2" Cut="1.9763847351074219e+02" cType="1" res="-2.3665782064199448e-02" rms="4.9482500553131104e-01" purity="4.7759607434272766e-01" nType="0">
        <Node pos="l" depth="1" NCoef="0" IVar="1" Cut="4.2857141494750977e+00" cType="1" res="-2.7250014245510101e-02" rms="4.9454969167709351e-01" purity="4.7498267889022827e-01" nType="0">
          <Node pos="l" depth="2" NCoef="0" IVar="-1" Cut="0.0000000000000000e+00" cType="1" res="-6.4767114818096161e-03" rms="4.9450647830963135e-01" purity="4.7228297591209412e-01" nType="-99"/>
          <Node pos="r" depth="2" NCoef="0" IVar="-1" Cut="0.0000000000000000e+00" cType="1" res="5.8282963000237942e-03" rms="4.9169528484344482e-01" purity="5.0753432512283325e-01" nType="-99"/>
        </Node>
        <Node pos="r" depth="1" NCoef="0" IVar="-1" Cut="0.0000000000000000e+00" cType="1" res="1.9120056182146072e-02" rms="4.8950317502021790e-01" purity="5.6300169229507446e-01" nType="-99"/>
      </Node>
    </BinaryTree>
    <BinaryTree type="DecisionTree" boostWeight="1.0000000000000000e+00" itree="32">
      <Node pos="s" depth="0" NCoef="0" IVar="2" Cut="7.1101242065429688e+01" cType="1" res="5.1520774140954018e-03" rms="4.9290865659713745e-01" purity="5.0373739004135132e-01" nType="0">
        <Node pos="l" depth="1" NCoef="0" IVar="1" Cut="3.1428570747375488e+00" cType="1" res="-1.4270428568124771e-02" rms="4.9795010685920715e-01" purity="4.5809262990951538e-01" nType="0">
          <Node pos="l" depth="2" NCoef="0" IVar="-1" Cut="0.0000000000000000e+00" cType="1" res="-5.6711053475737572e-03" rms="4.9550408124923706e-01" purity="4.5037204027175903e-01" nType="-99"/>
          <Node pos="r" depth="2" NCoef="0" IVar="-1" Cut="0.0000000000000000e+00" cType="1" res="1.1138069443404675e-02" rms="5.0430524349212646e-01" purity="4.9619707465171814e-01" nType="-99"/>
        </Node>
        <Node pos="r" depth="1" NCoef="0" IVar="1" Cut="3.3333332538604736e+00" cType="1" res="1.6590008512139320e-02" rms="4.8955509066581726e-01" purity="5.3061765432357788e-01" nType="0">
          <Node pos="l" depth="2" NCoef="0" IVar="-1" Cut="0.0000000000000000e+00" cType="1" res="6.3366461545228958e-03" rms="4.9003168940544128e-01" purity="5.5850142240524292e-01" nType="-99"/>
          <Node pos="r" depth="2" NCoef="0" IVar="-1" Cut="0.0000000000000000e+00" cType="1" res="-4.4542420655488968e-03" rms="4.8623514175415039e-01" purity="4.5753288269042969e-01" nType="-99"/>
        </Node>
      </Node>
    </BinaryTree>
    <BinaryTree type="DecisionTree" boostWeight="1.0000000000000000e+00" itree="33">
      <Node pos="s" depth="0" NCoef="0" IVar="1" Cut="3.3333332538604736e+00" cType="1" res="-7.8954454511404037e-03" rms="4.9379950761795044e-01" purity="4.9039041996002197e-01" nType="0">
        <Node pos="l" depth="1" NCoef="0" IVar="2" Cut="1.6086491394042969e+02" cType="1" res="1.7383396334480494e-04" rms="4.9466878175735474e-01" purity="5.0938850641250610e-01" nType="0">
          <Node pos="l" depth="2" NCoef="0" IVar="-1" Cut="0.0000000000000000e+00" cType="1" res="1.1390902800485492e-03" rms="4.9388885498046875e-01" purity="5.1390236616134644e-01" nType="-99"/>
          <Node pos="r" depth="2" NCoef="0" IVar="-1" Cut="0.0000000000000000e+00" cType="1" res="-1.5157831832766533e-02" rms="4.9929159879684448e-01" purity="4.4717732071876526e-01" nType="-99"/>
        </Node>
        <Node pos="r" depth="1" NCoef="0" IVar="2" Cut="6.7714607238769531e+01" cType="1" res="-3.2062210142612457e-02" rms="4.9039325118064880e-01" purity="4.3349310755729675e-01" nType="0">
          <Node pos="l" depth="2" NCoef="0" IVar="-1" Cut="0.0000000000000000e+00" cType="1" res="1.4770443551242352e-02" rms="4.8658502101898193e-01" purity="4.9835562705993652e-01" nType="-99"/>
          <Node pos="r" depth="2" NCoef="0" IVar="-1" Cut="0.0000000000000000e+00" cType="1" res="-1.2718216516077518e-02" rms="4.8747727274894714e-01" purity="4.1479501128196716e-01" nType="-99"/>
        </Node>
      </Node>
    </BinaryTree>
    <BinaryTree type="DecisionTree" boostWeight="1.0000000000000000e+00" itree="34">
      <Node pos="s" depth="0" NCoef="0" IVar="2" Cut="1.1329550933837891e+02" cType="1" res="-4.2414786294102669e-03" rms="4.9306932091712952e-01" purity="4.9464911222457886e-01" nType="0">
        <Node pos="l" depth="1" NCoef="0" IVar="1" Cut="3.1428570747375488e+00" cType="1" res="-1.7474554479122162e-02" rms="4.9499177932739258e-01" purity="4.7733280062675476e-01" nType="0">
          <Node pos="l" depth="2" NCoef="0" IVar="-1" Cut="0.0000000000000000e+00" cType="1" res="-1.2420089915394783e-03" rms="4.9714535474777222e-01" purity="4.9806475639343262e-01" nType="-99"/>
          <Node pos="r" depth="2" NCoef="0" IVar="-1" Cut="0.0000000000000000e+00" cType="1" res="-1.1412664316594601e-02" rms="4.8576569557189941e-01" purity="4.0776357054710388e-01" nType="-99"/>
        </Node>
        <Node pos="r" depth="1" NCoef="0" IVar="2" Cut="1.4949604797363281e+02" cType="1" res="4.3366547673940659e-02" rms="4.8310148715972900e-01" purity="5.5694729089736938e-01" nType="0">
          <Node pos="l" depth="2" NCoef="0" IVar="-1" Cut="0.0000000000000000e+00" cType="1" res="1.4485584571957588e-02" rms="4.7583588957786560e-01" purity="6.0358500480651855e-01" nType="-99"/>
          <Node pos="r" depth="2" NCoef="0" IVar="-1" Cut="0.0000000000000000e+00" cType="1" res="2.0116451196372509e-03" rms="4.9001345038414001e-01" purity="4.9836269021034241e-01" nType="-99"/>
        </Node>
      </Node>
    </BinaryTree>
    <BinaryTree type="DecisionTree" boostWeight="1.0000000000000000e+00" itree="35">
      <Node pos="s" depth="0" NCoef="0" IVar="1" Cut="4.3333334922790527e+00" cType="1" res="1.1873778887093067e-02" rms="4.9417853355407715e-01" purity="5.1117789745330811e-01" nType="0">
        <Node pos="l" depth="1" NCoef="0" IVar="2" Cut="6.8483283996582031e+01" cType="1" res="1.8297906965017319e-02" rms="4.9521845579147339e-01" purity="5.2093273401260376e-01" nType="0">
          <Node pos="l" depth="2" NCoef="0" IVar="-1" Cut="0.0000000000000000e+00" cType="1" res="-1.6772930976003408e-03" rms="4.9644047021865845e-01" purity="4.6054393053054810e-01" nType="-99"/>
          <Node pos="r" depth="2" NCoef="0" IVar="-1" Cut="0.0000000000000000e+00" cType="1" res="6.4146318472921848e-03" rms="4.9408304691314697e-01" purity="5.5084371566772461e-01" nType="-99"/>
        </Node>
        <Node pos="r" depth="1" NCoef="0" IVar="2" Cut="1.1335228729248047e+02" cType="1" res="-4.9512390047311783e-02" rms="4.7981047630310059e-01" purity="4.1796481609344482e-01" nType="0">
          <Node pos="l" depth="2" NCoef="0" IVar="-1" Cut="0.0000000000000000e+00" cType="1" res="-1.5247156843543053e-02" rms="4.7849065065383911e-01" purity="3.8310095667839050e-01" nType="-99"/>
          <Node pos="r" depth="2" NCoef="0" IVar="-1" Cut="0.0000000000000000e+00" cType="1" res="-1.3943848898634315e-03" rms="4.7917738556861877e-01" purity="4.7996523976325989e-01" nType="-99"/>
        </Node>
      </Node>
    </BinaryTree>
    <BinaryTree type="DecisionTree" boostWeight="1.0000000000000000e+00" itree="36">
      <Node pos="s" depth="0" NCoef="0" IVar="2" Cut="1.8153659057617188e+02" cType="1" res="-1.1380232172086835e-03" rms="4.9565598368644714e-01" purity="4.9910819530487061e-01" nType="0">
        <Node pos="l" depth="1" NCoef="0" IVar="2" Cut="8.1317283630371094e+01" cType="1" res="-4.6387687325477600e-03" rms="4.9553140997886658e-01" purity="4.9680292606353760e-01" nType="0">
          <Node pos="l" depth="2" NCoef="0" IVar="-1" Cut="0.0000000000000000e+00" cType="1" res="3.7138003390282393e-03" rms="4.9658831954002380e-01" purity="4.9600452184677124e-01" nType="-99"/>
          <Node pos="r" depth="2" NCoef="0" IVar="-1" Cut="0.0000000000000000e+00" cType="1" res="-5.6438432075083256e-03" rms="4.9340665340423584e-01" purity="4.9760186672210693e-01" nType="-99"/>
        </Node>
        <Node pos="r" depth="1" NCoef="0" IVar="-1" Cut="0.0000000000000000e+00" cType="1" res="1.4607219956815243e-02" rms="4.9267151951789856e-01" purity="5.4683005809783936e-01" nType="-99"/>
      </Node>
    </BinaryTree>
    <BinaryTree type="DecisionTree" boostWeight="1.0000000000000000e+00" itree="37">
      <Node pos="s" depth="0" NCoef="0" IVar="2" Cut="6.8573280334472656e+01" cType="1" res="-4.0045002242550254e-04" rms="4.9259194731712341e-01" purity="4.9692732095718384e-01" nType="0">
        <Node pos="l" depth="1" NCoef="0" IVar="1" Cut="2.2857143878936768e+00" cType="1" res="-2.9813058674335480e-02" rms="4.9356898665428162e-01" purity="4.3936678767204285e-01" nType="0">
          <Node pos="l" depth="2" NCoef="0" IVar="-1" Cut="0.0000000000000000e+00" cType="1" res="2.9456187039613724e-03" rms="4.9842828512191772e-01" purity="5.0599348545074463e-01" nType="-99"/>
          <Node pos="r" depth="2" NCoef="0" IVar="-1" Cut="0.0000000000000000e+00" cType="1" res="-1.3297691941261292e-02" rms="4.8676922917366028e-01" purity="3.8632765412330627e-01" nType="-99"/>
        </Node>
        <Node pos="r" depth="1" NCoef="0" IVar="2" Cut="1.2163840484619141e+02" cType="1" res="1.4345277100801468e-02" rms="4.9143934249877930e-01" purity="5.2578473091125488e-01" nType="0">
          <Node pos="l" depth="2" NCoef="0" IVar="-1" Cut="0.0000000000000000e+00" cType="1" res="9.1101467842236161e-04" rms="4.9462381005287170e-01" purity="5.1351225376129150e-01" nType="-99"/>
          <Node pos="r" depth="2" NCoef="0" IVar="-1" Cut="0.0000000000000000e+00" cType="1" res="8.7255742400884628e-03" rms="4.8123273253440857e-01" purity="5.6045663356781006e-01" nType="-99"/>
        </Node>
      </Node>
    </BinaryTree>
    <BinaryTree type="DecisionTree" boostWeight="1.0000000000000000e+00" itree="38">
      <Node pos="s" depth="0" NCoef="0" IVar="1" Cut="2.2857143878936768e+00" cType="1" res="4.9226945266127586e-03" rms="4.9355840682983398e-01" purity="5.0547134876251221e-01" nType="0">
        <Node pos="l" depth="1" NCoef="0" IVar="2" Cut="6.1280601501464844e+01" cType="1" res="-1.3892423361539841e-02" rms="4.9135693907737732e-01" purity="5.1520717144012451e-01" nType="0">
          <Node pos="l" depth="2" NCoef="0" IVar="-1" Cut="0.0000000000000000e+00" cType="1" res="-1.6277208924293518e-02" rms="4.9327701330184937e-01" purity="4.1021960973739624e-01" nType="-99"/>
          <Node pos="r" depth="2" NCoef="0" IVar="-1" Cut="0.0000000000000000e+00" cType="1" res="1.5240872744470835e-03" rms="4.8881173133850098e-01" purity="5.4851078987121582e-01" nType="-99"/>
        </Node>
        <Node pos="r" depth="1" NCoef="0" IVar="2" Cut="6.7377380371093750e+01" cType="1" res="1.9880652427673340e-02" rms="4.9479135870933533e-01" purity="4.9773141741752625e-01" nType="0">
          <Node pos="l" depth="2" NCoef="0" IVar="-1" Cut="0.0000000000000000e+00" cType="1" res="1.3460393063724041e-02" rms="4.8928737640380859e-01" purity="5.0169301033020020e-01" nType="-99"/>
          <Node pos="r" depth="2" NCoef="0" IVar="-1" Cut="0.0000000000000000e+00" cType="1" res="7.9504476161673665e-04" rms="4.9572288990020752e-01" purity="4.9633833765983582e-01" nType="-99"/>
        </Node>
      </Node>
    </BinaryTree>
    <BinaryTree type="DecisionTree" boostWeight="1.0000000000000000e+00" itree="39">
      <Node pos="s" depth="0" NCoef="0" IVar="2" Cut="2.0772151184082031e+02" cType="1" res="1.7383910715579987e-02" rms="4.9418836832046509e-01" purity="5.1938730478286743e-01" nType="0">
        <Node pos="l" depth="1" NCoef="0" IVar="2" Cut="8.0040267944335938e+01" cType="1" res="2.1808605641126633e-02" rms="4.9401637911796570e-01" purity="5.2443718910217285e-01" nType="0">
          <Node pos="l" depth="2" NCoef="0" IVar="-1" Cut="0.0000000000000000e+00" cType="1" res="7.1914079599082470e-03" rms="4.9802029132843018e-01" purity="5.1464408636093140e-01" nType="-99"/>
          <Node pos="r" depth="2" NCoef="0" IVar="-1" Cut="0.0000000000000000e+00" cType="1" res="1.9351082155480981e-03" rms="4.9002081155776978e-01" purity="5.3333932161331177e-01" nType="-99"/>
        </Node>
        <Node pos="r" depth="1" NCoef="0" IVar="-1" Cut="0.0000000000000000e+00" cType="1" res="-2.2834433242678642e-02" rms="4.8170480132102966e-01" purity="3.7253576517105103e-01" nType="-99"/>
      </Node>
    </BinaryTree>
    <BinaryTree type="DecisionTree" boostWeight="1.0000000000000000e+00" itree="40">
      <Node pos="s" depth="0" NCoef="0" IVar="2" Cut="1.2390916442871094e+02" cType="1" res="1.6050474718213081e-02" rms="4.9403241276741028e-01" purity="5.1852393150329590e-01" nType="0">
        <Node pos="l" depth="1" NCoef="0" IVar="2" Cut="1.0629190063476562e+02" cType="1" res="5.2723032422363758e-03" rms="4.9668031930923462e-01" purity="5.0402182340621948e-01" nType="0">
          <Node pos="l" depth="2" NCoef="0" IVar="-1" Cut="0.0000000000000000e+00" cType="1" res="2.6580367702990770e-03" rms="4.9659273028373718e-01" purity="5.0822758674621582e-01" nType="-99"/>
          <Node pos="r" depth="2" NCoef="0" IVar="-1" Cut="0.0000000000000000e+00" cType="1" res="-9.5097245648503304e-03" rms="4.9415388703346252e-01" purity="4.7615578770637512e-01" nType="-99"/>
        </Node>
        <Node pos="r" depth="1" NCoef="0" IVar="1" Cut="2.2380952835083008e+00" cType="1" res="7.1659244596958160e-02" rms="4.7627899050712585e-01" purity="5.9334611892700195e-01" nType="0">
          <Node pos="l" depth="2" NCoef="0" IVar="-1" Cut="0.0000000000000000e+00" cType="1" res="2.3881124332547188e-02" rms="4.4779080152511597e-01" purity="6.9650608301162720e-01" nType="-99"/>
          <Node pos="r" depth="2" NCoef="0" IVar="-1" Cut="0.0000000000000000e+00" cType="1" res="1.0718707926571369e-02" rms="4.8725670576095581e-01" purity="5.4717814922332764e-01" nType="-99"/>
        </Node>
      </Node>
    </BinaryTree>
    <BinaryTree type="DecisionTree" boostWeight="1.0000000000000000e+00" itree="41">
      <Node pos="s" depth="0" NCoef="0" IVar="2" Cut="9.3847923278808594e+01" cType="1" res="2.9687131755053997e-03" rms="4.9368029832839966e-01" purity="5.0682395696640015e-01" nType="0">
        <Node pos="l" depth="1" NCoef="0" IVar="2" Cut="8.5478553771972656e+01" cType="1" res="1.9455051049590111e-02" rms="4.9257913231849670e-01" purity="5.1074808835983276e-01" nType="0">
          <Node pos="l" depth="2" NCoef="0" IVar="-1" Cut="0.0000000000000000e+00" cType="1" res="1.2601036578416824e-03" rms="4.9322265386581421e-01" purity="4.9140506982803345e-01" nType="-99"/>
          <Node pos="r" depth="2" NCoef="0" IVar="-1" Cut="0.0000000000000000e+00" cType="1" res="2.2151248529553413e-02" rms="4.7885528206825256e-01" purity="6.4048963785171509e-01" nType="-99"/>
        </Node>
        <Node pos="r" depth="1" NCoef="0" IVar="2" Cut="1.9303222656250000e+02" cType="1" res="-2.5287089869379997e-02" rms="4.9428474903106689e-01" purity="5.0009846687316895e-01" nType="0">
          <Node pos="l" depth="2" NCoef="0" IVar="-1" Cut="0.0000000000000000e+00" cType="1" res="-7.4144843965768814e-03" rms="4.9298354983329773e-01" purity="4.9211588501930237e-01" nType="-99"/>
          <Node pos="r" depth="2" NCoef="0" IVar="-1" Cut="0.0000000000000000e+00" cType="1" res="1.8629850819706917e-02" rms="4.9316480755805969e-01" purity="5.8648854494094849e-01" nType="-99"/>
        </Node>
      </Node>
    </BinaryTree>
    <BinaryTree type="DecisionTree" boostWeight="1.0000000000000000e+00" itree="42">
      <Node pos="s" depth="0" NCoef="0" IVar="2" Cut="9.3847923278808594e+01" cType="1" res="8.0521190539002419e-03" rms="4.9637204408645630e-01" purity="5.1733148097991943e-01" nType="0">
        <Node pos="l" depth="1" NCoef="0" IVar="2" Cut="8.9651847839355469e+01" cType="1" res="3.1580086797475815e-02" rms="4.9601393938064575e-01" purity="5.3097283840179443e-01" nType="0">
          <Node pos="l" depth="2" NCoef="0" IVar="-1" Cut="0.0000000000000000e+00" cType="1" res="4.8211007378995419e-03" rms="4.9763232469558716e-01" purity="5.2011072635650635e-01" nType="-99"/>
          <Node pos="r" depth="2" NCoef="0" IVar="-1" Cut="0.0000000000000000e+00" cType="1" res="3.3292222768068314e-02" rms="4.4812491536140442e-01" purity="7.1334803104400635e-01" nType="-99"/>
        </Node>
        <Node pos="r" depth="1" NCoef="0" IVar="2" Cut="1.5336746215820312e+02" cType="1" res="-2.7183197438716888e-02" rms="4.9481999874114990e-01" purity="4.9690237641334534e-01" nType="0">
          <Node pos="l" depth="2" NCoef="0" IVar="-1" Cut="0.0000000000000000e+00" cType="1" res="-8.6169065907597542e-03" rms="4.9254918098449707e-01" purity="4.8541179299354553e-01" nType="-99"/>
          <Node pos="r" depth="2" NCoef="0" IVar="-1" Cut="0.0000000000000000e+00" cType="1" res="6.6436207853257656e-03" rms="4.9935227632522583e-01" purity="5.4276520013809204e-01" nType="-99"/>
        </Node>
      </Node>
    </BinaryTree>
    <BinaryTree type="DecisionTree" boostWeight="1.0000000000000000e+00" itree="43">
      <Node pos="s" depth="0" NCoef="0" IVar="1" Cut="4.2857141494750977e+00" cType="1" res="-1.0042559355497360e-02" rms="4.9388390779495239e-01" purity="4.9622049927711487e-01" nType="0">
        <Node pos="l" depth="1" NCoef="0" IVar="2" Cut="1.0543490600585938e+02" cType="1" res="-1.6070028766989708e-02" rms="4.9352067708969116e-01" purity="4.9316260218620300e-01" nType="0">
          <Node pos="l" depth="2" NCoef="0" IVar="-1" Cut="0.0000000000000000e+00" cType="1" res="-1.8060873262584209e-03" rms="4.9382424354553223e-01" purity="4.9303549528121948e-01" nType="-99"/>
          <Node pos="r" depth="2" NCoef="0" IVar="-1" Cut="0.0000000000000000e+00" cType="1" res="-7.3419469408690929e-03" rms="4.9215707182884216e-01" purity="4.9350988864898682e-01" nType="-99"/>
        </Node>
        <Node pos="r" depth="1" NCoef="0" IVar="2" Cut="1.1584458160400391e+02" cType="1" res="5.6122414767742157e-02" rms="4.9303314089775085e-01" purity="5.2978825569152832e-01" nType="0">
          <Node pos="l" depth="2" NCoef="0" IVar="-1" Cut="0.0000000000000000e+00" cType="1" res="1.8607884645462036e-02" rms="4.8972821235656738e-01" purity="5.5215370655059814e-01" nType="-99"/>
          <Node pos="r" depth="2" NCoef="0" IVar="-1" Cut="0.0000000000000000e+00" cType="1" res="4.8204793711192906e-04" rms="4.9340674281120300e-01" purity="4.9465328454971313e-01" nType="-99"/>
        </Node>
      </Node>
    </BinaryTree>
    <BinaryTree type="DecisionTree" boostWeight="1.0000000000000000e+00" itree="44">
      <Node pos="s" depth="0" NCoef="0" IVar="1" Cut="3.3333332538604736e+00" cType="1" res="1.8264126265421510e-03" rms="4.9376782774925232e-01" purity="5.0532048940658569e-01" nType="0">
        <Node pos="l" depth="1" NCoef="0" IVar="1" Cut="2.0476191043853760e+00" cType="1" res="9.5220403745770454e-03" rms="4.9507033824920654e-01" purity="5.2595549821853638e-01" nType="0">
          <Node pos="l" depth="2" NCoef="0" IVar="-1" Cut="0.0000000000000000e+00" cType="1" res="-2.2179686930030584e-03" rms="4.9464789032936096e-01" purity="5.2177649736404419e-01" nType="-99"/>
          <Node pos="r" depth="2" NCoef="0" IVar="-1" Cut="0.0000000000000000e+00" cType="1" res="7.9039800912141800e-03" rms="4.9419260025024414e-01" purity="5.3198683261871338e-01" nType="-99"/>
        </Node>
        <Node pos="r" depth="1" NCoef="0" IVar="2" Cut="1.5546139526367188e+02" cType="1" res="-2.0925750955939293e-02" rms="4.8918908834457397e-01" purity="4.4431310892105103e-01" nType="0">
          <Node pos="l" depth="2" NCoef="0" IVar="-1" Cut="0.0000000000000000e+00" cType="1" res="-2.1524562034755945e-03" rms="4.9185252189636230e-01" purity="4.5572286844253540e-01" nType="-99"/>
          <Node pos="r" depth="2" NCoef="0" IVar="-1" Cut="0.0000000000000000e+00" cType="1" res="-1.7814250662922859e-02" rms="4.6727812290191650e-01" purity="3.7400582432746887e-01" nType="-99"/>
        </Node>
      </Node>
    </BinaryTree>
    <BinaryTree type="DecisionTree" boostWeight="1.0000000000000000e+00" itree="45">
      <Node pos="s" depth="0" NCoef="0" IVar="0" Cut="1.1428571939468384e+00" cType="1" res="-7.2633908130228519e-03" rms="4.9120393395423889e-01" purity="4.9490717053413391e-01" nType="0">
        <Node pos="l" depth="1" NCoef="0" IVar="1" Cut="4.3333334922790527e+00" cType="1" res="0.0000000000000000e+00" rms="0.0000000000000000e+00" purity="5.2929562330245972e-01" nType="0">
          <Node pos="l" depth="2" NCoef="0" IVar="-1" Cut="0.0000000000000000e+00" cType="1" res="-7.7768333721905947e-04" rms="4.9722900986671448e-01" purity="5.2393019199371338e-01" nType="-99"/>
          <Node pos="r" depth="2" NCoef="0" IVar="-1" Cut="0.0000000000000000e+00" cType="1" res="1.5904711559414864e-02" rms="4.9018827080726624e-01" purity="6.0179907083511353e-01" nType="-99"/>
        </Node>
        <Node pos="r" depth="1" NCoef="0" IVar="1" Cut="3.3333332538604736e+00" cType="1" res="-5.9771586209535599e-02" rms="4.5167601108551025e-01" purity="2.9716435074806213e-01" nType="0">
          <Node pos="l" depth="2" NCoef="0" IVar="-1" Cut="0.0000000000000000e+00" cType="1" res="-5.1771802827715874e-03" rms="4.8016852140426636e-01" purity="3.6490571498870850e-01" nType="-99"/>
          <Node pos="r" depth="2" NCoef="0" IVar="-1" Cut="0.0000000000000000e+00" cType="1" res="-2.3152494803071022e-02" rms="4.1258916258811951e-01" purity="2.1885827183723450e-01" nType="-99"/>
        </Node>
      </Node>
    </BinaryTree>
    <BinaryTree type="DecisionTree" boostWeight="1.0000000000000000e+00" itree="46">
      <Node pos="s" depth="0" NCoef="0" IVar="2" Cut="1.3437121582031250e+02" cType="1" res="1.6439685132354498e-03" rms="4.9383980035781860e-01" purity="5.0663906335830688e-01" nType="0">
        <Node pos="l" depth="1" NCoef="0" IVar="2" Cut="1.1829921722412109e+02" cType="1" res="1.1620007455348969e-02" rms="4.9386060237884521e-01" purity="5.1463961601257324e-01" nType="0">
          <Node pos="l" depth="2" NCoef="0" IVar="-1" Cut="0.0000000000000000e+00" cType="1" res="1.2966745998710394e-03" rms="4.9508857727050781e-01" purity="5.0487422943115234e-01" nType="-99"/>
          <Node pos="r" depth="2" NCoef="0" IVar="-1" Cut="0.0000000000000000e+00" cType="1" res="1.7910759896039963e-02" rms="4.6985220909118652e-01" purity="6.5302008390426636e-01" nType="-99"/>
        </Node>
        <Node pos="r" depth="1" NCoef="0" IVar="1" Cut="3.3333332538604736e+00" cType="1" res="-5.4966412484645844e-02" rms="4.8988932371139526e-01" purity="4.6123906970024109e-01" nType="0">
          <Node pos="l" depth="2" NCoef="0" IVar="-1" Cut="0.0000000000000000e+00" cType="1" res="-7.0499205030500889e-03" rms="4.9869588017463684e-01" purity="5.1452064514160156e-01" nType="-99"/>
          <Node pos="r" depth="2" NCoef="0" IVar="-1" Cut="0.0000000000000000e+00" cType="1" res="-1.7676556482911110e-02" rms="4.7512656450271606e-01" purity="3.8323977589607239e-01" nType="-99"/>
        </Node>
      </Node>
    </BinaryTree>
    <BinaryTree type="DecisionTree" boostWeight="1.0000000000000000e+00" itree="47">
      <Node pos="s" depth="0" NCoef="0" IVar="2" Cut="1.8799041748046875e+02" cType="1" res="-1.0207880288362503e-02" rms="4.9572595953941345e-01" purity="4.9582499265670776e-01" nType="0">
        <Node pos="l" depth="1" NCoef="0" IVar="2" Cut="7.6045669555664062e+01" cType="1" res="-1.3030424714088440e-02" rms="4.9591520428657532e-01" purity="4.9369564652442932e-01" nType="0">
          <Node pos="l" depth="2" NCoef="0" IVar="-1" Cut="0.0000000000000000e+00" cType="1" res="-6.7025097087025642e-03" rms="4.9557459354400635e-01" purity="4.5146530866622925e-01" nType="-99"/>
          <Node pos="r" depth="2" NCoef="0" IVar="-1" Cut="0.0000000000000000e+00" cType="1" res="7.7400397276505828e-04" rms="4.9557679891586304e-01" purity="5.2911651134490967e-01" nType="-99"/>
        </Node>
        <Node pos="r" depth="1" NCoef="0" IVar="-1" Cut="0.0000000000000000e+00" cType="1" res="1.4988075941801071e-02" rms="4.8272201418876648e-01" purity="5.5870348215103149e-01" nType="-99"/>
      </Node>
    </BinaryTree>
    <BinaryTree type="DecisionTree" boostWeight="1.0000000000000000e+00" itree="48">
      <Node pos="s" depth="0" NCoef="0" IVar="1" Cut="4.2857141494750977e+00" cType="1" res="-1.5582394786179066e-02" rms="4.9687844514846802e-01" purity="4.8909419775009155e-01" nType="0">
        <Node pos="l" depth="1" NCoef="0" IVar="1" Cut="2.0952382087707520e+00" cType="1" res="-1.0950073599815369e-02" rms="4.9653974175453186e-01" purity="4.9700757861137390e-01" nType="0">
          <Node pos="l" depth="2" NCoef="0" IVar="-1" Cut="0.0000000000000000e+00" cType="1" res="-5.5100223980844021e-03" rms="4.9939319491386414e-01" purity="5.0517266988754272e-01" nType="-99"/>
          <Node pos="r" depth="2" NCoef="0" IVar="-1" Cut="0.0000000000000000e+00" cType="1" res="8.5647572996094823e-04" rms="4.9336329102516174e-01" purity="4.8933541774749756e-01" nType="-99"/>
        </Node>
        <Node pos="r" depth="1" NCoef="0" IVar="2" Cut="1.1591025543212891e+02" cType="1" res="-5.6620851159095764e-02" rms="4.9799084663391113e-01" purity="4.1898813843727112e-01" nType="0">
          <Node pos="l" depth="2" NCoef="0" IVar="-1" Cut="0.0000000000000000e+00" cType="1" res="-9.7087686881422997e-03" rms="4.9764347076416016e-01" purity="4.1853779554367065e-01" nType="-99"/>
          <Node pos="r" depth="2" NCoef="0" IVar="-1" Cut="0.0000000000000000e+00" cType="1" res="-1.5730885788798332e-02" rms="4.9809330701828003e-01" purity="4.1983845829963684e-01" nType="-99"/>
        </Node>
      </Node>
    </BinaryTree>
    <BinaryTree type="DecisionTree" boostWeight="1.0000000000000000e+00" itree="49">
      <Node pos="s" depth="0" NCoef="0" IVar="1" Cut="2.3809523582458496e+00" cType="1" res="1.4254353009164333e-03" rms="4.9355128407478333e-01" purity="5.0308817625045776e-01" nType="0">
        <Node pos="l" depth="1" NCoef="0" IVar="2" Cut="7.8957229614257812e+01" cType="1" res="-1.3032162562012672e-02" rms="4.9471491575241089e-01" purity="5.1491272449493408e-01" nType="0">
          <Node pos="l" depth="2" NCoef="0" IVar="-1" Cut="0.0000000000000000e+00" cType="1" res="-5.5245528928935528e-03" rms="4.9585103988647461e-01" purity="4.7256419062614441e-01" nType="-99"/>
          <Node pos="r" depth="2" NCoef="0" IVar="-1" Cut="0.0000000000000000e+00" cType="1" res="6.6488841548562050e-04" rms="4.9291986227035522e-01" purity="5.6286853551864624e-01" nType="-99"/>
        </Node>
        <Node pos="r" depth="1" NCoef="0" IVar="2" Cut="9.2186393737792969e+01" cType="1" res="1.2674550525844097e-02" rms="4.9235036969184875e-01" purity="4.9388778209686279e-01" nType="0">
          <Node pos="l" depth="2" NCoef="0" IVar="-1" Cut="0.0000000000000000e+00" cType="1" res="6.0857296921312809e-03" rms="4.8950788378715515e-01" purity="5.0188678503036499e-01" nType="-99"/>
          <Node pos="r" depth="2" NCoef="0" IVar="-1" Cut="0.0000000000000000e+00" cType="1" res="-2.1599475294351578e-03" rms="4.9523088335990906e-01" purity="4.8305523395538330e-01" nType="-99"/>
        </Node>
      </Node>
    </BinaryTree>
    <BinaryTree type="DecisionTree" boostWeight="1.0000000000000000e+00" itree="50">
      <Node pos="s" depth="0" NCoef="0" IVar="1" Cut="4.2857141494750977e+00" cType="1" res="7.8306579962372780e-03" rms="4.9288696050643921e-01" purity="5.0841051340103149e-01" nType="0">
        <Node pos="l" depth="1" NCoef="0" IVar="1" Cut="2.0952382087707520e+00" cType="1" res="1.3908299617469311e-02" rms="4.9344855546951294e-01" purity="5.1754671335220337e-01" nType="0">
          <Node pos="l" depth="2" NCoef="0" IVar="-1" Cut="0.0000000000000000e+00" cType="1" res="5.9634563513100147e-03" rms="4.9097299575805664e-01" purity="5.5624413490295410e-01" nType="-99"/>
          <Node pos="r" depth="2" NCoef="0" IVar="-1" Cut="0.0000000000000000e+00" cType="1" res="1.4212097448762506e-04" rms="4.9518373608589172e-01" purity="4.8430779576301575e-01" nType="-99"/>
        </Node>
        <Node pos="r" depth="1" NCoef="0" IVar="2" Cut="1.1577332305908203e+02" cType="1" res="-4.9794953316450119e-02" rms="4.8375058174133301e-01" purity="4.2178463935852051e-01" nType="0">
          <Node pos="l" depth="2" NCoef="0" IVar="-1" Cut="0.0000000000000000e+00" cType="1" res="-8.0094654113054276e-03" rms="4.9445816874504089e-01" purity="4.3933054804801941e-01" nType="-99"/>
          <Node pos="r" depth="2" NCoef="0" IVar="-1" Cut="0.0000000000000000e+00" cType="1" res="-1.4314672909677029e-02" rms="4.6470052003860474e-01" purity="3.9242509007453918e-01" nType="-99"/>
        </Node>
      </Node>
    </BinaryTree>
    <BinaryTree type="DecisionTree" boostWeight="1.0000000000000000e+00" itree="51">
      <Node pos="s" depth="0" NCoef="0" IVar="2" Cut="1.4856526184082031e+02" cType="1" res="1.7553439363837242e-02" rms="4.9473115801811218e-01" purity="5.2174204587936401e-01" nType="0">
        <Node pos="l" depth="1" NCoef="0" IVar="2" Cut="9.2234596252441406e+01" cType="1" res="2.4449151009321213e-02" rms="4.9398148059844971e-01" purity="5.2920776605606079e-01" nType="0">
          <Node pos="l" depth="2" NCoef="0" IVar="-1" Cut="0.0000000000000000e+00" cType="1" res="6.8546286784112453e-03" rms="4.9576172232627869e-01" purity="5.2921468019485474e-01" nType="-99"/>
          <Node pos="r" depth="2" NCoef="0" IVar="-1" Cut="0.0000000000000000e+00" cType="1" res="1.1270405957475305e-03" rms="4.8976123332977295e-01" purity="5.2919346094131470e-01" nType="-99"/>
        </Node>
        <Node pos="r" depth="1" NCoef="0" IVar="1" Cut="2.2857143878936768e+00" cType="1" res="-4.1650038212537766e-02" rms="4.9720126390457153e-01" purity="4.5764410495758057e-01" nType="0">
          <Node pos="l" depth="2" NCoef="0" IVar="-1" Cut="0.0000000000000000e+00" cType="1" res="-2.8542341664433479e-02" rms="5.0406712293624878e-01" purity="4.3814787268638611e-01" nType="-99"/>
          <Node pos="r" depth="2" NCoef="0" IVar="-1" Cut="0.0000000000000000e+00" cType="1" res="7.1684096474200487e-04" rms="4.8744499683380127e-01" purity="4.6670180559158325e-01" nType="-99"/>
        </Node>
      </Node>
    </BinaryTree>
    <BinaryTree type="DecisionTree" boostWeight="1.0000000000000000e+00" itree="52">
      <Node pos="s" depth="0" NCoef="0" IVar="2" Cut="2.0345382690429688e+02" cType="1" res="-2.6358342729508877e-03" rms="4.9231696128845215e-01" purity="5.0220012664794922e-01" nType="0">
        <Node pos="l" depth="1" NCoef="0" IVar="1" Cut="4.2857141494750977e+00" cType="1" res="4.8182024620473385e-03" rms="4.9216586351394653e-01" purity="5.1049739122390747e-01" nType="0">
          <Node pos="l" depth="2" NCoef="0" IVar="-1" Cut="0.0000000000000000e+00" cType="1" res="-3.4556171158328652e-05" rms="4.9235346913337708e-01" purity="5.0883638858795166e-01" nType="-99"/>
          <Node pos="r" depth="2" NCoef="0" IVar="-1" Cut="0.0000000000000000e+00" cType="1" res="1.3251842930912971e-02" rms="4.8611313104629517e-01" purity="5.3006589412689209e-01" nType="-99"/>
        </Node>
        <Node pos="r" depth="1" NCoef="0" IVar="-1" Cut="0.0000000000000000e+00" cType="1" res="-3.4936718642711639e-02" rms="4.6484604477882385e-01" purity="3.1460663676261902e-01" nType="-99"/>
      </Node>
    </BinaryTree>
    <BinaryTree type="DecisionTree" boostWeight="1.0000000000000000e+00" itree="53">
      <Node pos="s" depth="0" NCoef="0" IVar="2" Cut="7.1097801208496094e+01" cType="1" res="1.0976132005453110e-02" rms="4.9421134591102600e-01" purity="5.1825004816055298e-01" nType="0">
        <Node pos="l" depth="1" NCoef="0" IVar="1" Cut="3.1428570747375488e+00" cType="1" res="-2.1820414811372757e-02" rms="4.9691379070281982e-01" purity="4.5706963539123535e-01" nType="0">
          <Node pos="l" depth="2" NCoef="0" IVar="-1" Cut="0.0000000000000000e+00" cType="1" res="-8.2357171922922134e-03" rms="4.9581274390220642e-01" purity="4.4398707151412964e-01" nType="-99"/>
          <Node pos="r" depth="2" NCoef="0" IVar="-1" Cut="0.0000000000000000e+00" cType="1" res="1.6537159681320190e-02" rms="4.9036642909049988e-01" purity="5.2671808004379272e-01" nType="-99"/>
        </Node>
        <Node pos="r" depth="1" NCoef="0" IVar="2" Cut="1.7154443359375000e+02" cType="1" res="2.9130095615983009e-02" rms="4.9176955223083496e-01" purity="5.5211544036865234e-01" nType="0">
          <Node pos="l" depth="2" NCoef="0" IVar="-1" Cut="0.0000000000000000e+00" cType="1" res="4.9485960043966770e-03" rms="4.9227133393287659e-01" purity="5.5231273174285889e-01" nType="-99"/>
          <Node pos="r" depth="2" NCoef="0" IVar="-1" Cut="0.0000000000000000e+00" cType="1" res="1.6417663544416428e-02" rms="4.8380696773529053e-01" purity="5.5012714862823486e-01" nType="-99"/>
        </Node>
      </Node>
    </BinaryTree>
    <BinaryTree type="DecisionTree" boostWeight="1.0000000000000000e+00" itree="54">
      <Node pos="s" depth="0" NCoef="0" IVar="2" Cut="1.3437121582031250e+02" cType="1" res="-1.5920313075184822e-02" rms="4.9242347478866577e-01" purity="4.8927611112594604e-01" nType="0">
        <Node pos="l" depth="1" NCoef="0" IVar="2" Cut="5.8027347564697266e+01" cType="1" res="-2.3233221843838692e-02" rms="4.9355661869049072e-01" purity="4.8230794072151184e-01" nType="0">
          <Node pos="l" depth="2" NCoef="0" IVar="-1" Cut="0.0000000000000000e+00" cType="1" res="3.6614495329558849e-03" rms="4.9573019146919250e-01" purity="4.8501434922218323e-01" nType="-99"/>
          <Node pos="r" depth="2" NCoef="0" IVar="-1" Cut="0.0000000000000000e+00" cType="1" res="-6.2637366354465485e-03" rms="4.9279567599296570e-01" purity="4.8181983828544617e-01" nType="-99"/>
        </Node>
        <Node pos="r" depth="1" NCoef="0" IVar="1" Cut="3.3333332538604736e+00" cType="1" res="3.4867938607931137e-02" rms="4.8142543435096741e-01" purity="5.3766989707946777e-01" nType="0">
          <Node pos="l" depth="2" NCoef="0" IVar="-1" Cut="0.0000000000000000e+00" cType="1" res="1.4880686998367310e-02" rms="4.8559769988059998e-01" purity="6.1541640758514404e-01" nType="-99"/>
          <Node pos="r" depth="2" NCoef="0" IVar="-1" Cut="0.0000000000000000e+00" cType="1" res="-5.2551482804119587e-03" rms="4.6862378716468811e-01" purity="4.1598761081695557e-01" nType="-99"/>
        </Node>
      </Node>
    </BinaryTree>
    <BinaryTree type="DecisionTree" boostWeight="1.0000000000000000e+00" itree="55">
      <Node pos="s" depth="0" NCoef="0" IVar="2" Cut="9.3849655151367188e+01" cType="1" res="1.6141487285494804e-02" rms="4.9218213558197021e-01" purity="5.2136844396591187e-01" nType="0">
        <Node pos="l" depth="1" NCoef="0" IVar="2" Cut="5.2093952178955078e+01" cType="1" res="3.2663695514202118e-02" rms="4.9140757322311401e-01" purity="5.3109657764434814e-01" nType="0">
          <Node pos="l" depth="2" NCoef="0" IVar="-1" Cut="0.0000000000000000e+00" cType="1" res="-1.3527864590287209e-02" rms="4.8068350553512573e-01" purity="3.9404493570327759e-01" nType="-99"/>
          <Node pos="r" depth="2" NCoef="0" IVar="-1" Cut="0.0000000000000000e+00" cType="1" res="8.1332391127943993e-03" rms="4.9139603972434998e-01" purity="5.4114270210266113e-01" nType="-99"/>
        </Node>
        <Node pos="r" depth="1" NCoef="0" IVar="1" Cut="3.3333332538604736e+00" cType="1" res="-1.0565277189016342e-02" rms="4.9226033687591553e-01" purity="5.0564384460449219e-01" nType="0">
          <Node pos="l" depth="2" NCoef="0" IVar="-1" Cut="0.0000000000000000e+00" cType="1" res="-6.6643944010138512e-03" rms="4.9262180924415588e-01" purity="5.0199121236801147e-01" nType="-99"/>
          <Node pos="r" depth="2" NCoef="0" IVar="-1" Cut="0.0000000000000000e+00" cType="1" res="9.5937252044677734e-03" rms="4.8674923181533813e-01" purity="5.1506584882736206e-01" nType="-99"/>
        </Node>
      </Node>
    </BinaryTree>
    <BinaryTree type="DecisionTree" boostWeight="1.0000000000000000e+00" itree="56">
      <Node pos="s" depth="0" NCoef="0" IVar="2" Cut="8.8801025390625000e+01" cType="1" res="-1.6063306480646133e-02" rms="4.9319952726364136e-01" purity="4.9223521351814270e-01" nType="0">
        <Node pos="l" depth="1" NCoef="0" IVar="2" Cut="5.7386196136474609e+01" cType="1" res="-3.7399984896183014e-02" rms="4.9457976222038269e-01" purity="4.6137461066246033e-01" nType="0">
          <Node pos="l" depth="2" NCoef="0" IVar="-1" Cut="0.0000000000000000e+00" cType="1" res="1.0303687304258347e-02" rms="4.9764898419380188e-01" purity="5.2291858196258545e-01" nType="-99"/>
          <Node pos="r" depth="2" NCoef="0" IVar="-1" Cut="0.0000000000000000e+00" cType="1" res="-1.1947322636842728e-02" rms="4.9146664142608643e-01" purity="4.4652098417282104e-01" nType="-99"/>
        </Node>
        <Node pos="r" depth="1" NCoef="0" IVar="1" Cut="2.2857143878936768e+00" cType="1" res="1.5166963450610638e-02" rms="4.8949825763702393e-01" purity="5.3740555047988892e-01" nType="0">
          <Node pos="l" depth="2" NCoef="0" IVar="-1" Cut="0.0000000000000000e+00" cType="1" res="6.5870769321918488e-03" rms="4.8570176959037781e-01" purity="5.9402346611022949e-01" nType="-99"/>
          <Node pos="r" depth="2" NCoef="0" IVar="-1" Cut="0.0000000000000000e+00" cType="1" res="9.8296301439404488e-04" rms="4.9154400825500488e-01" purity="5.0239789485931396e-01" nType="-99"/>
        </Node>
      </Node>
    </BinaryTree>
    <BinaryTree type="DecisionTree" boostWeight="1.0000000000000000e+00" itree="57">
      <Node pos="s" depth="0" NCoef="0" IVar="1" Cut="2.3809523582458496e+00" cType="1" res="2.8649589512497187e-03" rms="4.9270105361938477e-01" purity="5.0796824693679810e-01" nType="0">
        <Node pos="l" depth="1" NCoef="0" IVar="2" Cut="1.0780847930908203e+02" cType="1" res="2.4579577147960663e-02" rms="4.9021482467651367e-01" purity="5.5542272329330444e-01" nType="0">
          <Node pos="l" depth="2" NCoef="0" IVar="-1" Cut="0.0000000000000000e+00" cType="1" res="2.8355277609080076e-03" rms="4.9393159151077271e-01" purity="5.3502452373504639e-01" nType="-99"/>
          <Node pos="r" depth="2" NCoef="0" IVar="-1" Cut="0.0000000000000000e+00" cType="1" res="1.3960028067231178e-02" rms="4.7259828448295593e-01" purity="6.3738709688186646e-01" nType="-99"/>
        </Node>
        <Node pos="r" depth="1" NCoef="0" IVar="2" Cut="7.1931427001953125e+01" cType="1" res="-1.3026458211243153e-02" rms="4.9390801787376404e-01" purity="4.7323969006538391e-01" nType="0">
          <Node pos="l" depth="2" NCoef="0" IVar="-1" Cut="0.0000000000000000e+00" cType="1" res="1.8597323214635253e-03" rms="4.9033609032630920e-01" purity="4.6967038512229919e-01" nType="-99"/>
          <Node pos="r" depth="2" NCoef="0" IVar="-1" Cut="0.0000000000000000e+00" cType="1" res="-4.9167461693286896e-03" rms="4.9530109763145447e-01" purity="4.7500729560852051e-01" nType="-99"/>
        </Node>
      </Node>
    </BinaryTree>
    <BinaryTree type="DecisionTree" boostWeight="1.0000000000000000e+00" itree="58">
      <Node pos="s" depth="0" NCoef="0" IVar="1" Cut="3.3333332538604736e+00" cType="1" res="-1.2769469991326332e-02" rms="4.9471899867057800e-01" purity="4.9418407678604126e-01" nType="0">
        <Node pos="l" depth="1" NCoef="0" IVar="2" Cut="1.2885487365722656e+02" cType="1" res="-2.9421968385577202e-02" rms="4.9435347318649292e-01" purity="4.8751732707023621e-01" nType="0">
          <Node pos="l" depth="2" NCoef="0" IVar="-1" Cut="0.0000000000000000e+00" cType="1" res="-7.1261287666857243e-03" rms="4.9470549821853638e-01" purity="4.7606301307678223e-01" nType="-99"/>
          <Node pos="r" depth="2" NCoef="0" IVar="-1" Cut="0.0000000000000000e+00" cType="1" res="2.5616465136408806e-03" rms="4.8971775174140930e-01" purity="5.7205402851104736e-01" nType="-99"/>
        </Node>
        <Node pos="r" depth="1" NCoef="0" IVar="1" Cut="4.2380952835083008e+00" cType="1" res="4.4109217822551727e-02" rms="4.9173104763031006e-01" purity="5.1695513725280762e-01" nType="0">
          <Node pos="l" depth="2" NCoef="0" IVar="-1" Cut="0.0000000000000000e+00" cType="1" res="5.5663534440100193e-03" rms="4.9470949172973633e-01" purity="4.9791154265403748e-01" nType="-99"/>
          <Node pos="r" depth="2" NCoef="0" IVar="-1" Cut="0.0000000000000000e+00" cType="1" res="1.6050620004534721e-02" rms="4.8417791724205017e-01" purity="5.5396974086761475e-01" nType="-99"/>
        </Node>
      </Node>
    </BinaryTree>
    <BinaryTree type="DecisionTree" boostWeight="1.0000000000000000e+00" itree="59">
      <Node pos="s" depth="0" NCoef="0" IVar="2" Cut="1.5545910644531250e+02" cType="1" res="-1.0896491818130016e-02" rms="4.9312698841094971e-01" purity="4.9345090985298157e-01" nType="0">
        <Node pos="l" depth="1" NCoef="0" IVar="2" Cut="1.3528453063964844e+02" cType="1" res="-7.4927457608282566e-03" rms="4.9360042810440063e-01" purity="4.9731674790382385e-01" nType="0">
          <Node pos="l" depth="2" NCoef="0" IVar="-1" Cut="0.0000000000000000e+00" cType="1" res="-2.4627915117889643e-03" rms="4.9419531226158142e-01" purity="4.9095669388771057e-01" nType="-99"/>
          <Node pos="r" depth="2" NCoef="0" IVar="-1" Cut="0.0000000000000000e+00" cType="1" res="1.8009169027209282e-02" rms="4.7141072154045105e-01" purity="6.2803125381469727e-01" nType="-99"/>
        </Node>
        <Node pos="r" depth="1" NCoef="0" IVar="1" Cut="3.3333332538604736e+00" cType="1" res="-4.7034502029418945e-02" rms="4.8660600185394287e-01" purity="4.5240631699562073e-01" nType="0">
          <Node pos="l" depth="2" NCoef="0" IVar="-1" Cut="0.0000000000000000e+00" cType="1" res="-6.5605151467025280e-03" rms="4.9495726823806763e-01" purity="4.9890515208244324e-01" nType="-99"/>
          <Node pos="r" depth="2" NCoef="0" IVar="-1" Cut="0.0000000000000000e+00" cType="1" res="-1.3941848650574684e-02" rms="4.7439730167388916e-01" purity="3.8981798291206360e-01" nType="-99"/>
        </Node>
      </Node>
    </BinaryTree>
    <BinaryTree type="DecisionTree" boostWeight="1.0000000000000000e+00" itree="60">
      <Node pos="s" depth="0" NCoef="0" IVar="1" Cut="2.3333332538604736e+00" cType="1" res="6.2584439292550087e-03" rms="4.9234935641288757e-01" purity="5.1190161705017090e-01" nType="0">
        <Node pos="l" depth="1" NCoef="0" IVar="2" Cut="7.6479522705078125e+01" cType="1" res="2.8314540162682533e-02" rms="4.9049660563468933e-01" purity="5.5947065353393555e-01" nType="0">
          <Node pos="l" depth="2" NCoef="0" IVar="-1" Cut="0.0000000000000000e+00" cType="1" res="-1.0498906485736370e-03" rms="4.9575850367546082e-01" purity="4.8708921670913696e-01" nType="-99"/>
          <Node pos="r" depth="2" NCoef="0" IVar="-1" Cut="0.0000000000000000e+00" cType="1" res="1.2278087437152863e-02" rms="4.8344868421554565e-01" purity="6.2696325778961182e-01" nType="-99"/>
        </Node>
        <Node pos="r" depth="1" NCoef="0" IVar="2" Cut="1.3436721801757812e+02" cType="1" res="-1.0153276845812798e-02" rms="4.9308371543884277e-01" purity="4.7650599479675293e-01" nType="0">
          <Node pos="l" depth="2" NCoef="0" IVar="-1" Cut="0.0000000000000000e+00" cType="1" res="-3.0149111989885569e-04" rms="4.9134323000907898e-01" purity="4.8382031917572021e-01" nType="-99"/>
          <Node pos="r" depth="2" NCoef="0" IVar="-1" Cut="0.0000000000000000e+00" cType="1" res="-1.1212394572794437e-02" rms="4.9956330657005310e-01" purity="4.3891087174415588e-01" nType="-99"/>
        </Node>
      </Node>
    </BinaryTree>
    <BinaryTree type="DecisionTree" boostWeight="1.0000000000000000e+00" itree="61">
      <Node pos="s" depth="0" NCoef="0" IVar="0" Cut="1.1428571939468384e+00" cType="1" res="-8.7928194552659988e-03" rms="4.9120593070983887e-01" purity="4.9631214141845703e-01" nType="0">
        <Node pos="l" depth="1" NCoef="0" IVar="2" Cut="7.1969627380371094e+01" cType="1" res="0.0000000000000000e+00" rms="0.0000000000000000e+00" purity="5.2564758062362671e-01" nType="0">
          <Node pos="l" depth="2" NCoef="0" IVar="-1" Cut="0.0000000000000000e+00" cType="1" res="-3.4877413418143988e-03" rms="4.9871307611465454e-01" purity="4.7309514880180359e-01" nType="-99"/>
          <Node pos="r" depth="2" NCoef="0" IVar="-1" Cut="0.0000000000000000e+00" cType="1" res="1.5421365387737751e-03" rms="4.9397847056388855e-01" purity="5.5712097883224487e-01" nType="-99"/>
        </Node>
        <Node pos="r" depth="1" NCoef="0" IVar="1" Cut="3.1428570747375488e+00" cType="1" res="-5.6622114032506943e-02" rms="4.5500564575195312e-01" purity="2.9626509547233582e-01" nType="0">
          <Node pos="l" depth="2" NCoef="0" IVar="-1" Cut="0.0000000000000000e+00" cType="1" res="-1.5090674161911011e-02" rms="4.6217197179794312e-01" purity="3.1236630678176880e-01" nType="-99"/>
          <Node pos="r" depth="2" NCoef="0" IVar="-1" Cut="0.0000000000000000e+00" cType="1" res="-8.8113956153392792e-03" rms="4.4481819868087769e-01" purity="2.7534496784210205e-01" nType="-99"/>
        </Node>
      </Node>
    </BinaryTree>
    <BinaryTree type="DecisionTree" boostWeight="1.0000000000000000e+00" itree="62">
      <Node pos="s" depth="0" NCoef="0" IVar="2" Cut="6.8575103759765625e+01" cType="1" res="-5.3511490114033222e-03" rms="4.9566441774368286e-01" purity="4.9969753623008728e-01" nType="0">
        <Node pos="l" depth="1" NCoef="0" IVar="2" Cut="5.7064971923828125e+01" cType="1" res="2.3268677294254303e-02" rms="4.9405869841575623e-01" purity="4.9164289236068726e-01" nType="0">
          <Node pos="l" depth="2" NCoef="0" IVar="-1" Cut="0.0000000000000000e+00" cType="1" res="1.9830022007226944e-02" rms="4.9285152554512024e-01" purity="5.7278704643249512e-01" nType="-99"/>
          <Node pos="r" depth="2" NCoef="0" IVar="-1" Cut="0.0000000000000000e+00" cType="1" res="-4.0111658163368702e-03" rms="4.8960247635841370e-01" purity="4.4500628113746643e-01" nType="-99"/>
        </Node>
        <Node pos="r" depth="1" NCoef="0" IVar="1" Cut="3.3333332538604736e+00" cType="1" res="-1.8107172101736069e-02" rms="4.9584650993347168e-01" purity="5.0328749418258667e-01" nType="0">
          <Node pos="l" depth="2" NCoef="0" IVar="-1" Cut="0.0000000000000000e+00" cType="1" res="-5.2619059570133686e-03" rms="4.9636709690093994e-01" purity="5.0917351245880127e-01" nType="-99"/>
          <Node pos="r" depth="2" NCoef="0" IVar="-1" Cut="0.0000000000000000e+00" cType="1" res="1.1844352120533586e-03" rms="4.9345821142196655e-01" purity="4.8490059375762939e-01" nType="-99"/>
        </Node>
      </Node>
    </BinaryTree>
    <BinaryTree type="DecisionTree" boostWeight="1.0000000000000000e+00" itree="63">
      <Node pos="s" depth="0" NCoef="0" IVar="1" Cut="2.3333332538604736e+00" cType="1" res="-4.7801001928746700e-03" rms="4.9187013506889343e-01" purity="4.9820742011070251e-01" nType="0">
        <Node pos="l" depth="1" NCoef="0" IVar="0" Cut="1.0952380895614624e+00" cType="1" res="1.4375248923897743e-02" rms="4.9027547240257263e-01" purity="5.4463022947311401e-01" nType="0">
          <Node pos="l" depth="2" NCoef="0" IVar="-1" Cut="0.0000000000000000e+00" cType="1" res="4.5776953920722008e-03" rms="4.9181297421455383e-01" purity="5.6607419252395630e-01" nType="-99"/>
          <Node pos="r" depth="2" NCoef="0" IVar="-1" Cut="0.0000000000000000e+00" cType="1" res="-1.5009736642241478e-02" rms="4.6526452898979187e-01" purity="3.1890258193016052e-01" nType="-99"/>
        </Node>
        <Node pos="r" depth="1" NCoef="0" IVar="2" Cut="1.1577332305908203e+02" cType="1" res="-1.9182205200195312e-02" rms="4.9257534742355347e-01" purity="4.6330404281616211e-01" nType="0">
          <Node pos="l" depth="2" NCoef="0" IVar="-1" Cut="0.0000000000000000e+00" cType="1" res="-6.8297465331852436e-03" rms="4.9206021428108215e-01" purity="4.4709336757659912e-01" nType="-99"/>
          <Node pos="r" depth="2" NCoef="0" IVar="-1" Cut="0.0000000000000000e+00" cType="1" res="7.2074988856911659e-03" rms="4.9076282978057861e-01" purity="5.2463293075561523e-01" nType="-99"/>
        </Node>
      </Node>
    </BinaryTree>
    <BinaryTree type="DecisionTree" boostWeight="1.0000000000000000e+00" itree="64">
      <Node pos="s" depth="0" NCoef="0" IVar="2" Cut="1.9763847351074219e+02" cType="1" res="-1.9064478576183319e-02" rms="4.9420958757400513e-01" purity="4.8608386516571045e-01" nType="0">
        <Node pos="l" depth="1" NCoef="0" IVar="2" Cut="5.7031875610351562e+01" cType="1" res="-1.5887169167399406e-02" rms="4.9384629726409912e-01" purity="4.8939698934555054e-01" nType="0">
          <Node pos="l" depth="2" NCoef="0" IVar="-1" Cut="0.0000000000000000e+00" cType="1" res="8.6096115410327911e-03" rms="4.9470254778862000e-01" purity="5.2488189935684204e-01" nType="-99"/>
          <Node pos="r" depth="2" NCoef="0" IVar="-1" Cut="0.0000000000000000e+00" cType="1" res="-4.8423507250845432e-03" rms="4.9321243166923523e-01" purity="4.8469772934913635e-01" nType="-99"/>
        </Node>
        <Node pos="r" depth="1" NCoef="0" IVar="-1" Cut="0.0000000000000000e+00" cType="1" res="-2.2190434858202934e-02" rms="4.9601483345031738e-01" purity="3.9232471585273743e-01" nType="-99"/>
      </Node>
    </BinaryTree>
    <BinaryTree type="DecisionTree" boostWeight="1.0000000000000000e+00" itree="65">
      <Node pos="s" depth="0" NCoef="0" IVar="2" Cut="8.8802757263183594e+01" cType="1" res="8.2979667931795120e-03" rms="4.9198555946350098e-01" purity="5.0634187459945679e-01" nType="0">
        <Node pos="l" depth="1" NCoef="0" IVar="2" Cut="5.5549335479736328e+01" cType="1" res="-2.1045389585196972e-03" rms="4.9722406268119812e-01" purity="4.8685494065284729e-01" nType="0">
          <Node pos="l" depth="2" NCoef="0" IVar="-1" Cut="0.0000000000000000e+00" cType="1" res="-1.0168607346713543e-02" rms="4.9320942163467407e-01" purity="4.3117287755012512e-01" nType="-99"/>
          <Node pos="r" depth="2" NCoef="0" IVar="-1" Cut="0.0000000000000000e+00" cType="1" res="1.8455681856721640e-03" rms="4.9748611450195312e-01" purity="4.9979913234710693e-01" nType="-99"/>
        </Node>
        <Node pos="r" depth="1" NCoef="0" IVar="0" Cut="1.1428571939468384e+00" cType="1" res="2.2519446909427643e-02" rms="4.8437094688415527e-01" purity="5.3298294544219971e-01" nType="0">
