<?xml version="1.0"?>
<MethodSetup Method="BDT::BDTG1000t2.5%n2d">
  <GeneralInfo>
    <Info name="TMVA Release" value="4.2.1 [262657]"/>
    <Info name="ROOT Release" value="6.10/09 [395785]"/>
    <Info name="Creator" value="shchauha"/>
    <Info name="Date" value="Fri Sep 13 00:10:00 2019"/>
    <Info name="Host" value="Linux cmsbuild76.cern.ch 2.6.32-696.30.1.el6.x86_64 #1 SMP Tue May 22 06:09:36 CEST 2018 x86_64 x86_64 x86_64 GNU/Linux"/>
    <Info name="Dir" value="/home/users/shchauha/2019/Test/FCNCAna/analysis/bdts"/>
    <Info name="Training events" value="304362"/>
    <Info name="TrainingTime" value="3.39699288e+02"/>
    <Info name="AnalysisType" value="Classification"/>
  </GeneralInfo>
  <Options>
    <Option name="V" modified="Yes">False</Option>
    <Option name="VerbosityLevel" modified="No">Default</Option>
    <Option name="VarTransform" modified="No">None</Option>
    <Option name="H" modified="Yes">False</Option>
    <Option name="CreateMVAPdfs" modified="No">False</Option>
    <Option name="IgnoreNegWeightsInTraining" modified="No">False</Option>
    <Option name="NTrees" modified="Yes">1000</Option>
    <Option name="MaxDepth" modified="Yes">2</Option>
    <Option name="MinNodeSize" modified="Yes">2.5%</Option>
    <Option name="nCuts" modified="Yes">20</Option>
    <Option name="BoostType" modified="Yes">Grad</Option>
    <Option name="AdaBoostR2Loss" modified="No">quadratic</Option>
    <Option name="UseBaggedBoost" modified="Yes">True</Option>
    <Option name="Shrinkage" modified="Yes">1.000000e-01</Option>
    <Option name="AdaBoostBeta" modified="No">5.000000e-01</Option>
    <Option name="UseRandomisedTrees" modified="No">False</Option>
    <Option name="UseNvars" modified="No">5</Option>
    <Option name="UsePoissonNvars" modified="No">True</Option>
    <Option name="BaggedSampleFraction" modified="Yes">5.000000e-01</Option>
    <Option name="UseYesNoLeaf" modified="No">True</Option>
    <Option name="NegWeightTreatment" modified="No">pray</Option>
    <Option name="Css" modified="No">1.000000e+00</Option>
    <Option name="Cts_sb" modified="No">1.000000e+00</Option>
    <Option name="Ctb_ss" modified="No">1.000000e+00</Option>
    <Option name="Cbb" modified="No">1.000000e+00</Option>
    <Option name="NodePurityLimit" modified="No">5.000000e-01</Option>
    <Option name="SeparationType" modified="No">giniindex</Option>
    <Option name="RegressionLossFunctionBDTG" modified="No">huber</Option>
    <Option name="HuberQuantile" modified="No">7.000000e-01</Option>
    <Option name="DoBoostMonitor" modified="No">False</Option>
    <Option name="UseFisherCuts" modified="No">False</Option>
    <Option name="MinLinCorrForFisher" modified="No">8.000000e-01</Option>
    <Option name="UseExclusiveVars" modified="No">False</Option>
    <Option name="DoPreselection" modified="No">False</Option>
    <Option name="SigToBkgFraction" modified="No">1.000000e+00</Option>
    <Option name="PruneMethod" modified="No">nopruning</Option>
    <Option name="PruneStrength" modified="No">0.000000e+00</Option>
    <Option name="PruningValFraction" modified="No">5.000000e-01</Option>
    <Option name="SkipNormalization" modified="No">False</Option>
    <Option name="nEventsMin" modified="No">0</Option>
    <Option name="UseBaggedGrad" modified="No">False</Option>
    <Option name="GradBaggingFraction" modified="No">5.000000e-01</Option>
    <Option name="UseNTrainEvents" modified="No">0</Option>
    <Option name="NNodesMax" modified="No">0</Option>
  </Options>
  <Variables NVar="25">
    <Variable VarIndex="0" Expression="lep1pt" Label="lep1pt" Title="lep1pt" Unit="" Internal="lep1pt" Type="F" Min="2.50014629e+01" Max="1.41439197e+03"/>
    <Variable VarIndex="1" Expression="lep2pt" Label="lep2pt" Title="lep2pt" Unit="" Internal="lep2pt" Type="F" Min="2.00000381e+01" Max="7.95314392e+02"/>
    <Variable VarIndex="2" Expression="lep1eta" Label="lep1eta" Title="lep1eta" Unit="" Internal="lep1eta" Type="F" Min="-2.49604344e+00" Max="2.49931622e+00"/>
    <Variable VarIndex="3" Expression="lep2eta" Label="lep2eta" Title="lep2eta" Unit="" Internal="lep2eta" Type="F" Min="-2.49923730e+00" Max="2.49936581e+00"/>
    <Variable VarIndex="4" Expression="njets" Label="njets" Title="njets" Unit="" Internal="njets" Type="F" Min="2.00000000e+00" Max="1.30000000e+01"/>
    <Variable VarIndex="5" Expression="nbtags" Label="nbtags" Title="nbtags" Unit="" Internal="nbtags" Type="F" Min="1.00000000e+00" Max="6.00000000e+00"/>
    <Variable VarIndex="6" Expression="met" Label="met" Title="met" Unit="" Internal="met" Type="F" Min="3.25943410e-01" Max="1.33735046e+03"/>
    <Variable VarIndex="7" Expression="ht" Label="ht" Title="ht" Unit="" Internal="ht" Type="F" Min="8.02858658e+01" Max="3.71311401e+03"/>
    <Variable VarIndex="8" Expression="mll" Label="mll" Title="mll" Unit="" Internal="mll" Type="F" Min="1.43682051e+00" Max="2.04051123e+03"/>
    <Variable VarIndex="9" Expression="nele" Label="nele" Title="nele" Unit="" Internal="nele" Type="F" Min="0.00000000e+00" Max="2.00000000e+00"/>
    <Variable VarIndex="10" Expression="jet1pt" Label="jet1pt" Title="jet1pt" Unit="" Internal="jet1pt" Type="F" Min="3.99966202e+01" Max="2.10445679e+03"/>
    <Variable VarIndex="11" Expression="jet2pt" Label="jet2pt" Title="jet2pt" Unit="" Internal="jet2pt" Type="F" Min="3.95486908e+01" Max="1.50192896e+03"/>
    <Variable VarIndex="12" Expression="btag1pt" Label="btag1pt" Title="btag1pt" Unit="" Internal="btag1pt" Type="F" Min="2.49693871e+01" Max="2.10445679e+03"/>
    <Variable VarIndex="13" Expression="drl1l2" Label="drl1l2" Title="drl1l2" Unit="" Internal="drl1l2" Type="F" Min="2.09880285e-02" Max="5.62911844e+00"/>
    <Variable VarIndex="14" Expression="mindrl1j" Label="mindrl1j" Title="mindrl1j" Unit="" Internal="mindrl1j" Type="F" Min="2.44058415e-01" Max="4.67606735e+00"/>
    <Variable VarIndex="15" Expression="mindrl2j" Label="mindrl2j" Title="mindrl2j" Unit="" Internal="mindrl2j" Type="F" Min="2.74428278e-01" Max="4.57626152e+00"/>
    <Variable VarIndex="16" Expression="mindrl1bt" Label="mindrl1bt" Title="mindrl1bt" Unit="" Internal="mindrl1bt" Type="F" Min="2.44058415e-01" Max="5.42236662e+00"/>
    <Variable VarIndex="17" Expression="mindrl2bt" Label="mindrl2bt" Title="mindrl2bt" Unit="" Internal="mindrl2bt" Type="F" Min="2.74428278e-01" Max="5.58260918e+00"/>
    <Variable VarIndex="18" Expression="dphil1met" Label="dphil1met" Title="dphil1met" Unit="" Internal="dphil1met" Type="F" Min="2.45571136e-05" Max="3.14159250e+00"/>
    <Variable VarIndex="19" Expression="dphil2met" Label="dphil2met" Title="dphil2met" Unit="" Internal="dphil2met" Type="F" Min="1.54972076e-06" Max="3.14159155e+00"/>
    <Variable VarIndex="20" Expression="mt1" Label="mt1" Title="mt1" Unit="" Internal="mt1" Type="F" Min="0.00000000e+00" Max="1.77948120e+03"/>
    <Variable VarIndex="21" Expression="mt2" Label="mt2" Title="mt2" Unit="" Internal="mt2" Type="F" Min="0.00000000e+00" Max="9.11093018e+02"/>
    <Variable VarIndex="22" Expression="dphil1l2" Label="dphil1l2" Title="dphil1l2" Unit="" Internal="dphil1l2" Type="F" Min="4.74452972e-05" Max="3.14156866e+00"/>
    <Variable VarIndex="23" Expression="jet3pt" Label="jet3pt" Title="jet3pt" Unit="" Internal="jet3pt" Type="F" Min="0.00000000e+00" Max="6.24782166e+02"/>
    <Variable VarIndex="24" Expression="fwd_jetpt" Label="fwd_jetpt" Title="fwd_jetpt" Unit="" Internal="fwd_jetpt" Type="F" Min="3.95262794e+01" Max="1.56162512e+03"/>
  </Variables>
  <Spectators NSpec="0"/>
  <Classes NClass="2">
    <Class Name="Signal" Index="0"/>
    <Class Name="Background" Index="1"/>
  </Classes>
  <Transformations NTransformations="0"/>
  <MVAPdfs/>
  <Weights NTrees="1000" AnalysisType="1">
    <BinaryTree type="DecisionTree" boostWeight="1.0000000000000000e+00" itree="0">
      <Node pos="s" depth="0" NCoef="0" IVar="5" Cut="1.1904761791229248e+00" cType="1" res="-1.0166174033656716e-03" rms="4.9999895691871643e-01" purity="4.9898338317871094e-01" nType="0">
        <Node pos="l" depth="1" NCoef="0" IVar="15" Cut="1.0938251018524170e+00" cType="1" res="4.8347759991884232e-02" rms="4.9765700101852417e-01" purity="5.4834777116775513e-01" nType="0">
          <Node pos="l" depth="2" NCoef="0" IVar="-1" Cut="0.0000000000000000e+00" cType="1" res="1.3947560219094157e-03" rms="4.8050576448440552e-01" purity="6.3825410604476929e-01" nType="-99"/>
          <Node pos="r" depth="2" NCoef="0" IVar="-1" Cut="0.0000000000000000e+00" cType="1" res="-3.5758537705987692e-05" rms="4.9986356496810913e-01" purity="4.8832014203071594e-01" nType="-99"/>
        </Node>
        <Node pos="r" depth="1" NCoef="0" IVar="22" Cut="2.2440645694732666e+00" cType="1" res="-2.4023842811584473e-01" rms="4.3850371241569519e-01" purity="2.5976154208183289e-01" nType="0">
          <Node pos="l" depth="2" NCoef="0" IVar="-1" Cut="0.0000000000000000e+00" cType="1" res="-2.7257821056991816e-03" rms="4.0840762853622437e-01" purity="2.1155031025409698e-01" nType="-99"/>
          <Node pos="r" depth="2" NCoef="0" IVar="-1" Cut="0.0000000000000000e+00" cType="1" res="-2.7328368742018938e-03" rms="4.7627890110015869e-01" purity="3.4782114624977112e-01" nType="-99"/>
        </Node>
      </Node>
    </BinaryTree>
    <BinaryTree type="DecisionTree" boostWeight="1.0000000000000000e+00" itree="1">
      <Node pos="s" depth="0" NCoef="0" IVar="5" Cut="1.1904761791229248e+00" cType="1" res="-8.2065565511584282e-03" rms="4.9973821640014648e-01" purity="4.9176901578903198e-01" nType="0">
        <Node pos="l" depth="1" NCoef="0" IVar="15" Cut="1.5035234689712524e+00" cType="1" res="4.6356644481420517e-02" rms="4.9776348471641541e-01" purity="5.4662394523620605e-01" nType="0">
          <Node pos="l" depth="2" NCoef="0" IVar="-1" Cut="0.0000000000000000e+00" cType="1" res="1.1361070210114121e-03" rms="4.8708158731460571e-01" purity="6.1278361082077026e-01" nType="-99"/>
          <Node pos="r" depth="2" NCoef="0" IVar="-1" Cut="0.0000000000000000e+00" cType="1" res="-1.2781588884536177e-04" rms="4.9506613612174988e-01" purity="4.2993211746215820e-01" nType="-99"/>
        </Node>
        <Node pos="r" depth="1" NCoef="0" IVar="9" Cut="1.0476191043853760e+00" cType="1" res="-2.5874930620193481e-01" rms="4.2701414227485657e-01" purity="2.3988646268844604e-01" nType="0">
          <Node pos="l" depth="2" NCoef="0" IVar="-1" Cut="0.0000000000000000e+00" cType="1" res="-2.5404894258826971e-03" rms="4.4892877340316772e-01" purity="2.7985662221908569e-01" nType="-99"/>
          <Node pos="r" depth="2" NCoef="0" IVar="-1" Cut="0.0000000000000000e+00" cType="1" res="-1.6125092515721917e-03" rms="3.2135173678398132e-01" purity="1.1694238334894180e-01" nType="-99"/>
        </Node>
      </Node>
    </BinaryTree>
    <BinaryTree type="DecisionTree" boostWeight="1.0000000000000000e+00" itree="2">
      <Node pos="s" depth="0" NCoef="0" IVar="5" Cut="1.1904761791229248e+00" cType="1" res="-3.9031479973345995e-03" rms="4.9964380264282227e-01" purity="4.9616459012031555e-01" nType="0">
        <Node pos="l" depth="1" NCoef="0" IVar="15" Cut="1.5143744945526123e+00" cType="1" res="4.3381948024034500e-02" rms="4.9794456362724304e-01" purity="5.4397845268249512e-01" nType="0">
          <Node pos="l" depth="2" NCoef="0" IVar="-1" Cut="0.0000000000000000e+00" cType="1" res="1.4163433806970716e-03" rms="4.8758661746978760e-01" purity="6.1052983999252319e-01" nType="-99"/>
          <Node pos="r" depth="2" NCoef="0" IVar="-1" Cut="0.0000000000000000e+00" cType="1" res="-1.3132835738360882e-04" rms="4.9458813667297363e-01" purity="4.2663389444351196e-01" nType="-99"/>
        </Node>
        <Node pos="r" depth="1" NCoef="0" IVar="22" Cut="2.0944805145263672e+00" cType="1" res="-2.3617990314960480e-01" rms="4.3935754895210266e-01" purity="2.6129034161567688e-01" nType="0">
          <Node pos="l" depth="2" NCoef="0" IVar="-1" Cut="0.0000000000000000e+00" cType="1" res="-2.4252461735159159e-03" rms="4.0998122096061707e-01" purity="2.1376849710941315e-01" nType="-99"/>
          <Node pos="r" depth="2" NCoef="0" IVar="-1" Cut="0.0000000000000000e+00" cType="1" res="-3.1416770070791245e-03" rms="4.6996787190437317e-01" purity="3.2925334572792053e-01" nType="-99"/>
        </Node>
      </Node>
    </BinaryTree>
    <BinaryTree type="DecisionTree" boostWeight="1.0000000000000000e+00" itree="3">
      <Node pos="s" depth="0" NCoef="0" IVar="5" Cut="1.1904761791229248e+00" cType="1" res="-3.1720553524792194e-03" rms="4.9952608346939087e-01" purity="4.9708026647567749e-01" nType="0">
        <Node pos="l" depth="1" NCoef="0" IVar="18" Cut="1.7952061891555786e+00" cType="1" res="4.2522482573986053e-02" rms="4.9799016118049622e-01" purity="5.4359775781631470e-01" nType="0">
          <Node pos="l" depth="2" NCoef="0" IVar="-1" Cut="0.0000000000000000e+00" cType="1" res="-8.5888306784909219e-05" rms="4.9970489740371704e-01" purity="4.8783215880393982e-01" nType="-99"/>
          <Node pos="r" depth="2" NCoef="0" IVar="-1" Cut="0.0000000000000000e+00" cType="1" res="1.7429856234230101e-04" rms="4.8461928963661194e-01" purity="6.2286853790283203e-01" nType="-99"/>
        </Node>
        <Node pos="r" depth="1" NCoef="0" IVar="15" Cut="7.6162487268447876e-01" cType="1" res="-2.3391932249069214e-01" rms="4.3985781073570251e-01" purity="2.6217725872993469e-01" nType="0">
          <Node pos="l" depth="2" NCoef="0" IVar="-1" Cut="0.0000000000000000e+00" cType="1" res="-3.9999750442802906e-03" rms="4.8684045672416687e-01" purity="3.8582569360733032e-01" nType="-99"/>
          <Node pos="r" depth="2" NCoef="0" IVar="-1" Cut="0.0000000000000000e+00" cType="1" res="-2.3955169599503279e-03" rms="4.2317977547645569e-01" purity="2.3364372551441193e-01" nType="-99"/>
        </Node>
      </Node>
    </BinaryTree>
    <BinaryTree type="DecisionTree" boostWeight="1.0000000000000000e+00" itree="4">
      <Node pos="s" depth="0" NCoef="0" IVar="5" Cut="1.1904761791229248e+00" cType="1" res="-5.2588465623557568e-03" rms="4.9937668442726135e-01" purity="4.9474945664405823e-01" nType="0">
        <Node pos="l" depth="1" NCoef="0" IVar="15" Cut="9.2573773860931396e-01" cType="1" res="4.0210723876953125e-02" rms="4.9814444780349731e-01" purity="5.4129081964492798e-01" nType="0">
          <Node pos="l" depth="2" NCoef="0" IVar="-1" Cut="0.0000000000000000e+00" cType="1" res="3.3647927921265364e-03" rms="4.7323745489120483e-01" purity="6.6137838363647461e-01" nType="-99"/>
          <Node pos="r" depth="2" NCoef="0" IVar="-1" Cut="0.0000000000000000e+00" cType="1" res="-2.8553049560287036e-05" rms="4.9985119700431824e-01" purity="4.9175560474395752e-01" nType="-99"/>
        </Node>
        <Node pos="r" depth="1" NCoef="0" IVar="22" Cut="2.0944204330444336e+00" cType="1" res="-2.2880874574184418e-01" rms="4.4190615415573120e-01" purity="2.6593011617660522e-01" nType="0">
          <Node pos="l" depth="2" NCoef="0" IVar="-1" Cut="0.0000000000000000e+00" cType="1" res="-2.8577854391187429e-03" rms="4.0973472595214844e-01" purity="2.1340005099773407e-01" nType="-99"/>
          <Node pos="r" depth="2" NCoef="0" IVar="-1" Cut="0.0000000000000000e+00" cType="1" res="-2.4700977373868227e-03" rms="4.7259977459907532e-01" purity="3.3654102683067322e-01" nType="-99"/>
        </Node>
      </Node>
    </BinaryTree>
    <BinaryTree type="DecisionTree" boostWeight="1.0000000000000000e+00" itree="5">
      <Node pos="s" depth="0" NCoef="0" IVar="5" Cut="1.1904761791229248e+00" cType="1" res="-3.6114903632551432e-03" rms="4.9917942285537720e-01" purity="4.9658745527267456e-01" nType="0">
        <Node pos="l" depth="1" NCoef="0" IVar="15" Cut="1.0451741218566895e+00" cType="1" res="3.9035789668560028e-02" rms="4.9807983636856079e-01" purity="5.4054510593414307e-01" nType="0">
          <Node pos="l" depth="2" NCoef="0" IVar="-1" Cut="0.0000000000000000e+00" cType="1" res="1.0899150511249900e-03" rms="4.7629743814468384e-01" purity="6.5209233760833740e-01" nType="-99"/>
          <Node pos="r" depth="2" NCoef="0" IVar="-1" Cut="0.0000000000000000e+00" cType="1" res="-6.2060607888270169e-05" rms="4.9950981140136719e-01" purity="4.7964930534362793e-01" nType="-99"/>
        </Node>
        <Node pos="r" depth="1" NCoef="0" IVar="9" Cut="9.5238097012042999e-02" cType="1" res="-2.2499422729015350e-01" rms="4.4319385290145874e-01" purity="2.6840263605117798e-01" nType="0">
          <Node pos="l" depth="2" NCoef="0" IVar="-1" Cut="0.0000000000000000e+00" cType="1" res="-4.0207337588071823e-04" rms="4.8618453741073608e-01" purity="3.8310703635215759e-01" nType="-99"/>
          <Node pos="r" depth="2" NCoef="0" IVar="-1" Cut="0.0000000000000000e+00" cType="1" res="-2.1993517875671387e-03" rms="4.1887429356575012e-01" purity="2.2688144445419312e-01" nType="-99"/>
        </Node>
      </Node>
    </BinaryTree>
    <BinaryTree type="DecisionTree" boostWeight="1.0000000000000000e+00" itree="6">
      <Node pos="s" depth="0" NCoef="0" IVar="5" Cut="1.2380952835083008e+00" cType="1" res="-2.2878851741552353e-03" rms="4.9899196624755859e-01" purity="4.9784994125366211e-01" nType="0">
        <Node pos="l" depth="1" NCoef="0" IVar="18" Cut="2.3935952186584473e+00" cType="1" res="4.8407200723886490e-02" rms="4.9720558524131775e-01" purity="5.5014330148696899e-01" nType="0">
          <Node pos="l" depth="2" NCoef="0" IVar="-1" Cut="0.0000000000000000e+00" cType="1" res="2.5921119231497869e-05" rms="4.9961006641387939e-01" purity="5.0575238466262817e-01" nType="-99"/>
          <Node pos="r" depth="2" NCoef="0" IVar="-1" Cut="0.0000000000000000e+00" cType="1" res="1.1544253356987610e-04" rms="4.5499068498611450e-01" purity="7.0760250091552734e-01" nType="-99"/>
        </Node>
        <Node pos="r" depth="1" NCoef="0" IVar="9" Cut="9.5238097012042999e-02" cType="1" res="-2.4248625338077545e-01" rms="4.3307366967201233e-01" purity="2.5007858872413635e-01" nType="0">
          <Node pos="l" depth="2" NCoef="0" IVar="-1" Cut="0.0000000000000000e+00" cType="1" res="-2.2432783152908087e-03" rms="4.7979706525802612e-01" purity="3.5911718010902405e-01" nType="-99"/>
          <Node pos="r" depth="2" NCoef="0" IVar="-1" Cut="0.0000000000000000e+00" cType="1" res="-2.0910035818815231e-03" rms="4.0922027826309204e-01" purity="2.1261394023895264e-01" nType="-99"/>
        </Node>
      </Node>
    </BinaryTree>
    <BinaryTree type="DecisionTree" boostWeight="1.0000000000000000e+00" itree="7">
      <Node pos="s" depth="0" NCoef="0" IVar="5" Cut="1.1904761791229248e+00" cType="1" res="1.1867963708937168e-02" rms="4.9867674708366394e-01" purity="5.1183986663818359e-01" nType="0">
        <Node pos="l" depth="1" NCoef="0" IVar="18" Cut="2.3935952186584473e+00" cType="1" res="6.7642435431480408e-02" rms="4.9488228559494019e-01" purity="5.6943541765213013e-01" nType="0">
          <Node pos="l" depth="2" NCoef="0" IVar="-1" Cut="0.0000000000000000e+00" cType="1" res="1.7474406922701746e-04" rms="4.9900105595588684e-01" purity="5.2495872974395752e-01" nType="-99"/>
          <Node pos="r" depth="2" NCoef="0" IVar="-1" Cut="0.0000000000000000e+00" cType="1" res="1.2690528819803149e-04" rms="4.4679498672485352e-01" purity="7.2499585151672363e-01" nType="-99"/>
        </Node>
        <Node pos="r" depth="1" NCoef="0" IVar="9" Cut="9.5238097012042999e-02" cType="1" res="-2.4758781492710114e-01" rms="4.2945051193237305e-01" purity="2.4391232430934906e-01" nType="0">
          <Node pos="l" depth="2" NCoef="0" IVar="-1" Cut="0.0000000000000000e+00" cType="1" res="-1.2916655978187919e-03" rms="4.8214089870452881e-01" purity="3.6739718914031982e-01" nType="-99"/>
          <Node pos="r" depth="2" NCoef="0" IVar="-1" Cut="0.0000000000000000e+00" cType="1" res="-2.0036008208990097e-03" rms="4.0010821819305420e-01" purity="2.0006018877029419e-01" nType="-99"/>
        </Node>
      </Node>
    </BinaryTree>
    <BinaryTree type="DecisionTree" boostWeight="1.0000000000000000e+00" itree="8">
      <Node pos="s" depth="0" NCoef="0" IVar="5" Cut="1.1904761791229248e+00" cType="1" res="-9.6738394349813461e-03" rms="4.9876287579536438e-01" purity="4.9023613333702087e-01" nType="0">
        <Node pos="l" depth="1" NCoef="0" IVar="15" Cut="1.0938251018524170e+00" cType="1" res="3.6959249526262283e-02" rms="4.9818843603134155e-01" purity="5.3876471519470215e-01" nType="0">
          <Node pos="l" depth="2" NCoef="0" IVar="-1" Cut="0.0000000000000000e+00" cType="1" res="1.3247519964352250e-03" rms="4.8095825314521790e-01" purity="6.3652420043945312e-01" nType="-99"/>
          <Node pos="r" depth="2" NCoef="0" IVar="-1" Cut="0.0000000000000000e+00" cType="1" res="-7.4557770858518779e-05" rms="4.9936798214912415e-01" purity="4.7617369890213013e-01" nType="-99"/>
        </Node>
        <Node pos="r" depth="1" NCoef="0" IVar="9" Cut="9.5238097012042999e-02" cType="1" res="-2.3875916004180908e-01" rms="4.3406754732131958e-01" purity="2.5183916091918945e-01" nType="0">
          <Node pos="l" depth="2" NCoef="0" IVar="-1" Cut="0.0000000000000000e+00" cType="1" res="-1.6514480812475085e-03" rms="4.7332665324211121e-01" purity="3.3878740668296814e-01" nType="-99"/>
          <Node pos="r" depth="2" NCoef="0" IVar="-1" Cut="0.0000000000000000e+00" cType="1" res="-2.4617307353764772e-03" rms="4.1217571496963501e-01" purity="2.1685963869094849e-01" nType="-99"/>
        </Node>
      </Node>
    </BinaryTree>
    <BinaryTree type="DecisionTree" boostWeight="1.0000000000000000e+00" itree="9">
      <Node pos="s" depth="0" NCoef="0" IVar="5" Cut="1.1904761791229248e+00" cType="1" res="8.3618704229593277e-03" rms="4.9857768416404724e-01" purity="5.0823575258255005e-01" nType="0">
        <Node pos="l" depth="1" NCoef="0" IVar="15" Cut="1.5035234689712524e+00" cType="1" res="5.8522444218397141e-02" rms="4.9596932530403137e-01" purity="5.6061530113220215e-01" nType="0">
          <Node pos="l" depth="2" NCoef="0" IVar="-1" Cut="0.0000000000000000e+00" cType="1" res="8.5411826148629189e-04" rms="4.8465827107429504e-01" purity="6.2246990203857422e-01" nType="-99"/>
          <Node pos="r" depth="2" NCoef="0" IVar="-1" Cut="0.0000000000000000e+00" cType="1" res="-2.8271775227040052e-04" rms="4.9754223227500916e-01" purity="4.5058023929595947e-01" nType="-99"/>
        </Node>
        <Node pos="r" depth="1" NCoef="0" IVar="9" Cut="9.5238097012042999e-02" cType="1" res="-2.2673153877258301e-01" rms="4.4008702039718628e-01" purity="2.6274248957633972e-01" nType="0">
          <Node pos="l" depth="2" NCoef="0" IVar="-1" Cut="0.0000000000000000e+00" cType="1" res="-1.2189126573503017e-03" rms="4.8309415578842163e-01" purity="3.7097191810607910e-01" nType="-99"/>
          <Node pos="r" depth="2" NCoef="0" IVar="-1" Cut="0.0000000000000000e+00" cType="1" res="-2.6316656731069088e-03" rms="4.1561317443847656e-01" purity="2.2193042933940887e-01" nType="-99"/>
        </Node>
      </Node>
    </BinaryTree>
    <BinaryTree type="DecisionTree" boostWeight="1.0000000000000000e+00" itree="10">
      <Node pos="s" depth="0" NCoef="0" IVar="5" Cut="1.2380952835083008e+00" cType="1" res="-6.1708511784672737e-03" rms="4.9833780527114868e-01" purity="4.9360916018486023e-01" nType="0">
        <Node pos="l" depth="1" NCoef="0" IVar="15" Cut="1.0938251018524170e+00" cType="1" res="4.5942939817905426e-02" rms="4.9720263481140137e-01" purity="5.4817175865173340e-01" nType="0">
          <Node pos="l" depth="2" NCoef="0" IVar="-1" Cut="0.0000000000000000e+00" cType="1" res="1.1248314986005425e-03" rms="4.7091367840766907e-01" purity="6.6792732477188110e-01" nType="-99"/>
          <Node pos="r" depth="2" NCoef="0" IVar="-1" Cut="0.0000000000000000e+00" cType="1" res="-1.9970940775237978e-04" rms="4.9917703866958618e-01" purity="4.7293132543563843e-01" nType="-99"/>
        </Node>
        <Node pos="r" depth="1" NCoef="0" IVar="9" Cut="9.5238097012042999e-02" cType="1" res="-2.4995154142379761e-01" rms="4.2602083086967468e-01" purity="2.3837321996688843e-01" nType="0">
          <Node pos="l" depth="2" NCoef="0" IVar="-1" Cut="0.0000000000000000e+00" cType="1" res="-1.2386299204081297e-03" rms="4.7151926159858704e-01" purity="3.3357614278793335e-01" nType="-99"/>
          <Node pos="r" depth="2" NCoef="0" IVar="-1" Cut="0.0000000000000000e+00" cType="1" res="-2.1029377821832895e-03" rms="4.0343719720840454e-01" purity="2.0454610884189606e-01" nType="-99"/>
        </Node>
      </Node>
    </BinaryTree>
    <BinaryTree type="DecisionTree" boostWeight="1.0000000000000000e+00" itree="11">
      <Node pos="s" depth="0" NCoef="0" IVar="5" Cut="1.1904761791229248e+00" cType="1" res="1.9695849623531103e-03" rms="4.9831292033195496e-01" purity="5.0171476602554321e-01" nType="0">
        <Node pos="l" depth="1" NCoef="0" IVar="22" Cut="4.4890147447586060e-01" cType="1" res="5.6966181844472885e-02" rms="4.9610325694084167e-01" purity="5.5948871374130249e-01" nType="0">
          <Node pos="l" depth="2" NCoef="0" IVar="-1" Cut="0.0000000000000000e+00" cType="1" res="5.2836512622889131e-05" rms="-nan" purity="1.0886678695678711e+00" nType="-99"/>
          <Node pos="r" depth="2" NCoef="0" IVar="-1" Cut="0.0000000000000000e+00" cType="1" res="3.2461318187415600e-04" rms="4.9787479639053345e-01" purity="5.4076260328292847e-01" nType="-99"/>
        </Node>
        <Node pos="r" depth="1" NCoef="0" IVar="2" Cut="-1.3072069883346558e+00" cType="1" res="-2.4207332730293274e-01" rms="4.3021824955940247e-01" purity="2.4534749984741211e-01" nType="0">
          <Node pos="l" depth="2" NCoef="0" IVar="-1" Cut="0.0000000000000000e+00" cType="1" res="-1.0287432232871652e-03" rms="3.2945132255554199e-01" purity="1.2384207546710968e-01" nType="-99"/>
          <Node pos="r" depth="2" NCoef="0" IVar="-1" Cut="0.0000000000000000e+00" cType="1" res="-2.4176735896617174e-03" rms="4.4475987553596497e-01" purity="2.7178090810775757e-01" nType="-99"/>
        </Node>
      </Node>
    </BinaryTree>
    <BinaryTree type="DecisionTree" boostWeight="1.0000000000000000e+00" itree="12">
      <Node pos="s" depth="0" NCoef="0" IVar="5" Cut="1.1904761791229248e+00" cType="1" res="-2.4300124496221542e-03" rms="4.9816051125526428e-01" purity="4.9725663661956787e-01" nType="0">
        <Node pos="l" depth="1" NCoef="0" IVar="15" Cut="1.5035234689712524e+00" cType="1" res="4.8582956194877625e-02" rms="4.9685373902320862e-01" purity="5.5112028121948242e-01" nType="0">
          <Node pos="l" depth="2" NCoef="0" IVar="-1" Cut="0.0000000000000000e+00" cType="1" res="9.2964834766462445e-04" rms="4.8511740565299988e-01" purity="6.2011069059371948e-01" nType="-99"/>
          <Node pos="r" depth="2" NCoef="0" IVar="-1" Cut="0.0000000000000000e+00" cType="1" res="-3.5442828084342182e-04" rms="4.9562588334083557e-01" purity="4.3407705426216125e-01" nType="-99"/>
        </Node>
        <Node pos="r" depth="1" NCoef="0" IVar="15" Cut="7.6162487268447876e-01" cType="1" res="-2.4079993367195129e-01" rms="4.3041759729385376e-01" purity="2.4556609988212585e-01" nType="0">
          <Node pos="l" depth="2" NCoef="0" IVar="-1" Cut="0.0000000000000000e+00" cType="1" res="-3.5092066973447800e-03" rms="4.8334148526191711e-01" purity="3.7218949198722839e-01" nType="-99"/>
          <Node pos="r" depth="2" NCoef="0" IVar="-1" Cut="0.0000000000000000e+00" cType="1" res="-2.1367829758673906e-03" rms="4.1252365708351135e-01" purity="2.1754017472267151e-01" nType="-99"/>
        </Node>
      </Node>
    </BinaryTree>
    <BinaryTree type="DecisionTree" boostWeight="1.0000000000000000e+00" itree="13">
      <Node pos="s" depth="0" NCoef="0" IVar="5" Cut="1.2380952835083008e+00" cType="1" res="-1.0151812806725502e-02" rms="4.9795493483543396e-01" purity="4.8950043320655823e-01" nType="0">
        <Node pos="l" depth="1" NCoef="0" IVar="15" Cut="1.0938251018524170e+00" cType="1" res="4.1275527328252792e-02" rms="4.9758151173591614e-01" purity="5.4414165019989014e-01" nType="0">
          <Node pos="l" depth="2" NCoef="0" IVar="-1" Cut="0.0000000000000000e+00" cType="1" res="2.4217513855546713e-03" rms="4.8049369454383850e-01" purity="6.3809847831726074e-01" nType="-99"/>
          <Node pos="r" depth="2" NCoef="0" IVar="-1" Cut="0.0000000000000000e+00" cType="1" res="-5.3413648856803775e-05" rms="4.9960353970527649e-01" purity="4.8221436142921448e-01" nType="-99"/>
        </Node>
        <Node pos="r" depth="1" NCoef="0" IVar="9" Cut="1.0476191043853760e+00" cType="1" res="-2.4260434508323669e-01" rms="4.2854520678520203e-01" purity="2.4252103269100189e-01" nType="0">
          <Node pos="l" depth="2" NCoef="0" IVar="-1" Cut="0.0000000000000000e+00" cType="1" res="-2.2122410591691732e-03" rms="4.5206156373023987e-01" purity="2.8648704290390015e-01" nType="-99"/>
          <Node pos="r" depth="2" NCoef="0" IVar="-1" Cut="0.0000000000000000e+00" cType="1" res="-1.2247752165421844e-03" rms="3.3045792579650879e-01" purity="1.2471617758274078e-01" nType="-99"/>
        </Node>
      </Node>
    </BinaryTree>
    <BinaryTree type="DecisionTree" boostWeight="1.0000000000000000e+00" itree="14">
      <Node pos="s" depth="0" NCoef="0" IVar="5" Cut="1.1904761791229248e+00" cType="1" res="-4.5645022764801979e-03" rms="4.9789050221443176e-01" purity="4.9535322189331055e-01" nType="0">
        <Node pos="l" depth="1" NCoef="0" IVar="15" Cut="1.0806359052658081e+00" cType="1" res="4.4128566980361938e-02" rms="4.9714213609695435e-01" purity="5.4742932319641113e-01" nType="0">
          <Node pos="l" depth="2" NCoef="0" IVar="-1" Cut="0.0000000000000000e+00" cType="1" res="1.5513675753027201e-03" rms="4.7404432296752930e-01" purity="6.5900599956512451e-01" nType="-99"/>
          <Node pos="r" depth="2" NCoef="0" IVar="-1" Cut="0.0000000000000000e+00" cType="1" res="-5.8558805903885514e-05" rms="4.9945092201232910e-01" purity="4.7835934162139893e-01" nType="-99"/>
        </Node>
        <Node pos="r" depth="1" NCoef="0" IVar="9" Cut="1.0476191043853760e+00" cType="1" res="-2.3139467835426331e-01" rms="4.3458810448646545e-01" purity="2.5276353955268860e-01" nType="0">
          <Node pos="l" depth="2" NCoef="0" IVar="-1" Cut="0.0000000000000000e+00" cType="1" res="-2.0575246307998896e-03" rms="4.5514839887619019e-01" purity="2.9316747188568115e-01" nType="-99"/>
          <Node pos="r" depth="2" NCoef="0" IVar="-1" Cut="0.0000000000000000e+00" cType="1" res="-1.0410827817395329e-03" rms="3.5320368409156799e-01" purity="1.4595471322536469e-01" nType="-99"/>
        </Node>
      </Node>
    </BinaryTree>
    <BinaryTree type="DecisionTree" boostWeight="1.0000000000000000e+00" itree="15">
      <Node pos="s" depth="0" NCoef="0" IVar="17" Cut="3.1717469692230225e+00" cType="1" res="2.5706185027956963e-02" rms="4.9713578820228577e-01" purity="5.2589172124862671e-01" nType="0">
        <Node pos="l" depth="1" NCoef="0" IVar="5" Cut="1.1904761791229248e+00" cType="1" res="1.8560301978141069e-03" rms="4.9779951572418213e-01" purity="5.0179302692413330e-01" nType="0">
          <Node pos="l" depth="2" NCoef="0" IVar="-1" Cut="0.0000000000000000e+00" cType="1" res="3.8939164369367063e-04" rms="4.9657812714576721e-01" purity="5.5220270156860352e-01" nType="-99"/>
          <Node pos="r" depth="2" NCoef="0" IVar="-1" Cut="0.0000000000000000e+00" cType="1" res="-2.3908065631985664e-03" rms="4.4358336925506592e-01" purity="2.6926308870315552e-01" nType="-99"/>
        </Node>
        <Node pos="r" depth="1" NCoef="0" IVar="-1" Cut="0.0000000000000000e+00" cType="1" res="5.4789376008557156e-05" rms="-nan" purity="1.1015866994857788e+00" nType="-99"/>
      </Node>
    </BinaryTree>
    <BinaryTree type="DecisionTree" boostWeight="1.0000000000000000e+00" itree="16">
      <Node pos="s" depth="0" NCoef="0" IVar="5" Cut="1.2380952835083008e+00" cType="1" res="8.5955923423171043e-03" rms="4.9742618203163147e-01" purity="5.0852465629577637e-01" nType="0">
        <Node pos="l" depth="1" NCoef="0" IVar="15" Cut="1.2165330648422241e+00" cType="1" res="5.9955004602670670e-02" rms="4.9520030617713928e-01" purity="5.6371009349822998e-01" nType="0">
          <Node pos="l" depth="2" NCoef="0" IVar="-1" Cut="0.0000000000000000e+00" cType="1" res="1.3489255215972662e-03" rms="4.7339349985122681e-01" purity="6.6039991378784180e-01" nType="-99"/>
          <Node pos="r" depth="2" NCoef="0" IVar="-1" Cut="0.0000000000000000e+00" cType="1" res="-1.4546331658493727e-04" rms="4.9944430589675903e-01" purity="4.7823297977447510e-01" nType="-99"/>
        </Node>
        <Node pos="r" depth="1" NCoef="0" IVar="22" Cut="2.3936207294464111e+00" cType="1" res="-2.3114979267120361e-01" rms="4.3353834748268127e-01" purity="2.5091952085494995e-01" nType="0">
          <Node pos="l" depth="2" NCoef="0" IVar="-1" Cut="0.0000000000000000e+00" cType="1" res="-2.4037875700742006e-03" rms="4.0744283795356750e-01" purity="2.1027086675167084e-01" nType="-99"/>
          <Node pos="r" depth="2" NCoef="0" IVar="-1" Cut="0.0000000000000000e+00" cType="1" res="-2.1718842908740044e-03" rms="4.7481721639633179e-01" purity="3.4314909577369690e-01" nType="-99"/>
        </Node>
      </Node>
    </BinaryTree>
    <BinaryTree type="DecisionTree" boostWeight="1.0000000000000000e+00" itree="17">
      <Node pos="s" depth="0" NCoef="0" IVar="5" Cut="1.2380952835083008e+00" cType="1" res="-2.0700346678495407e-02" rms="4.9724584817886353e-01" purity="4.7947853803634644e-01" nType="0">
        <Node pos="l" depth="1" NCoef="0" IVar="14" Cut="1.9140447378158569e+00" cType="1" res="2.3222707211971283e-02" rms="4.9857845902442932e-01" purity="5.2725863456726074e-01" nType="0">
          <Node pos="l" depth="2" NCoef="0" IVar="-1" Cut="0.0000000000000000e+00" cType="1" res="8.6539110634475946e-04" rms="4.9346327781677246e-01" purity="5.7725149393081665e-01" nType="-99"/>
          <Node pos="r" depth="2" NCoef="0" IVar="-1" Cut="0.0000000000000000e+00" cType="1" res="-3.7129007978364825e-04" rms="4.8233070969581604e-01" purity="3.7062796950340271e-01" nType="-99"/>
        </Node>
        <Node pos="r" depth="1" NCoef="0" IVar="15" Cut="7.6162487268447876e-01" cType="1" res="-2.3993624746799469e-01" rms="4.2770981788635254e-01" purity="2.4099069833755493e-01" nType="0">
          <Node pos="l" depth="2" NCoef="0" IVar="-1" Cut="0.0000000000000000e+00" cType="1" res="-3.5758956801146269e-03" rms="4.8302614688873291e-01" purity="3.7123122811317444e-01" nType="-99"/>
          <Node pos="r" depth="2" NCoef="0" IVar="-1" Cut="0.0000000000000000e+00" cType="1" res="-2.8240324463695288e-03" rms="4.0937775373458862e-01" purity="2.1298739314079285e-01" nType="-99"/>
        </Node>
      </Node>
    </BinaryTree>
    <BinaryTree type="DecisionTree" boostWeight="1.0000000000000000e+00" itree="18">
      <Node pos="s" depth="0" NCoef="0" IVar="5" Cut="1.1904761791229248e+00" cType="1" res="-7.3979170992970467e-03" rms="4.9730399250984192e-01" purity="4.9252718687057495e-01" nType="0">
        <Node pos="l" depth="1" NCoef="0" IVar="15" Cut="1.5035234689712524e+00" cType="1" res="3.8819689303636551e-02" rms="4.9733361601829529e-01" purity="5.4304927587509155e-01" nType="0">
          <Node pos="l" depth="2" NCoef="0" IVar="-1" Cut="0.0000000000000000e+00" cType="1" res="1.3097608461976051e-03" rms="4.8782140016555786e-01" purity="6.0797107219696045e-01" nType="-99"/>
          <Node pos="r" depth="2" NCoef="0" IVar="-1" Cut="0.0000000000000000e+00" cType="1" res="-1.4566042227670550e-04" rms="4.9502325057983398e-01" purity="4.3001180887222290e-01" nType="-99"/>
        </Node>
        <Node pos="r" depth="1" NCoef="0" IVar="22" Cut="2.2440311908721924e+00" cType="1" res="-2.2698457539081573e-01" rms="4.3451595306396484e-01" purity="2.5248959660530090e-01" nType="0">
          <Node pos="l" depth="2" NCoef="0" IVar="-1" Cut="0.0000000000000000e+00" cType="1" res="-2.0421119406819344e-03" rms="3.9976504445075989e-01" purity="1.9967213273048401e-01" nType="-99"/>
          <Node pos="r" depth="2" NCoef="0" IVar="-1" Cut="0.0000000000000000e+00" cType="1" res="-2.0639831200242043e-03" rms="4.7792497277259827e-01" purity="3.5268157720565796e-01" nType="-99"/>
        </Node>
      </Node>
    </BinaryTree>
    <BinaryTree type="DecisionTree" boostWeight="1.0000000000000000e+00" itree="19">
      <Node pos="s" depth="0" NCoef="0" IVar="5" Cut="1.2380952835083008e+00" cType="1" res="-9.1488417237997055e-03" rms="4.9717870354652405e-01" purity="4.9101299047470093e-01" nType="0">
        <Node pos="l" depth="1" NCoef="0" IVar="15" Cut="1.1285446882247925e+00" cType="1" res="3.4782748669385910e-02" rms="4.9756479263305664e-01" purity="5.3943860530853271e-01" nType="0">
          <Node pos="l" depth="2" NCoef="0" IVar="-1" Cut="0.0000000000000000e+00" cType="1" res="1.2273021275177598e-03" rms="4.7902375459671021e-01" purity="6.4277833700180054e-01" nType="-99"/>
          <Node pos="r" depth="2" NCoef="0" IVar="-1" Cut="0.0000000000000000e+00" cType="1" res="-3.2325577922165394e-04" rms="4.9871170520782471e-01" purity="4.6699652075767517e-01" nType="-99"/>
        </Node>
        <Node pos="r" depth="1" NCoef="0" IVar="9" Cut="9.5238097012042999e-02" cType="1" res="-2.2168825566768646e-01" rms="4.3682774901390076e-01" purity="2.5673162937164307e-01" nType="0">
          <Node pos="l" depth="2" NCoef="0" IVar="-1" Cut="0.0000000000000000e+00" cType="1" res="-6.3008401775732636e-04" rms="4.8107796907424927e-01" purity="3.6339327692985535e-01" nType="-99"/>
          <Node pos="r" depth="2" NCoef="0" IVar="-1" Cut="0.0000000000000000e+00" cType="1" res="-2.6430056896060705e-03" rms="4.1108167171478271e-01" purity="2.1512500941753387e-01" nType="-99"/>
        </Node>
      </Node>
    </BinaryTree>
    <BinaryTree type="DecisionTree" boostWeight="1.0000000000000000e+00" itree="20">
      <Node pos="s" depth="0" NCoef="0" IVar="5" Cut="1.2380952835083008e+00" cType="1" res="-1.2470570392906666e-02" rms="4.9697309732437134e-01" purity="4.8764249682426453e-01" nType="0">
        <Node pos="l" depth="1" NCoef="0" IVar="14" Cut="1.9402052164077759e+00" cType="1" res="3.0426112934947014e-02" rms="4.9779838323593140e-01" purity="5.3517603874206543e-01" nType="0">
          <Node pos="l" depth="2" NCoef="0" IVar="-1" Cut="0.0000000000000000e+00" cType="1" res="9.5750554464757442e-04" rms="4.9106812477111816e-01" purity="5.9055680036544800e-01" nType="-99"/>
          <Node pos="r" depth="2" NCoef="0" IVar="-1" Cut="0.0000000000000000e+00" cType="1" res="-4.6559330075979233e-04" rms="4.7910892963409424e-01" purity="3.6053490638732910e-01" nType="-99"/>
        </Node>
        <Node pos="r" depth="1" NCoef="0" IVar="22" Cut="2.2441647052764893e+00" cType="1" res="-2.2346982359886169e-01" rms="4.3516919016838074e-01" purity="2.5383532047271729e-01" nType="0">
          <Node pos="l" depth="2" NCoef="0" IVar="-1" Cut="0.0000000000000000e+00" cType="1" res="-1.9117499468848109e-03" rms="4.0668717026710510e-01" purity="2.0924389362335205e-01" nType="-99"/>
          <Node pos="r" depth="2" NCoef="0" IVar="-1" Cut="0.0000000000000000e+00" cType="1" res="-1.8824146827682853e-03" rms="4.7131565213203430e-01" purity="3.3300805091857910e-01" nType="-99"/>
        </Node>
      </Node>
    </BinaryTree>
    <BinaryTree type="DecisionTree" boostWeight="1.0000000000000000e+00" itree="21">
      <Node pos="s" depth="0" NCoef="0" IVar="5" Cut="1.1904761791229248e+00" cType="1" res="-1.6579817747697234e-03" rms="4.9684563279151917e-01" purity="4.9850058555603027e-01" nType="0">
        <Node pos="l" depth="1" NCoef="0" IVar="18" Cut="2.3936018943786621e+00" cType="1" res="4.9020811915397644e-02" rms="4.9628859758377075e-01" purity="5.5438715219497681e-01" nType="0">
          <Node pos="l" depth="2" NCoef="0" IVar="-1" Cut="0.0000000000000000e+00" cType="1" res="4.4958975195186213e-05" rms="4.9876785278320312e-01" purity="5.1090592145919800e-01" nType="-99"/>
          <Node pos="r" depth="2" NCoef="0" IVar="-1" Cut="0.0000000000000000e+00" cType="1" res="1.1331585119478405e-04" rms="4.5825061202049255e-01" purity="7.0232522487640381e-01" nType="-99"/>
        </Node>
        <Node pos="r" depth="1" NCoef="0" IVar="9" Cut="1.0476191043853760e+00" cType="1" res="-2.3286971449851990e-01" rms="4.2918890714645386e-01" purity="2.4352946877479553e-01" nType="0">
          <Node pos="l" depth="2" NCoef="0" IVar="-1" Cut="0.0000000000000000e+00" cType="1" res="-2.7403887361288071e-03" rms="4.4907975196838379e-01" purity="2.8034484386444092e-01" nType="-99"/>
          <Node pos="r" depth="2" NCoef="0" IVar="-1" Cut="0.0000000000000000e+00" cType="1" res="-1.4945919392630458e-03" rms="3.4455856680870056e-01" purity="1.3753770291805267e-01" nType="-99"/>
        </Node>
      </Node>
    </BinaryTree>
    <BinaryTree type="DecisionTree" boostWeight="1.0000000000000000e+00" itree="22">
      <Node pos="s" depth="0" NCoef="0" IVar="5" Cut="1.2380952835083008e+00" cType="1" res="-7.9002398997545242e-03" rms="4.9700558185577393e-01" purity="4.9214950203895569e-01" nType="0">
        <Node pos="l" depth="1" NCoef="0" IVar="14" Cut="1.5189293622970581e+00" cType="1" res="3.3276576548814774e-02" rms="4.9761706590652466e-01" purity="5.3845059871673584e-01" nType="0">
          <Node pos="l" depth="2" NCoef="0" IVar="-1" Cut="0.0000000000000000e+00" cType="1" res="1.6089240089058876e-03" rms="4.8800152540206909e-01" purity="6.0631114244461060e-01" nType="-99"/>
          <Node pos="r" depth="2" NCoef="0" IVar="-1" Cut="0.0000000000000000e+00" cType="1" res="-1.3019987090956420e-04" rms="4.9520584940910339e-01" purity="4.3805482983589172e-01" nType="-99"/>
        </Node>
        <Node pos="r" depth="1" NCoef="0" IVar="2" Cut="-1.0677353143692017e+00" cType="1" res="-2.0802895724773407e-01" rms="4.4245499372482300e-01" purity="2.6711565256118774e-01" nType="0">
          <Node pos="l" depth="2" NCoef="0" IVar="-1" Cut="0.0000000000000000e+00" cType="1" res="-1.3198708184063435e-03" rms="3.7545296549797058e-01" purity="1.6962251067161560e-01" nType="-99"/>
          <Node pos="r" depth="2" NCoef="0" IVar="-1" Cut="0.0000000000000000e+00" cType="1" res="-1.2236359762027860e-03" rms="4.5805102586746216e-01" purity="2.9976937174797058e-01" nType="-99"/>
        </Node>
      </Node>
    </BinaryTree>
    <BinaryTree type="DecisionTree" boostWeight="1.0000000000000000e+00" itree="23">
      <Node pos="s" depth="0" NCoef="0" IVar="5" Cut="1.1904761791229248e+00" cType="1" res="7.3054083622992039e-03" rms="4.9688801169395447e-01" purity="5.0789457559585571e-01" nType="0">
        <Node pos="l" depth="1" NCoef="0" IVar="22" Cut="4.4888809323310852e-01" cType="1" res="5.0691306591033936e-02" rms="4.9603366851806641e-01" purity="5.5657631158828735e-01" nType="0">
          <Node pos="l" depth="2" NCoef="0" IVar="-1" Cut="0.0000000000000000e+00" cType="1" res="4.6550663682864979e-05" rms="1.8881857395172119e-01" purity="9.7212499380111694e-01" nType="-99"/>
          <Node pos="r" depth="2" NCoef="0" IVar="-1" Cut="0.0000000000000000e+00" cType="1" res="2.6385299861431122e-04" rms="4.9735346436500549e-01" purity="5.4031127691268921e-01" nType="-99"/>
        </Node>
        <Node pos="r" depth="1" NCoef="0" IVar="9" Cut="9.5238097012042999e-02" cType="1" res="-2.0674051344394684e-01" rms="4.4269695878028870e-01" purity="2.6772144436836243e-01" nType="0">
          <Node pos="l" depth="2" NCoef="0" IVar="-1" Cut="0.0000000000000000e+00" cType="1" res="-1.0752279777079821e-03" rms="4.8414030671119690e-01" purity="3.7459585070610046e-01" nType="-99"/>
          <Node pos="r" depth="2" NCoef="0" IVar="-1" Cut="0.0000000000000000e+00" cType="1" res="-2.2127998527139425e-03" rms="4.1911137104034424e-01" purity="2.2713612020015717e-01" nType="-99"/>
        </Node>
      </Node>
    </BinaryTree>
    <BinaryTree type="DecisionTree" boostWeight="1.0000000000000000e+00" itree="24">
      <Node pos="s" depth="0" NCoef="0" IVar="5" Cut="1.1904761791229248e+00" cType="1" res="-1.8782379338517785e-03" rms="4.9662041664123535e-01" purity="4.9819540977478027e-01" nType="0">
        <Node pos="l" depth="1" NCoef="0" IVar="15" Cut="1.5035234689712524e+00" cType="1" res="4.4119980186223984e-02" rms="4.9654212594032288e-01" purity="5.4994285106658936e-01" nType="0">
          <Node pos="l" depth="2" NCoef="0" IVar="-1" Cut="0.0000000000000000e+00" cType="1" res="1.3141555245965719e-03" rms="4.8691356182098389e-01" purity="6.1201250553131104e-01" nType="-99"/>
          <Node pos="r" depth="2" NCoef="0" IVar="-1" Cut="0.0000000000000000e+00" cType="1" res="-2.8106220997869968e-04" rms="4.9637401103973389e-01" purity="4.4139811396598816e-01" nType="-99"/>
        </Node>
        <Node pos="r" depth="1" NCoef="0" IVar="22" Cut="1.9448521137237549e+00" cType="1" res="-2.1322771906852722e-01" rms="4.3886071443557739e-01" purity="2.6042997837066650e-01" nType="0">
          <Node pos="l" depth="2" NCoef="0" IVar="-1" Cut="0.0000000000000000e+00" cType="1" res="-2.2425909992307425e-03" rms="4.0200421214103699e-01" purity="2.0289757847785950e-01" nType="-99"/>
          <Node pos="r" depth="2" NCoef="0" IVar="-1" Cut="0.0000000000000000e+00" cType="1" res="-2.1323245018720627e-03" rms="4.6853938698768616e-01" purity="3.2521656155586243e-01" nType="-99"/>
        </Node>
      </Node>
    </BinaryTree>
    <BinaryTree type="DecisionTree" boostWeight="1.0000000000000000e+00" itree="25">
      <Node pos="s" depth="0" NCoef="0" IVar="5" Cut="1.1904761791229248e+00" cType="1" res="5.1332851871848106e-03" rms="4.9626824259757996e-01" purity="5.0549215078353882e-01" nType="0">
        <Node pos="l" depth="1" NCoef="0" IVar="15" Cut="8.4250092506408691e-01" cType="1" res="5.4249729961156845e-02" rms="4.9537014961242676e-01" purity="5.6051433086395264e-01" nType="0">
          <Node pos="l" depth="2" NCoef="0" IVar="-1" Cut="0.0000000000000000e+00" cType="1" res="1.5367611777037382e-03" rms="4.5141559839248657e-01" purity="7.1482890844345093e-01" nType="-99"/>
          <Node pos="r" depth="2" NCoef="0" IVar="-1" Cut="0.0000000000000000e+00" cType="1" res="2.2455471480498090e-05" rms="4.9936670064926147e-01" purity="5.1391720771789551e-01" nType="-99"/>
        </Node>
        <Node pos="r" depth="1" NCoef="0" IVar="9" Cut="1.0476191043853760e+00" cType="1" res="-2.2638097405433655e-01" rms="4.3070879578590393e-01" purity="2.4614088237285614e-01" nType="0">
          <Node pos="l" depth="2" NCoef="0" IVar="-1" Cut="0.0000000000000000e+00" cType="1" res="-4.2872638441622257e-03" rms="4.4762581586837769e-01" purity="2.7746605873107910e-01" nType="-99"/>
          <Node pos="r" depth="2" NCoef="0" IVar="-1" Cut="0.0000000000000000e+00" cType="1" res="-1.1612856760621071e-03" rms="3.5086050629615784e-01" purity="1.4370393753051758e-01" nType="-99"/>
        </Node>
      </Node>
    </BinaryTree>
    <BinaryTree type="DecisionTree" boostWeight="1.0000000000000000e+00" itree="26">
      <Node pos="s" depth="0" NCoef="0" IVar="5" Cut="1.2380952835083008e+00" cType="1" res="-1.4483438804745674e-02" rms="4.9628880620002747e-01" purity="4.8598402738571167e-01" nType="0">
        <Node pos="l" depth="1" NCoef="0" IVar="14" Cut="1.5601782798767090e+00" cType="1" res="2.6114456355571747e-02" rms="4.9784106016159058e-01" purity="5.3235280513763428e-01" nType="0">
          <Node pos="l" depth="2" NCoef="0" IVar="-1" Cut="0.0000000000000000e+00" cType="1" res="1.1587735498324037e-03" rms="4.8988509178161621e-01" purity="5.9661704301834106e-01" nType="-99"/>
          <Node pos="r" depth="2" NCoef="0" IVar="-1" Cut="0.0000000000000000e+00" cType="1" res="-3.8921943632885814e-04" rms="4.9403420090675354e-01" purity="4.3027272820472717e-01" nType="-99"/>
        </Node>
        <Node pos="r" depth="1" NCoef="0" IVar="22" Cut="2.2438576221466064e+00" cType="1" res="-2.2342006862163544e-01" rms="4.3153670430183411e-01" purity="2.4734762310981750e-01" nType="0">
          <Node pos="l" depth="2" NCoef="0" IVar="-1" Cut="0.0000000000000000e+00" cType="1" res="-2.1176133304834366e-03" rms="4.0458923578262329e-01" purity="2.0629958808422089e-01" nType="-99"/>
          <Node pos="r" depth="2" NCoef="0" IVar="-1" Cut="0.0000000000000000e+00" cType="1" res="-1.7449988517910242e-03" rms="4.6461099386215210e-01" purity="3.1465137004852295e-01" nType="-99"/>
        </Node>
      </Node>
    </BinaryTree>
    <BinaryTree type="DecisionTree" boostWeight="1.0000000000000000e+00" itree="27">
      <Node pos="s" depth="0" NCoef="0" IVar="5" Cut="1.2380952835083008e+00" cType="1" res="7.2622867301106453e-03" rms="4.9624070525169373e-01" purity="5.0754630565643311e-01" nType="0">
        <Node pos="l" depth="1" NCoef="0" IVar="15" Cut="1.0940742492675781e+00" cType="1" res="5.0745386630296707e-02" rms="4.9566581845283508e-01" purity="5.5753552913665771e-01" nType="0">
          <Node pos="l" depth="2" NCoef="0" IVar="-1" Cut="0.0000000000000000e+00" cType="1" res="1.0293794330209494e-03" rms="4.7406378388404846e-01" purity="6.5871214866638184e-01" nType="-99"/>
          <Node pos="r" depth="2" NCoef="0" IVar="-1" Cut="0.0000000000000000e+00" cType="1" res="-2.1025844034738839e-05" rms="4.9965265393257141e-01" purity="4.9168771505355835e-01" nType="-99"/>
        </Node>
        <Node pos="r" depth="1" NCoef="0" IVar="9" Cut="9.5238097012042999e-02" cType="1" res="-1.9701237976551056e-01" rms="4.4533470273017883e-01" purity="2.7270731329917908e-01" nType="0">
          <Node pos="l" depth="2" NCoef="0" IVar="-1" Cut="0.0000000000000000e+00" cType="1" res="-3.8055486511439085e-03" rms="4.8444947600364685e-01" purity="3.7600561976432800e-01" nType="-99"/>
          <Node pos="r" depth="2" NCoef="0" IVar="-1" Cut="0.0000000000000000e+00" cType="1" res="-2.3080224636942148e-03" rms="4.2207723855972290e-01" purity="2.3156531155109406e-01" nType="-99"/>
        </Node>
      </Node>
    </BinaryTree>
    <BinaryTree type="DecisionTree" boostWeight="1.0000000000000000e+00" itree="28">
      <Node pos="s" depth="0" NCoef="0" IVar="5" Cut="1.2380952835083008e+00" cType="1" res="-1.1971444822847843e-02" rms="4.9624258279800415e-01" purity="4.8849025368690491e-01" nType="0">
        <Node pos="l" depth="1" NCoef="0" IVar="15" Cut="1.0938251018524170e+00" cType="1" res="2.4936426430940628e-02" rms="4.9772009253501892e-01" purity="5.3169053792953491e-01" nType="0">
          <Node pos="l" depth="2" NCoef="0" IVar="-1" Cut="0.0000000000000000e+00" cType="1" res="1.6995137557387352e-03" rms="4.7938695549964905e-01" purity="6.4150089025497437e-01" nType="-99"/>
          <Node pos="r" depth="2" NCoef="0" IVar="-1" Cut="0.0000000000000000e+00" cType="1" res="-1.1265630018897355e-04" rms="4.9805581569671631e-01" purity="4.6152716875076294e-01" nType="-99"/>
        </Node>
        <Node pos="r" depth="1" NCoef="0" IVar="22" Cut="2.2441930770874023e+00" cType="1" res="-1.9999197125434875e-01" rms="4.4326519966125488e-01" purity="2.6841408014297485e-01" nType="0">
          <Node pos="l" depth="2" NCoef="0" IVar="-1" Cut="0.0000000000000000e+00" cType="1" res="-2.5931042619049549e-03" rms="4.1583499312400818e-01" purity="2.2228923439979553e-01" nType="-99"/>
          <Node pos="r" depth="2" NCoef="0" IVar="-1" Cut="0.0000000000000000e+00" cType="1" res="-2.8899670578539371e-03" rms="4.7895830869674683e-01" purity="3.5558140277862549e-01" nType="-99"/>
        </Node>
      </Node>
    </BinaryTree>
    <BinaryTree type="DecisionTree" boostWeight="1.0000000000000000e+00" itree="29">
      <Node pos="s" depth="0" NCoef="0" IVar="5" Cut="1.1904761791229248e+00" cType="1" res="-6.0795592144131660e-03" rms="4.9596247076988220e-01" purity="4.9427455663681030e-01" nType="0">
        <Node pos="l" depth="1" NCoef="0" IVar="15" Cut="1.0940742492675781e+00" cType="1" res="3.6055862903594971e-02" rms="4.9697342514991760e-01" purity="5.4327225685119629e-01" nType="0">
          <Node pos="l" depth="2" NCoef="0" IVar="-1" Cut="0.0000000000000000e+00" cType="1" res="1.1718189343810081e-03" rms="4.7989198565483093e-01" purity="6.3972944021224976e-01" nType="-99"/>
          <Node pos="r" depth="2" NCoef="0" IVar="-1" Cut="0.0000000000000000e+00" cType="1" res="-6.5473002905491740e-05" rms="4.9926716089248657e-01" purity="4.7986623644828796e-01" nType="-99"/>
        </Node>
        <Node pos="r" depth="1" NCoef="0" IVar="9" Cut="9.5238097012042999e-02" cType="1" res="-2.1090970933437347e-01" rms="4.3647792935371399e-01" purity="2.5608563423156738e-01" nType="0">
          <Node pos="l" depth="2" NCoef="0" IVar="-1" Cut="0.0000000000000000e+00" cType="1" res="-1.8761826213449240e-03" rms="4.7873380780220032e-01" purity="3.5542631149291992e-01" nType="-99"/>
          <Node pos="r" depth="2" NCoef="0" IVar="-1" Cut="0.0000000000000000e+00" cType="1" res="-2.2397104185074568e-03" rms="4.1386672854423523e-01" purity="2.1916888654232025e-01" nType="-99"/>
        </Node>
      </Node>
    </BinaryTree>
    <BinaryTree type="DecisionTree" boostWeight="1.0000000000000000e+00" itree="30">
      <Node pos="s" depth="0" NCoef="0" IVar="5" Cut="1.2380952835083008e+00" cType="1" res="-1.1038104072213173e-02" rms="4.9539870023727417e-01" purity="4.8855838179588318e-01" nType="0">
        <Node pos="l" depth="1" NCoef="0" IVar="14" Cut="2.0990383625030518e+00" cType="1" res="3.6358010023832321e-02" rms="4.9679055809974670e-01" purity="5.4366964101791382e-01" nType="0">
          <Node pos="l" depth="2" NCoef="0" IVar="-1" Cut="0.0000000000000000e+00" cType="1" res="7.0136971771717072e-04" rms="4.9219211935997009e-01" purity="5.8254176378250122e-01" nType="-99"/>
          <Node pos="r" depth="2" NCoef="0" IVar="-1" Cut="0.0000000000000000e+00" cType="1" res="-4.6141122584231198e-04" rms="4.8186239600181580e-01" purity="3.7074369192123413e-01" nType="-99"/>
        </Node>
        <Node pos="r" depth="1" NCoef="0" IVar="9" Cut="1.0476191043853760e+00" cType="1" res="-2.1657951176166534e-01" rms="4.3294557929039001e-01" purity="2.4955894052982330e-01" nType="0">
          <Node pos="l" depth="2" NCoef="0" IVar="-1" Cut="0.0000000000000000e+00" cType="1" res="-1.8023643642663956e-03" rms="4.5438453555107117e-01" purity="2.9138505458831787e-01" nType="-99"/>
          <Node pos="r" depth="2" NCoef="0" IVar="-1" Cut="0.0000000000000000e+00" cType="1" res="-1.0348026407882571e-03" rms="3.2712894678115845e-01" purity="1.2174552679061890e-01" nType="-99"/>
        </Node>
      </Node>
    </BinaryTree>
    <BinaryTree type="DecisionTree" boostWeight="1.0000000000000000e+00" itree="31">
      <Node pos="s" depth="0" NCoef="0" IVar="5" Cut="1.1904761791229248e+00" cType="1" res="-5.6182136759161949e-03" rms="4.9536383152008057e-01" purity="4.9422401189804077e-01" nType="0">
        <Node pos="l" depth="1" NCoef="0" IVar="15" Cut="1.0938251018524170e+00" cType="1" res="4.1659832000732422e-02" rms="4.9623993039131165e-01" purity="5.4922235012054443e-01" nType="0">
          <Node pos="l" depth="2" NCoef="0" IVar="-1" Cut="0.0000000000000000e+00" cType="1" res="1.0137250646948814e-03" rms="4.7491502761840820e-01" purity="6.5558010339736938e-01" nType="-99"/>
          <Node pos="r" depth="2" NCoef="0" IVar="-1" Cut="0.0000000000000000e+00" cType="1" res="-1.2888071069028229e-04" rms="4.9929064512252808e-01" purity="4.8168620467185974e-01" nType="-99"/>
        </Node>
        <Node pos="r" depth="1" NCoef="0" IVar="9" Cut="1.0476191043853760e+00" cType="1" res="-2.1701346337795258e-01" rms="4.3222519755363464e-01" purity="2.4830862879753113e-01" nType="0">
          <Node pos="l" depth="2" NCoef="0" IVar="-1" Cut="0.0000000000000000e+00" cType="1" res="-3.4850405063480139e-03" rms="4.5266520977020264e-01" purity="2.8771904110908508e-01" nType="-99"/>
          <Node pos="r" depth="2" NCoef="0" IVar="-1" Cut="0.0000000000000000e+00" cType="1" res="-1.0868151439353824e-03" rms="3.4557691216468811e-01" purity="1.3852632045745850e-01" nType="-99"/>
        </Node>
      </Node>
    </BinaryTree>
    <BinaryTree type="DecisionTree" boostWeight="1.0000000000000000e+00" itree="32">
      <Node pos="s" depth="0" NCoef="0" IVar="5" Cut="1.1904761791229248e+00" cType="1" res="-1.2042183661833405e-03" rms="4.9540033936500549e-01" purity="4.9886620044708252e-01" nType="0">
        <Node pos="l" depth="1" NCoef="0" IVar="18" Cut="1.7952094078063965e+00" cType="1" res="4.7088213264942169e-02" rms="4.9593013525009155e-01" purity="5.5518931150436401e-01" nType="0">
          <Node pos="l" depth="2" NCoef="0" IVar="-1" Cut="0.0000000000000000e+00" cType="1" res="-5.0605060096131638e-05" rms="4.9865409731864929e-01" purity="5.0158387422561646e-01" nType="-99"/>
          <Node pos="r" depth="2" NCoef="0" IVar="-1" Cut="0.0000000000000000e+00" cType="1" res="2.8747867327183485e-04" rms="4.8250001668930054e-01" purity="6.2939333915710449e-01" nType="-99"/>
        </Node>
        <Node pos="r" depth="1" NCoef="0" IVar="15" Cut="7.6162487268447876e-01" cType="1" res="-2.1906040608882904e-01" rms="4.3019786477088928e-01" purity="2.4478220939636230e-01" nType="0">
          <Node pos="l" depth="2" NCoef="0" IVar="-1" Cut="0.0000000000000000e+00" cType="1" res="-2.3246444761753082e-03" rms="4.8800796270370483e-01" purity="3.9128667116165161e-01" nType="-99"/>
          <Node pos="r" depth="2" NCoef="0" IVar="-1" Cut="0.0000000000000000e+00" cType="1" res="-1.3191157486289740e-03" rms="4.1024628281593323e-01" purity="2.1395637094974518e-01" nType="-99"/>
        </Node>
      </Node>
    </BinaryTree>
    <BinaryTree type="DecisionTree" boostWeight="1.0000000000000000e+00" itree="33">
      <Node pos="s" depth="0" NCoef="0" IVar="5" Cut="1.1904761791229248e+00" cType="1" res="-1.1820647865533829e-02" rms="4.9528965353965759e-01" purity="4.8812302947044373e-01" nType="0">
        <Node pos="l" depth="1" NCoef="0" IVar="14" Cut="2.1629817485809326e+00" cType="1" res="3.0936129391193390e-02" rms="4.9708905816078186e-01" purity="5.3870296478271484e-01" nType="0">
          <Node pos="l" depth="2" NCoef="0" IVar="-1" Cut="0.0000000000000000e+00" cType="1" res="1.0786200873553753e-03" rms="4.9268510937690735e-01" purity="5.7985651493072510e-01" nType="-99"/>
          <Node pos="r" depth="2" NCoef="0" IVar="-1" Cut="0.0000000000000000e+00" cType="1" res="-1.4950384502299130e-04" rms="4.6987926959991455e-01" purity="3.3336740732192993e-01" nType="-99"/>
        </Node>
        <Node pos="r" depth="1" NCoef="0" IVar="9" Cut="1.0476191043853760e+00" cType="1" res="-2.1308052539825439e-01" rms="4.3335396051406860e-01" purity="2.5003904104232788e-01" nType="0">
          <Node pos="l" depth="2" NCoef="0" IVar="-1" Cut="0.0000000000000000e+00" cType="1" res="-1.8902234733104706e-03" rms="4.5579639077186584e-01" purity="2.9455575346946716e-01" nType="-99"/>
          <Node pos="r" depth="2" NCoef="0" IVar="-1" Cut="0.0000000000000000e+00" cType="1" res="-1.0877525201067328e-03" rms="3.3325129747390747e-01" purity="1.2705887854099274e-01" nType="-99"/>
        </Node>
      </Node>
    </BinaryTree>
    <BinaryTree type="DecisionTree" boostWeight="1.0000000000000000e+00" itree="34">
      <Node pos="s" depth="0" NCoef="0" IVar="5" Cut="1.1904761791229248e+00" cType="1" res="-1.4596442691981792e-02" rms="4.9534258246421814e-01" purity="4.8584142327308655e-01" nType="0">
        <Node pos="l" depth="1" NCoef="0" IVar="15" Cut="2.3229203224182129e+00" cType="1" res="2.5374924764037132e-02" rms="4.9754205346107483e-01" purity="5.3366714715957642e-01" nType="0">
          <Node pos="l" depth="2" NCoef="0" IVar="-1" Cut="0.0000000000000000e+00" cType="1" res="4.4222839642316103e-04" rms="4.9551910161972046e-01" purity="5.5908632278442383e-01" nType="-99"/>
          <Node pos="r" depth="2" NCoef="0" IVar="-1" Cut="0.0000000000000000e+00" cType="1" res="-6.7528465297073126e-04" rms="4.5420300960540771e-01" purity="2.9183018207550049e-01" nType="-99"/>
        </Node>
        <Node pos="r" depth="1" NCoef="0" IVar="9" Cut="9.5238097012042999e-02" cType="1" res="-2.0956574380397797e-01" rms="4.3463313579559326e-01" purity="2.5256088376045227e-01" nType="0">
          <Node pos="l" depth="2" NCoef="0" IVar="-1" Cut="0.0000000000000000e+00" cType="1" res="-4.3392289080657065e-04" rms="4.8450762033462524e-01" purity="3.7603113055229187e-01" nType="-99"/>
          <Node pos="r" depth="2" NCoef="0" IVar="-1" Cut="0.0000000000000000e+00" cType="1" res="-2.7253092266619205e-03" rms="4.0719002485275269e-01" purity="2.0933894813060760e-01" nType="-99"/>
        </Node>
      </Node>
    </BinaryTree>
    <BinaryTree type="DecisionTree" boostWeight="1.0000000000000000e+00" itree="35">
      <Node pos="s" depth="0" NCoef="0" IVar="5" Cut="1.1904761791229248e+00" cType="1" res="4.2627123184502125e-03" rms="4.9489942193031311e-01" purity="5.0440150499343872e-01" nType="0">
        <Node pos="l" depth="1" NCoef="0" IVar="15" Cut="1.0315066576004028e+00" cType="1" res="5.0800859928131104e-02" rms="4.9510562419891357e-01" purity="5.5939513444900513e-01" nType="0">
          <Node pos="l" depth="2" NCoef="0" IVar="-1" Cut="0.0000000000000000e+00" cType="1" res="1.0363311739638448e-03" rms="4.6766999363899231e-01" purity="6.7640841007232666e-01" nType="-99"/>
          <Node pos="r" depth="2" NCoef="0" IVar="-1" Cut="0.0000000000000000e+00" cType="1" res="-1.6818708900245838e-05" rms="4.9956384301185608e-01" purity="4.9522435665130615e-01" nType="-99"/>
        </Node>
        <Node pos="r" depth="1" NCoef="0" IVar="9" Cut="9.5238097012042999e-02" cType="1" res="-2.1081182360649109e-01" rms="4.3326193094253540e-01" purity="2.5025045871734619e-01" nType="0">
          <Node pos="l" depth="2" NCoef="0" IVar="-1" Cut="0.0000000000000000e+00" cType="1" res="-1.1575802927836776e-03" rms="4.7753763198852539e-01" purity="3.5140582919120789e-01" nType="-99"/>
          <Node pos="r" depth="2" NCoef="0" IVar="-1" Cut="0.0000000000000000e+00" cType="1" res="-2.8094779700040817e-03" rms="4.0979915857315063e-01" purity="2.1300104260444641e-01" nType="-99"/>
        </Node>
      </Node>
    </BinaryTree>
    <BinaryTree type="DecisionTree" boostWeight="1.0000000000000000e+00" itree="36">
      <Node pos="s" depth="0" NCoef="0" IVar="5" Cut="1.2380952835083008e+00" cType="1" res="-4.0758200921118259e-03" rms="4.9498671293258667e-01" purity="4.9607568979263306e-01" nType="0">
        <Node pos="l" depth="1" NCoef="0" IVar="15" Cut="1.5341583490371704e+00" cType="1" res="3.8562145084142685e-02" rms="4.9631991982460022e-01" purity="5.4711854457855225e-01" nType="0">
          <Node pos="l" depth="2" NCoef="0" IVar="-1" Cut="0.0000000000000000e+00" cType="1" res="1.2955543352290988e-03" rms="4.8687568306922913e-01" purity="6.1127394437789917e-01" nType="-99"/>
          <Node pos="r" depth="2" NCoef="0" IVar="-1" Cut="0.0000000000000000e+00" cType="1" res="-3.0900683486834168e-04" rms="4.9485519528388977e-01" purity="4.3126779794692993e-01" nType="-99"/>
        </Node>
        <Node pos="r" depth="1" NCoef="0" IVar="15" Cut="1.8773601055145264e+00" cType="1" res="-2.0838700234889984e-01" rms="4.3384847044944763e-01" purity="2.5149011611938477e-01" nType="0">
          <Node pos="l" depth="2" NCoef="0" IVar="-1" Cut="0.0000000000000000e+00" cType="1" res="-2.2066361270844936e-03" rms="4.5108526945114136e-01" purity="2.8467544913291931e-01" nType="-99"/>
          <Node pos="r" depth="2" NCoef="0" IVar="-1" Cut="0.0000000000000000e+00" cType="1" res="-1.2311496539041400e-03" rms="3.4604185819625854e-01" purity="1.3889753818511963e-01" nType="-99"/>
        </Node>
      </Node>
    </BinaryTree>
    <BinaryTree type="DecisionTree" boostWeight="1.0000000000000000e+00" itree="37">
      <Node pos="s" depth="0" NCoef="0" IVar="17" Cut="3.0971057415008545e+00" cType="1" res="2.0719697698950768e-02" rms="4.9427714943885803e-01" purity="5.2120906114578247e-01" nType="0">
        <Node pos="l" depth="1" NCoef="0" IVar="5" Cut="1.1904761791229248e+00" cType="1" res="-1.0248851962387562e-02" rms="4.9473977088928223e-01" purity="4.8947393894195557e-01" nType="0">
          <Node pos="l" depth="2" NCoef="0" IVar="-1" Cut="0.0000000000000000e+00" cType="1" res="2.9615752282552421e-04" rms="4.9676027894020081e-01" purity="5.4212188720703125e-01" nType="-99"/>
          <Node pos="r" depth="2" NCoef="0" IVar="-1" Cut="0.0000000000000000e+00" cType="1" res="-3.1857006251811981e-03" rms="4.3662345409393311e-01" purity="2.5637283921241760e-01" nType="-99"/>
        </Node>
        <Node pos="r" depth="1" NCoef="0" IVar="17" Cut="3.2155442237854004e+00" cType="1" res="6.9783105573151261e-05" rms="-nan" purity="1.0751208066940308e+00" nType="-99"/>
      </Node>
    </BinaryTree>
    <BinaryTree type="DecisionTree" boostWeight="1.0000000000000000e+00" itree="38">
      <Node pos="s" depth="0" NCoef="0" IVar="5" Cut="1.1904761791229248e+00" cType="1" res="-1.5098338946700096e-02" rms="4.9470782279968262e-01" purity="4.8485839366912842e-01" nType="0">
        <Node pos="l" depth="1" NCoef="0" IVar="15" Cut="1.5037434101104736e+00" cType="1" res="2.5888729840517044e-02" rms="4.9730744957923889e-01" purity="5.3498631715774536e-01" nType="0">
          <Node pos="l" depth="2" NCoef="0" IVar="-1" Cut="0.0000000000000000e+00" cType="1" res="1.0535945184528828e-03" rms="4.9032971262931824e-01" purity="5.9456151723861694e-01" nType="-99"/>
          <Node pos="r" depth="2" NCoef="0" IVar="-1" Cut="0.0000000000000000e+00" cType="1" res="-4.7377380542457104e-04" rms="4.9457496404647827e-01" purity="4.2916953563690186e-01" nType="-99"/>
        </Node>
        <Node pos="r" depth="1" NCoef="0" IVar="9" Cut="1.0476191043853760e+00" cType="1" res="-2.0546089112758636e-01" rms="4.3441697955131531e-01" purity="2.5204166769981384e-01" nType="0">
          <Node pos="l" depth="2" NCoef="0" IVar="-1" Cut="0.0000000000000000e+00" cType="1" res="-2.4063468445092440e-03" rms="4.5453253388404846e-01" purity="2.9194828867912292e-01" nType="-99"/>
          <Node pos="r" depth="2" NCoef="0" IVar="-1" Cut="0.0000000000000000e+00" cType="1" res="-1.4753186842426658e-03" rms="3.4312215447425842e-01" purity="1.3606543838977814e-01" nType="-99"/>
        </Node>
      </Node>
    </BinaryTree>
    <BinaryTree type="DecisionTree" boostWeight="1.0000000000000000e+00" itree="39">
      <Node pos="s" depth="0" NCoef="0" IVar="5" Cut="1.1904761791229248e+00" cType="1" res="2.6339367032051086e-03" rms="4.9492856860160828e-01" purity="5.0280857086181641e-01" nType="0">
        <Node pos="l" depth="1" NCoef="0" IVar="15" Cut="1.5035234689712524e+00" cType="1" res="4.1714470833539963e-02" rms="4.9588382244110107e-01" purity="5.5119442939758301e-01" nType="0">
          <Node pos="l" depth="2" NCoef="0" IVar="-1" Cut="0.0000000000000000e+00" cType="1" res="1.5648633707314730e-03" rms="4.8742809891700745e-01" purity="6.0832375288009644e-01" nType="-99"/>
          <Node pos="r" depth="2" NCoef="0" IVar="-1" Cut="0.0000000000000000e+00" cType="1" res="-1.0411032417323440e-04" rms="4.9693289399147034e-01" purity="4.4751617312431335e-01" nType="-99"/>
        </Node>
        <Node pos="r" depth="1" NCoef="0" IVar="15" Cut="7.6333600282669067e-01" cType="1" res="-1.8178005516529083e-01" rms="4.4639959931373596e-01" purity="2.7448448538780212e-01" nType="0">
          <Node pos="l" depth="2" NCoef="0" IVar="-1" Cut="0.0000000000000000e+00" cType="1" res="-2.1701876539736986e-03" rms="4.8534083366394043e-01" purity="3.8020360469818115e-01" nType="-99"/>
          <Node pos="r" depth="2" NCoef="0" IVar="-1" Cut="0.0000000000000000e+00" cType="1" res="-2.1015724632889032e-03" rms="4.3227759003639221e-01" purity="2.4862313270568848e-01" nType="-99"/>
        </Node>
      </Node>
    </BinaryTree>
    <BinaryTree type="DecisionTree" boostWeight="1.0000000000000000e+00" itree="40">
      <Node pos="s" depth="0" NCoef="0" IVar="5" Cut="1.1904761791229248e+00" cType="1" res="-8.0270115286111832e-03" rms="4.9522638320922852e-01" purity="4.9282553791999817e-01" nType="0">
        <Node pos="l" depth="1" NCoef="0" IVar="15" Cut="2.3229203224182129e+00" cType="1" res="2.5061350315809250e-02" rms="4.9726215004920959e-01" purity="5.3503191471099854e-01" nType="0">
          <Node pos="l" depth="2" NCoef="0" IVar="-1" Cut="0.0000000000000000e+00" cType="1" res="4.6793979709036648e-04" rms="4.9505093693733215e-01" purity="5.6271374225616455e-01" nType="-99"/>
          <Node pos="r" depth="2" NCoef="0" IVar="-1" Cut="0.0000000000000000e+00" cType="1" res="-1.0896616004174575e-04" rms="4.5094829797744751e-01" purity="2.8499633073806763e-01" nType="-99"/>
        </Node>
        <Node pos="r" depth="1" NCoef="0" IVar="22" Cut="2.2440311908721924e+00" cType="1" res="-1.7446754872798920e-01" rms="4.4930619001388550e-01" purity="2.8051978349685669e-01" nType="0">
          <Node pos="l" depth="2" NCoef="0" IVar="-1" Cut="0.0000000000000000e+00" cType="1" res="-2.0193480886518955e-03" rms="4.2677807807922363e-01" purity="2.3964156210422516e-01" nType="-99"/>
          <Node pos="r" depth="2" NCoef="0" IVar="-1" Cut="0.0000000000000000e+00" cType="1" res="-1.6840503085404634e-03" rms="4.7774228453636169e-01" purity="3.5155925154685974e-01" nType="-99"/>
        </Node>
      </Node>
    </BinaryTree>
    <BinaryTree type="DecisionTree" boostWeight="1.0000000000000000e+00" itree="41">
      <Node pos="s" depth="0" NCoef="0" IVar="5" Cut="1.1904761791229248e+00" cType="1" res="8.8205244392156601e-03" rms="4.9426081776618958e-01" purity="5.0925284624099731e-01" nType="0">
        <Node pos="l" depth="1" NCoef="0" IVar="18" Cut="2.3935971260070801e+00" cType="1" res="5.3547661751508713e-02" rms="4.9457606673240662e-01" purity="5.6407201290130615e-01" nType="0">
          <Node pos="l" depth="2" NCoef="0" IVar="-1" Cut="0.0000000000000000e+00" cType="1" res="8.6574778833892196e-05" rms="4.9746900796890259e-01" purity="5.2211838960647583e-01" nType="-99"/>
          <Node pos="r" depth="2" NCoef="0" IVar="-1" Cut="0.0000000000000000e+00" cType="1" res="1.1254673154326156e-04" rms="4.5599970221519470e-01" purity="7.1027034521102905e-01" nType="-99"/>
        </Node>
        <Node pos="r" depth="1" NCoef="0" IVar="22" Cut="2.3936486244201660e+00" cType="1" res="-1.9516338407993317e-01" rms="4.3833658099174500e-01" purity="2.5924310088157654e-01" nType="0">
          <Node pos="l" depth="2" NCoef="0" IVar="-1" Cut="0.0000000000000000e+00" cType="1" res="-1.6666605370119214e-03" rms="4.1602385044097900e-01" purity="2.2260712087154388e-01" nType="-99"/>
          <Node pos="r" depth="2" NCoef="0" IVar="-1" Cut="0.0000000000000000e+00" cType="1" res="-1.2474444229155779e-03" rms="4.7435358166694641e-01" purity="3.4110030531883240e-01" nType="-99"/>
        </Node>
      </Node>
    </BinaryTree>
    <BinaryTree type="DecisionTree" boostWeight="1.0000000000000000e+00" itree="42">
      <Node pos="s" depth="0" NCoef="0" IVar="5" Cut="1.1904761791229248e+00" cType="1" res="-6.2249251641333103e-03" rms="4.9451112747192383e-01" purity="4.9416133761405945e-01" nType="0">
        <Node pos="l" depth="1" NCoef="0" IVar="15" Cut="1.0938251018524170e+00" cType="1" res="3.3887375146150589e-02" rms="4.9654743075370789e-01" purity="5.4410088062286377e-01" nType="0">
          <Node pos="l" depth="2" NCoef="0" IVar="-1" Cut="0.0000000000000000e+00" cType="1" res="1.0916258906945586e-03" rms="4.8048162460327148e-01" purity="6.3759839534759521e-01" nType="-99"/>
          <Node pos="r" depth="2" NCoef="0" IVar="-1" Cut="0.0000000000000000e+00" cType="1" res="-6.5277054090984166e-05" rms="4.9911582469940186e-01" purity="4.8204034566879272e-01" nType="-99"/>
        </Node>
        <Node pos="r" depth="1" NCoef="0" IVar="9" Cut="9.5238097012042999e-02" cType="1" res="-1.9718855619430542e-01" rms="4.3681415915489197e-01" purity="2.5641286373138428e-01" nType="0">
          <Node pos="l" depth="2" NCoef="0" IVar="-1" Cut="0.0000000000000000e+00" cType="1" res="-7.0162862539291382e-04" rms="4.7659349441528320e-01" purity="3.4821847081184387e-01" nType="-99"/>
          <Node pos="r" depth="2" NCoef="0" IVar="-1" Cut="0.0000000000000000e+00" cType="1" res="-2.3667486384510994e-03" rms="4.1565665602684021e-01" purity="2.2141690552234650e-01" nType="-99"/>
        </Node>
      </Node>
    </BinaryTree>
    <BinaryTree type="DecisionTree" boostWeight="1.0000000000000000e+00" itree="43">
      <Node pos="s" depth="0" NCoef="0" IVar="5" Cut="1.1904761791229248e+00" cType="1" res="-1.6467601060867310e-02" rms="4.9474868178367615e-01" purity="4.8438882827758789e-01" nType="0">
        <Node pos="l" depth="1" NCoef="0" IVar="14" Cut="1.6950625181198120e+00" cType="1" res="1.5127872116863728e-02" rms="4.9757447838783264e-01" purity="5.2523624897003174e-01" nType="0">
          <Node pos="l" depth="2" NCoef="0" IVar="-1" Cut="0.0000000000000000e+00" cType="1" res="9.1372267343103886e-04" rms="4.9192824959754944e-01" purity="5.8237195014953613e-01" nType="-99"/>
          <Node pos="r" depth="2" NCoef="0" IVar="-1" Cut="0.0000000000000000e+00" cType="1" res="-3.2553044729866087e-04" rms="4.8960646986961365e-01" purity="4.0677022933959961e-01" nType="-99"/>
        </Node>
        <Node pos="r" depth="1" NCoef="0" IVar="9" Cut="1.0476191043853760e+00" cType="1" res="-1.8134865164756775e-01" rms="4.4468840956687927e-01" purity="2.7122658491134644e-01" nType="0">
          <Node pos="l" depth="2" NCoef="0" IVar="-1" Cut="0.0000000000000000e+00" cType="1" res="-2.2333008237183094e-03" rms="4.5973217487335205e-01" purity="3.0386447906494141e-01" nType="-99"/>
          <Node pos="r" depth="2" NCoef="0" IVar="-1" Cut="0.0000000000000000e+00" cType="1" res="-1.9309798954054713e-03" rms="3.6493888497352600e-01" purity="1.5801937878131866e-01" nType="-99"/>
        </Node>
      </Node>
    </BinaryTree>
    <BinaryTree type="DecisionTree" boostWeight="1.0000000000000000e+00" itree="44">
      <Node pos="s" depth="0" NCoef="0" IVar="5" Cut="1.1904761791229248e+00" cType="1" res="-1.3234732672572136e-02" rms="4.9396118521690369e-01" purity="4.8696672916412354e-01" nType="0">
        <Node pos="l" depth="1" NCoef="0" IVar="15" Cut="1.5035234689712524e+00" cType="1" res="2.6056068018078804e-02" rms="4.9681282043457031e-01" purity="5.3655707836151123e-01" nType="0">
          <Node pos="l" depth="2" NCoef="0" IVar="-1" Cut="0.0000000000000000e+00" cType="1" res="1.2718838406726718e-03" rms="4.8832896351814270e-01" purity="6.0418081283569336e-01" nType="-99"/>
          <Node pos="r" depth="2" NCoef="0" IVar="-1" Cut="0.0000000000000000e+00" cType="1" res="-4.5460660476237535e-04" rms="4.9299630522727966e-01" purity="4.1965386271476746e-01" nType="-99"/>
        </Node>
        <Node pos="r" depth="1" NCoef="0" IVar="15" Cut="7.2760987281799316e-01" cType="1" res="-1.9909054040908813e-01" rms="4.3449762463569641e-01" purity="2.5239130854606628e-01" nType="0">
          <Node pos="l" depth="2" NCoef="0" IVar="-1" Cut="0.0000000000000000e+00" cType="1" res="-2.0089414902031422e-03" rms="4.8277571797370911e-01" purity="3.7031596899032593e-01" nType="-99"/>
          <Node pos="r" depth="2" NCoef="0" IVar="-1" Cut="0.0000000000000000e+00" cType="1" res="-2.2518918849527836e-03" rms="4.1972795128822327e-01" purity="2.2822283208370209e-01" nType="-99"/>
        </Node>
      </Node>
    </BinaryTree>
    <BinaryTree type="DecisionTree" boostWeight="1.0000000000000000e+00" itree="45">
      <Node pos="s" depth="0" NCoef="0" IVar="5" Cut="1.1904761791229248e+00" cType="1" res="9.0412199497222900e-03" rms="4.9372354149818420e-01" purity="5.0937473773956299e-01" nType="0">
        <Node pos="l" depth="1" NCoef="0" IVar="14" Cut="2.7173650264739990e+00" cType="1" res="5.2683565765619278e-02" rms="4.9438643455505371e-01" purity="5.6380081176757812e-01" nType="0">
          <Node pos="l" depth="2" NCoef="0" IVar="-1" Cut="0.0000000000000000e+00" cType="1" res="1.9117080955766141e-04" rms="4.9222695827484131e-01" purity="5.8095622062683105e-01" nType="-99"/>
          <Node pos="r" depth="2" NCoef="0" IVar="-1" Cut="0.0000000000000000e+00" cType="1" res="-7.3592219268903136e-04" rms="4.3931296467781067e-01" purity="2.6553618907928467e-01" nType="-99"/>
        </Node>
        <Node pos="r" depth="1" NCoef="0" IVar="22" Cut="2.2440311908721924e+00" cType="1" res="-1.9352602958679199e-01" rms="4.3686234951019287e-01" purity="2.5675481557846069e-01" nType="0">
          <Node pos="l" depth="2" NCoef="0" IVar="-1" Cut="0.0000000000000000e+00" cType="1" res="-2.2338347043842077e-03" rms="4.0580999851226807e-01" purity="2.0798659324645996e-01" nType="-99"/>
          <Node pos="r" depth="2" NCoef="0" IVar="-1" Cut="0.0000000000000000e+00" cType="1" res="-1.4077357482165098e-03" rms="4.7555172443389893e-01" purity="3.4510383009910583e-01" nType="-99"/>
        </Node>
      </Node>
    </BinaryTree>
    <BinaryTree type="DecisionTree" boostWeight="1.0000000000000000e+00" itree="46">
      <Node pos="s" depth="0" NCoef="0" IVar="5" Cut="1.1904761791229248e+00" cType="1" res="6.7980363965034485e-03" rms="4.9341741204261780e-01" purity="5.0683081150054932e-01" nType="0">
        <Node pos="l" depth="1" NCoef="0" IVar="3" Cut="-1.5481576919555664e+00" cType="1" res="5.7032447308301926e-02" rms="4.9418762326240540e-01" purity="5.6875681877136230e-01" nType="0">
          <Node pos="l" depth="2" NCoef="0" IVar="-1" Cut="0.0000000000000000e+00" cType="1" res="4.6287092118291184e-05" rms="-nan" purity="1.0844578742980957e+00" nType="-99"/>
          <Node pos="r" depth="2" NCoef="0" IVar="-1" Cut="0.0000000000000000e+00" cType="1" res="3.1754031078889966e-04" rms="4.9624305963516235e-01" purity="5.4510223865509033e-01" nType="-99"/>
        </Node>
        <Node pos="r" depth="1" NCoef="0" IVar="9" Cut="1.0476191043853760e+00" cType="1" res="-2.1012587845325470e-01" rms="4.2687579989433289e-01" purity="2.3941965401172638e-01" nType="0">
          <Node pos="l" depth="2" NCoef="0" IVar="-1" Cut="0.0000000000000000e+00" cType="1" res="-1.9439553143456578e-03" rms="4.4481134414672852e-01" purity="2.7192178368568420e-01" nType="-99"/>
          <Node pos="r" depth="2" NCoef="0" IVar="-1" Cut="0.0000000000000000e+00" cType="1" res="-1.2225104728713632e-03" rms="3.4849703311920166e-01" purity="1.4132985472679138e-01" nType="-99"/>
        </Node>
      </Node>
    </BinaryTree>
    <BinaryTree type="DecisionTree" boostWeight="1.0000000000000000e+00" itree="47">
      <Node pos="s" depth="0" NCoef="0" IVar="5" Cut="1.1904761791229248e+00" cType="1" res="-1.0372950695455074e-02" rms="4.9379217624664307e-01" purity="4.8989441990852356e-01" nType="0">
        <Node pos="l" depth="1" NCoef="0" IVar="14" Cut="1.9023487567901611e+00" cType="1" res="2.9224174097180367e-02" rms="4.9664130806922913e-01" purity="5.4032212495803833e-01" nType="0">
          <Node pos="l" depth="2" NCoef="0" IVar="-1" Cut="0.0000000000000000e+00" cType="1" res="8.5345382103696465e-04" rms="4.9095472693443298e-01" purity="5.8867299556732178e-01" nType="-99"/>
          <Node pos="r" depth="2" NCoef="0" IVar="-1" Cut="0.0000000000000000e+00" cType="1" res="-1.3855495490133762e-04" rms="4.8635718226432800e-01" purity="3.9041420817375183e-01" nType="-99"/>
        </Node>
        <Node pos="r" depth="1" NCoef="0" IVar="9" Cut="9.5238097012042999e-02" cType="1" res="-1.9925980269908905e-01" rms="4.3268013000488281e-01" purity="2.4934303760528564e-01" nType="0">
          <Node pos="l" depth="2" NCoef="0" IVar="-1" Cut="0.0000000000000000e+00" cType="1" res="-1.3933581067249179e-03" rms="4.8060405254364014e-01" purity="3.6179155111312866e-01" nType="-99"/>
          <Node pos="r" depth="2" NCoef="0" IVar="-1" Cut="0.0000000000000000e+00" cType="1" res="-1.8188781104981899e-03" rms="4.0707594156265259e-01" purity="2.0905064046382904e-01" nType="-99"/>
        </Node>
      </Node>
    </BinaryTree>
    <BinaryTree type="DecisionTree" boostWeight="1.0000000000000000e+00" itree="48">
      <Node pos="s" depth="0" NCoef="0" IVar="5" Cut="1.1904761791229248e+00" cType="1" res="1.8074711551889777e-03" rms="4.9367329478263855e-01" purity="5.0208270549774170e-01" nType="0">
        <Node pos="l" depth="1" NCoef="0" IVar="14" Cut="1.5347104072570801e+00" cType="1" res="4.2188655585050583e-02" rms="4.9534910917282104e-01" purity="5.5352997779846191e-01" nType="0">
          <Node pos="l" depth="2" NCoef="0" IVar="-1" Cut="0.0000000000000000e+00" cType="1" res="1.7712214030325413e-03" rms="4.8466539382934570e-01" purity="6.1873960494995117e-01" nType="-99"/>
          <Node pos="r" depth="2" NCoef="0" IVar="-1" Cut="0.0000000000000000e+00" cType="1" res="-1.0648670286173001e-04" rms="4.9618619680404663e-01" purity="4.5337885618209839e-01" nType="-99"/>
        </Node>
        <Node pos="r" depth="1" NCoef="0" IVar="9" Cut="9.5238097012042999e-02" cType="1" res="-1.9008989632129669e-01" rms="4.3733668327331543e-01" purity="2.5759753584861755e-01" nType="0">
          <Node pos="l" depth="2" NCoef="0" IVar="-1" Cut="0.0000000000000000e+00" cType="1" res="-5.8344344142824411e-04" rms="4.7926372289657593e-01" purity="3.5722118616104126e-01" nType="-99"/>
          <Node pos="r" depth="2" NCoef="0" IVar="-1" Cut="0.0000000000000000e+00" cType="1" res="-2.0001472439616919e-03" rms="4.1484075784683228e-01" purity="2.2028306126594543e-01" nType="-99"/>
        </Node>
      </Node>
    </BinaryTree>
    <BinaryTree type="DecisionTree" boostWeight="1.0000000000000000e+00" itree="49">
      <Node pos="s" depth="0" NCoef="0" IVar="5" Cut="1.2380952835083008e+00" cType="1" res="-2.8688537422567606e-03" rms="4.9386632442474365e-01" purity="4.9794831871986389e-01" nType="0">
        <Node pos="l" depth="1" NCoef="0" IVar="15" Cut="1.0806359052658081e+00" cType="1" res="3.3341728150844574e-02" rms="4.9600347876548767e-01" purity="5.4521673917770386e-01" nType="0">
          <Node pos="l" depth="2" NCoef="0" IVar="-1" Cut="0.0000000000000000e+00" cType="1" res="1.4278800226747990e-03" rms="4.7341203689575195e-01" purity="6.6028231382369995e-01" nType="-99"/>
          <Node pos="r" depth="2" NCoef="0" IVar="-1" Cut="0.0000000000000000e+00" cType="1" res="-2.3689982481300831e-04" rms="4.9859264492988586e-01" purity="4.7528037428855896e-01" nType="-99"/>
        </Node>
        <Node pos="r" depth="1" NCoef="0" IVar="9" Cut="1.0476191043853760e+00" cType="1" res="-1.7907394468784332e-01" rms="4.4292318820953369e-01" purity="2.6793459057807922e-01" nType="0">
          <Node pos="l" depth="2" NCoef="0" IVar="-1" Cut="0.0000000000000000e+00" cType="1" res="-1.6059631016105413e-03" rms="4.5407229661941528e-01" purity="2.9108208417892456e-01" nType="-99"/>
          <Node pos="r" depth="2" NCoef="0" IVar="-1" Cut="0.0000000000000000e+00" cType="1" res="-8.9057569857686758e-04" rms="3.8749656081199646e-01" purity="1.8379229307174683e-01" nType="-99"/>
        </Node>
      </Node>
    </BinaryTree>
    <BinaryTree type="DecisionTree" boostWeight="1.0000000000000000e+00" itree="50">
      <Node pos="s" depth="0" NCoef="0" IVar="5" Cut="1.2380952835083008e+00" cType="1" res="-1.5746613964438438e-02" rms="4.9283096194267273e-01" purity="4.8453488945960999e-01" nType="0">
        <Node pos="l" depth="1" NCoef="0" IVar="15" Cut="1.1225768327713013e+00" cType="1" res="2.4969080463051796e-02" rms="4.9637499451637268e-01" purity="5.3676849603652954e-01" nType="0">
          <Node pos="l" depth="2" NCoef="0" IVar="-1" Cut="0.0000000000000000e+00" cType="1" res="8.5840251995250583e-04" rms="4.7320705652236938e-01" purity="6.6058737039566040e-01" nType="-99"/>
          <Node pos="r" depth="2" NCoef="0" IVar="-1" Cut="0.0000000000000000e+00" cType="1" res="-3.4043210325762630e-04" rms="4.9717175960540771e-01" purity="4.5569261908531189e-01" nType="-99"/>
        </Node>
        <Node pos="r" depth="1" NCoef="0" IVar="9" Cut="9.5238097012042999e-02" cType="1" res="-2.0666739344596863e-01" rms="4.2687135934829712e-01" purity="2.3960502445697784e-01" nType="0">
          <Node pos="l" depth="2" NCoef="0" IVar="-1" Cut="0.0000000000000000e+00" cType="1" res="-1.0285262251272798e-03" rms="4.6995663642883301e-01" purity="3.2884559035301208e-01" nType="-99"/>
          <Node pos="r" depth="2" NCoef="0" IVar="-1" Cut="0.0000000000000000e+00" cType="1" res="-1.8620810005813837e-03" rms="4.0493977069854736e-01" purity="2.0617711544036865e-01" nType="-99"/>
        </Node>
      </Node>
    </BinaryTree>
    <BinaryTree type="DecisionTree" boostWeight="1.0000000000000000e+00" itree="51">
      <Node pos="s" depth="0" NCoef="0" IVar="5" Cut="1.1904761791229248e+00" cType="1" res="-4.7966660931706429e-03" rms="4.9323675036430359e-01" purity="4.9578574299812317e-01" nType="0">
        <Node pos="l" depth="1" NCoef="0" IVar="15" Cut="1.7083727121353149e+00" cType="1" res="3.6264538764953613e-02" rms="4.9575629830360413e-01" purity="5.4852694272994995e-01" nType="0">
          <Node pos="l" depth="2" NCoef="0" IVar="-1" Cut="0.0000000000000000e+00" cType="1" res="9.6274807583540678e-04" rms="4.8989745974540710e-01" purity="5.9429734945297241e-01" nType="-99"/>
          <Node pos="r" depth="2" NCoef="0" IVar="-1" Cut="0.0000000000000000e+00" cType="1" res="-7.0029840571805835e-05" rms="4.9336221814155579e-01" purity="4.2122077941894531e-01" nType="-99"/>
        </Node>
        <Node pos="r" depth="1" NCoef="0" IVar="9" Cut="1.0476191043853760e+00" cType="1" res="-1.9829115271568298e-01" rms="4.3145689368247986e-01" purity="2.4725104868412018e-01" nType="0">
          <Node pos="l" depth="2" NCoef="0" IVar="-1" Cut="0.0000000000000000e+00" cType="1" res="-3.4773000515997410e-03" rms="4.4488301873207092e-01" purity="2.7219152450561523e-01" nType="-99"/>
          <Node pos="r" depth="2" NCoef="0" IVar="-1" Cut="0.0000000000000000e+00" cType="1" res="-1.5170304104685783e-03" rms="3.7043878436088562e-01" purity="1.6404797136783600e-01" nType="-99"/>
        </Node>
      </Node>
    </BinaryTree>
    <BinaryTree type="DecisionTree" boostWeight="1.0000000000000000e+00" itree="52">
      <Node pos="s" depth="0" NCoef="0" IVar="5" Cut="1.1904761791229248e+00" cType="1" res="5.3196582011878490e-03" rms="4.9356853961944580e-01" purity="5.0638991594314575e-01" nType="0">
        <Node pos="l" depth="1" NCoef="0" IVar="18" Cut="2.3936002254486084e+00" cType="1" res="4.6635534614324570e-02" rms="4.9523043632507324e-01" purity="5.5989438295364380e-01" nType="0">
          <Node pos="l" depth="2" NCoef="0" IVar="-1" Cut="0.0000000000000000e+00" cType="1" res="2.9620608984259889e-05" rms="4.9767798185348511e-01" purity="5.1584982872009277e-01" nType="-99"/>
          <Node pos="r" depth="2" NCoef="0" IVar="-1" Cut="0.0000000000000000e+00" cType="1" res="1.1177705891896039e-04" rms="4.5566734671592712e-01" purity="7.1391516923904419e-01" nType="-99"/>
        </Node>
        <Node pos="r" depth="1" NCoef="0" IVar="15" Cut="1.8807635307312012e+00" cType="1" res="-1.8802629411220551e-01" rms="4.3651917576789856e-01" purity="2.5600507855415344e-01" nType="0">
          <Node pos="l" depth="2" NCoef="0" IVar="-1" Cut="0.0000000000000000e+00" cType="1" res="-2.1430314518511295e-03" rms="4.5262140035629272e-01" purity="2.8780511021614075e-01" nType="-99"/>
          <Node pos="r" depth="2" NCoef="0" IVar="-1" Cut="0.0000000000000000e+00" cType="1" res="-1.6886867815628648e-03" rms="3.5048773884773254e-01" purity="1.4296804368495941e-01" nType="-99"/>
        </Node>
      </Node>
    </BinaryTree>
    <BinaryTree type="DecisionTree" boostWeight="1.0000000000000000e+00" itree="53">
      <Node pos="s" depth="0" NCoef="0" IVar="5" Cut="1.2380952835083008e+00" cType="1" res="3.9128349162638187e-03" rms="4.9337363243103027e-01" purity="5.0452321767807007e-01" nType="0">
        <Node pos="l" depth="1" NCoef="0" IVar="15" Cut="8.8897585868835449e-01" cType="1" res="4.4464770704507828e-02" rms="4.9517744779586792e-01" purity="5.5745011568069458e-01" nType="0">
          <Node pos="l" depth="2" NCoef="0" IVar="-1" Cut="0.0000000000000000e+00" cType="1" res="1.5329974703490734e-03" rms="4.6659067273139954e-01" purity="6.7950254678726196e-01" nType="-99"/>
          <Node pos="r" depth="2" NCoef="0" IVar="-1" Cut="0.0000000000000000e+00" cType="1" res="1.2885188880318310e-05" rms="4.9905896186828613e-01" purity="5.1470851898193359e-01" nType="-99"/>
        </Node>
        <Node pos="r" depth="1" NCoef="0" IVar="9" Cut="1.0476191043853760e+00" cType="1" res="-1.8414327502250671e-01" rms="4.3835738301277161e-01" purity="2.5907960534095764e-01" nType="0">
          <Node pos="l" depth="2" NCoef="0" IVar="-1" Cut="0.0000000000000000e+00" cType="1" res="-2.5298297405242920e-03" rms="4.5379739999771118e-01" purity="2.9031676054000854e-01" nType="-99"/>
          <Node pos="r" depth="2" NCoef="0" IVar="-1" Cut="0.0000000000000000e+00" cType="1" res="-1.0896926978603005e-03" rms="3.6329543590545654e-01" purity="1.5624289214611053e-01" nType="-99"/>
        </Node>
      </Node>
    </BinaryTree>
    <BinaryTree type="DecisionTree" boostWeight="1.0000000000000000e+00" itree="54">
      <Node pos="s" depth="0" NCoef="0" IVar="5" Cut="1.1904761791229248e+00" cType="1" res="1.9423124613240361e-03" rms="4.9289825558662415e-01" purity="5.0227940082550049e-01" nType="0">
        <Node pos="l" depth="1" NCoef="0" IVar="15" Cut="1.0938251018524170e+00" cType="1" res="4.1754014790058136e-02" rms="4.9492320418357849e-01" purity="5.5458515882492065e-01" nType="0">
          <Node pos="l" depth="2" NCoef="0" IVar="-1" Cut="0.0000000000000000e+00" cType="1" res="1.0205596918240190e-03" rms="4.7234836220741272e-01" purity="6.6309422254562378e-01" nType="-99"/>
          <Node pos="r" depth="2" NCoef="0" IVar="-1" Cut="0.0000000000000000e+00" cType="1" res="-6.8263521825429052e-05" rms="4.9901989102363586e-01" purity="4.8464068770408630e-01" nType="-99"/>
        </Node>
        <Node pos="r" depth="1" NCoef="0" IVar="9" Cut="1.0476191043853760e+00" cType="1" res="-1.8405565619468689e-01" rms="4.3772518634796143e-01" purity="2.5790971517562866e-01" nType="0">
          <Node pos="l" depth="2" NCoef="0" IVar="-1" Cut="0.0000000000000000e+00" cType="1" res="-1.6552810557186604e-03" rms="4.5520114898681641e-01" purity="2.9360219836235046e-01" nType="-99"/>
          <Node pos="r" depth="2" NCoef="0" IVar="-1" Cut="0.0000000000000000e+00" cType="1" res="-1.3538723578676581e-03" rms="3.5913354158401489e-01" purity="1.5194846689701080e-01" nType="-99"/>
        </Node>
      </Node>
    </BinaryTree>
    <BinaryTree type="DecisionTree" boostWeight="1.0000000000000000e+00" itree="55">
      <Node pos="s" depth="0" NCoef="0" IVar="5" Cut="1.2380952835083008e+00" cType="1" res="-8.6263203993439674e-03" rms="4.9297702312469482e-01" purity="4.9163711071014404e-01" nType="0">
        <Node pos="l" depth="1" NCoef="0" IVar="15" Cut="1.2378605604171753e+00" cType="1" res="2.7976365759968758e-02" rms="4.9610984325408936e-01" purity="5.4081088304519653e-01" nType="0">
          <Node pos="l" depth="2" NCoef="0" IVar="-1" Cut="0.0000000000000000e+00" cType="1" res="1.0048529366031289e-03" rms="4.8136404156684875e-01" purity="6.3285011053085327e-01" nType="-99"/>
          <Node pos="r" depth="2" NCoef="0" IVar="-1" Cut="0.0000000000000000e+00" cType="1" res="-3.4648997825570405e-04" rms="4.9728658795356750e-01" purity="4.5611220598220825e-01" nType="-99"/>
        </Node>
        <Node pos="r" depth="1" NCoef="0" IVar="9" Cut="9.5238097012042999e-02" cType="1" res="-1.8136109411716461e-01" rms="4.3845582008361816e-01" purity="2.5957724452018738e-01" nType="0">
          <Node pos="l" depth="2" NCoef="0" IVar="-1" Cut="0.0000000000000000e+00" cType="1" res="-1.3128144200891256e-03" rms="4.8026481270790100e-01" purity="3.6051899194717407e-01" nType="-99"/>
          <Node pos="r" depth="2" NCoef="0" IVar="-1" Cut="0.0000000000000000e+00" cType="1" res="-2.1198056638240814e-03" rms="4.1584080457687378e-01" purity="2.2165721654891968e-01" nType="-99"/>
        </Node>
      </Node>
    </BinaryTree>
    <BinaryTree type="DecisionTree" boostWeight="1.0000000000000000e+00" itree="56">
      <Node pos="s" depth="0" NCoef="0" IVar="5" Cut="1.2380952835083008e+00" cType="1" res="-1.5222025103867054e-02" rms="4.9266523122787476e-01" purity="4.8541572690010071e-01" nType="0">
        <Node pos="l" depth="1" NCoef="0" IVar="14" Cut="1.5347104072570801e+00" cType="1" res="2.3883232846856117e-02" rms="4.9667111039161682e-01" purity="5.3716593980789185e-01" nType="0">
          <Node pos="l" depth="2" NCoef="0" IVar="-1" Cut="0.0000000000000000e+00" cType="1" res="1.4021490933373570e-03" rms="4.8992079496383667e-01" purity="5.9442579746246338e-01" nType="-99"/>
          <Node pos="r" depth="2" NCoef="0" IVar="-1" Cut="0.0000000000000000e+00" cType="1" res="-1.2496639101300389e-04" rms="4.9504908919334412e-01" purity="4.4473588466644287e-01" nType="-99"/>
        </Node>
        <Node pos="r" depth="1" NCoef="0" IVar="22" Cut="2.2441129684448242e+00" cType="1" res="-2.0221534371376038e-01" rms="4.2601531744003296e-01" purity="2.3795655369758606e-01" nType="0">
          <Node pos="l" depth="2" NCoef="0" IVar="-1" Cut="0.0000000000000000e+00" cType="1" res="-1.9101242069154978e-03" rms="3.9297652244567871e-01" purity="1.9074329733848572e-01" nType="-99"/>
          <Node pos="r" depth="2" NCoef="0" IVar="-1" Cut="0.0000000000000000e+00" cType="1" res="-1.8224589293822646e-03" rms="4.7017794847488403e-01" purity="3.2876980304718018e-01" nType="-99"/>
        </Node>
      </Node>
    </BinaryTree>
    <BinaryTree type="DecisionTree" boostWeight="1.0000000000000000e+00" itree="57">
      <Node pos="s" depth="0" NCoef="0" IVar="17" Cut="3.1337654590606689e+00" cType="1" res="1.1718161404132843e-02" rms="4.9276870489120483e-01" purity="5.1250976324081421e-01" nType="0">
        <Node pos="l" depth="1" NCoef="0" IVar="5" Cut="1.2380952835083008e+00" cType="1" res="-1.0233219712972641e-02" rms="4.9298009276390076e-01" purity="4.8975694179534912e-01" nType="0">
          <Node pos="l" depth="2" NCoef="0" IVar="-1" Cut="0.0000000000000000e+00" cType="1" res="2.2659206297248602e-04" rms="4.9641475081443787e-01" purity="5.4008090496063232e-01" nType="-99"/>
          <Node pos="r" depth="2" NCoef="0" IVar="-1" Cut="0.0000000000000000e+00" cType="1" res="-1.6496806638315320e-03" rms="4.4237941503524780e-01" purity="2.6669859886169434e-01" nType="-99"/>
        </Node>
        <Node pos="r" depth="1" NCoef="0" IVar="11" Cut="8.2844535827636719e+01" cType="1" res="3.9017894864082336e-01" rms="2.9612195491790771e-01" purity="9.0478861331939697e-01" nType="0">
          <Node pos="l" depth="2" NCoef="0" IVar="-1" Cut="0.0000000000000000e+00" cType="1" res="6.5677551901899278e-05" rms="-nan" purity="1.3667533397674561e+00" nType="-99"/>
          <Node pos="r" depth="2" NCoef="0" IVar="-1" Cut="0.0000000000000000e+00" cType="1" res="-1.0801134339999408e-04" rms="4.9553674459457397e-01" purity="4.9521756172180176e-01" nType="-99"/>
        </Node>
      </Node>
    </BinaryTree>
    <BinaryTree type="DecisionTree" boostWeight="1.0000000000000000e+00" itree="58">
      <Node pos="s" depth="0" NCoef="0" IVar="5" Cut="1.1904761791229248e+00" cType="1" res="-1.3607810251414776e-02" rms="4.9255678057670593e-01" purity="4.8695969581604004e-01" nType="0">
        <Node pos="l" depth="1" NCoef="0" IVar="15" Cut="1.0938251018524170e+00" cType="1" res="2.3447787389159203e-02" rms="4.9643084406852722e-01" purity="5.3711044788360596e-01" nType="0">
          <Node pos="l" depth="2" NCoef="0" IVar="-1" Cut="0.0000000000000000e+00" cType="1" res="2.2655543871223927e-03" rms="4.7833740711212158e-01" purity="6.4449638128280640e-01" nType="-99"/>
          <Node pos="r" depth="2" NCoef="0" IVar="-1" Cut="0.0000000000000000e+00" cType="1" res="-1.0861577902687714e-04" rms="4.9818807840347290e-01" purity="4.6813687682151794e-01" nType="-99"/>
        </Node>
        <Node pos="r" depth="1" NCoef="0" IVar="9" Cut="9.5238097012042999e-02" cType="1" res="-1.8954987823963165e-01" rms="4.3237158656120300e-01" purity="2.4884140491485596e-01" nType="0">
          <Node pos="l" depth="2" NCoef="0" IVar="-1" Cut="0.0000000000000000e+00" cType="1" res="-9.7816321067512035e-04" rms="4.7892042994499207e-01" purity="3.5570713877677917e-01" nType="-99"/>
          <Node pos="r" depth="2" NCoef="0" IVar="-1" Cut="0.0000000000000000e+00" cType="1" res="-1.8407097086310387e-03" rms="4.0594142675399780e-01" purity="2.0739975571632385e-01" nType="-99"/>
        </Node>
      </Node>
    </BinaryTree>
    <BinaryTree type="DecisionTree" boostWeight="1.0000000000000000e+00" itree="59">
      <Node pos="s" depth="0" NCoef="0" IVar="5" Cut="1.1904761791229248e+00" cType="1" res="7.3353205807507038e-03" rms="4.9202740192413330e-01" purity="5.0792133808135986e-01" nType="0">
        <Node pos="l" depth="1" NCoef="0" IVar="15" Cut="1.0806359052658081e+00" cType="1" res="4.9455597996711731e-02" rms="4.9382576346397400e-01" purity="5.6380212306976318e-01" nType="0">
          <Node pos="l" depth="2" NCoef="0" IVar="-1" Cut="0.0000000000000000e+00" cType="1" res="1.4228291111066937e-03" rms="4.7059053182601929e-01" purity="6.6849821805953979e-01" nType="-99"/>
          <Node pos="r" depth="2" NCoef="0" IVar="-1" Cut="0.0000000000000000e+00" cType="1" res="-1.7647807908360846e-05" rms="4.9932569265365601e-01" purity="4.9713841080665588e-01" nType="-99"/>
        </Node>
        <Node pos="r" depth="1" NCoef="0" IVar="22" Cut="2.2440311908721924e+00" cType="1" res="-1.8515443801879883e-01" rms="4.3454417586326599e-01" purity="2.5254625082015991e-01" nType="0">
          <Node pos="l" depth="2" NCoef="0" IVar="-1" Cut="0.0000000000000000e+00" cType="1" res="-1.4058969682082534e-03" rms="4.0927070379257202e-01" purity="2.1266190707683563e-01" nType="-99"/>
          <Node pos="r" depth="2" NCoef="0" IVar="-1" Cut="0.0000000000000000e+00" cType="1" res="-1.7616415861994028e-03" rms="4.6977216005325317e-01" purity="3.2843869924545288e-01" nType="-99"/>
        </Node>
      </Node>
    </BinaryTree>
    <BinaryTree type="DecisionTree" boostWeight="1.0000000000000000e+00" itree="60">
      <Node pos="s" depth="0" NCoef="0" IVar="5" Cut="1.1904761791229248e+00" cType="1" res="-6.4810407347977161e-03" rms="4.9274441599845886e-01" purity="4.9470612406730652e-01" nType="0">
        <Node pos="l" depth="1" NCoef="0" IVar="15" Cut="1.2986743450164795e+00" cType="1" res="2.8077255934476852e-02" rms="4.9591147899627686e-01" purity="5.4244112968444824e-01" nType="0">
          <Node pos="l" depth="2" NCoef="0" IVar="-1" Cut="0.0000000000000000e+00" cType="1" res="1.2114280834794044e-03" rms="4.8453220725059509e-01" purity="6.2029862403869629e-01" nType="-99"/>
          <Node pos="r" depth="2" NCoef="0" IVar="-1" Cut="0.0000000000000000e+00" cType="1" res="-1.2010260252282023e-04" rms="4.9737149477005005e-01" purity="4.5681470632553101e-01" nType="-99"/>
        </Node>
        <Node pos="r" depth="1" NCoef="0" IVar="2" Cut="-1.0689266920089722e+00" cType="1" res="-1.7505635321140289e-01" rms="4.3963629007339478e-01" purity="2.6185467839241028e-01" nType="0">
          <Node pos="l" depth="2" NCoef="0" IVar="-1" Cut="0.0000000000000000e+00" cType="1" res="-1.7138365656137466e-03" rms="3.7614303827285767e-01" purity="1.7038978636264801e-01" nType="-99"/>
          <Node pos="r" depth="2" NCoef="0" IVar="-1" Cut="0.0000000000000000e+00" cType="1" res="-2.4483832530677319e-03" rms="4.5265537500381470e-01" purity="2.8786805272102356e-01" nType="-99"/>
        </Node>
      </Node>
    </BinaryTree>
    <BinaryTree type="DecisionTree" boostWeight="1.0000000000000000e+00" itree="61">
      <Node pos="s" depth="0" NCoef="0" IVar="5" Cut="1.1904761791229248e+00" cType="1" res="-8.0151446163654327e-03" rms="4.9262079596519470e-01" purity="4.9311858415603638e-01" nType="0">
        <Node pos="l" depth="1" NCoef="0" IVar="14" Cut="1.9535580873489380e+00" cType="1" res="2.7825500816106796e-02" rms="4.9610981345176697e-01" purity="5.4258608818054199e-01" nType="0">
          <Node pos="l" depth="2" NCoef="0" IVar="-1" Cut="0.0000000000000000e+00" cType="1" res="6.5668951719999313e-04" rms="4.9230185151100159e-01" purity="5.7831323146820068e-01" nType="-99"/>
