<?xml version="1.0"?>
<MethodSetup Method="BDT::BDTG1000t2.5%n2d">
  <GeneralInfo>
    <Info name="TMVA Release" value="4.2.1 [262657]"/>
    <Info name="ROOT Release" value="6.10/09 [395785]"/>
    <Info name="Creator" value="shchauha"/>
    <Info name="Date" value="Fri Sep 13 11:43:20 2019"/>
    <Info name="Host" value="Linux cmsbuild76.cern.ch 2.6.32-696.30.1.el6.x86_64 #1 SMP Tue May 22 06:09:36 CEST 2018 x86_64 x86_64 x86_64 GNU/Linux"/>
    <Info name="Dir" value="/home/users/shchauha/2019/Test/FCNCAna/analysis/bdts"/>
    <Info name="Training events" value="442665"/>
    <Info name="TrainingTime" value="5.95888349e+02"/>
    <Info name="AnalysisType" value="Classification"/>
  </GeneralInfo>
  <Options>
    <Option name="V" modified="Yes">False</Option>
    <Option name="VerbosityLevel" modified="No">Default</Option>
    <Option name="VarTransform" modified="No">None</Option>
    <Option name="H" modified="Yes">False</Option>
    <Option name="CreateMVAPdfs" modified="No">False</Option>
    <Option name="IgnoreNegWeightsInTraining" modified="No">False</Option>
    <Option name="NTrees" modified="Yes">1000</Option>
    <Option name="MaxDepth" modified="Yes">2</Option>
    <Option name="MinNodeSize" modified="Yes">2.5%</Option>
    <Option name="nCuts" modified="Yes">20</Option>
    <Option name="BoostType" modified="Yes">Grad</Option>
    <Option name="AdaBoostR2Loss" modified="No">quadratic</Option>
    <Option name="UseBaggedBoost" modified="Yes">True</Option>
    <Option name="Shrinkage" modified="Yes">1.000000e-01</Option>
    <Option name="AdaBoostBeta" modified="No">5.000000e-01</Option>
    <Option name="UseRandomisedTrees" modified="No">False</Option>
    <Option name="UseNvars" modified="No">6</Option>
    <Option name="UsePoissonNvars" modified="No">True</Option>
    <Option name="BaggedSampleFraction" modified="Yes">5.000000e-01</Option>
    <Option name="UseYesNoLeaf" modified="No">True</Option>
    <Option name="NegWeightTreatment" modified="No">pray</Option>
    <Option name="Css" modified="No">1.000000e+00</Option>
    <Option name="Cts_sb" modified="No">1.000000e+00</Option>
    <Option name="Ctb_ss" modified="No">1.000000e+00</Option>
    <Option name="Cbb" modified="No">1.000000e+00</Option>
    <Option name="NodePurityLimit" modified="No">5.000000e-01</Option>
    <Option name="SeparationType" modified="No">giniindex</Option>
    <Option name="RegressionLossFunctionBDTG" modified="No">huber</Option>
    <Option name="HuberQuantile" modified="No">7.000000e-01</Option>
    <Option name="DoBoostMonitor" modified="No">False</Option>
    <Option name="UseFisherCuts" modified="No">False</Option>
    <Option name="MinLinCorrForFisher" modified="No">8.000000e-01</Option>
    <Option name="UseExclusiveVars" modified="No">False</Option>
    <Option name="DoPreselection" modified="No">False</Option>
    <Option name="SigToBkgFraction" modified="No">1.000000e+00</Option>
    <Option name="PruneMethod" modified="No">nopruning</Option>
    <Option name="PruneStrength" modified="No">0.000000e+00</Option>
    <Option name="PruningValFraction" modified="No">5.000000e-01</Option>
    <Option name="SkipNormalization" modified="No">False</Option>
    <Option name="nEventsMin" modified="No">0</Option>
    <Option name="UseBaggedGrad" modified="No">False</Option>
    <Option name="GradBaggingFraction" modified="No">5.000000e-01</Option>
    <Option name="UseNTrainEvents" modified="No">0</Option>
    <Option name="NNodesMax" modified="No">0</Option>
  </Options>
  <Variables NVar="35">
    <Variable VarIndex="0" Expression="lep1pt" Label="lep1pt" Title="lep1pt" Unit="" Internal="lep1pt" Type="F" Min="2.50003548e+01" Max="1.42523767e+03"/>
    <Variable VarIndex="1" Expression="lep2pt" Label="lep2pt" Title="lep2pt" Unit="" Internal="lep2pt" Type="F" Min="2.00000381e+01" Max="7.04267578e+02"/>
    <Variable VarIndex="2" Expression="lep1eta" Label="lep1eta" Title="lep1eta" Unit="" Internal="lep1eta" Type="F" Min="-2.49993896e+00" Max="2.49934554e+00"/>
    <Variable VarIndex="3" Expression="lep2eta" Label="lep2eta" Title="lep2eta" Unit="" Internal="lep2eta" Type="F" Min="-2.49939418e+00" Max="2.49942017e+00"/>
    <Variable VarIndex="4" Expression="njets" Label="njets" Title="njets" Unit="" Internal="njets" Type="F" Min="2.00000000e+00" Max="1.20000000e+01"/>
    <Variable VarIndex="5" Expression="nbtags" Label="nbtags" Title="nbtags" Unit="" Internal="nbtags" Type="F" Min="1.00000000e+00" Max="6.00000000e+00"/>
    <Variable VarIndex="6" Expression="met" Label="met" Title="met" Unit="" Internal="met" Type="F" Min="1.74460411e-01" Max="1.44695703e+03"/>
    <Variable VarIndex="7" Expression="ht" Label="ht" Title="ht" Unit="" Internal="ht" Type="F" Min="8.00655594e+01" Max="3.71311401e+03"/>
    <Variable VarIndex="8" Expression="mll" Label="mll" Title="mll" Unit="" Internal="mll" Type="F" Min="1.43682051e+00" Max="2.43132642e+03"/>
    <Variable VarIndex="9" Expression="nele" Label="nele" Title="nele" Unit="" Internal="nele" Type="F" Min="0.00000000e+00" Max="2.00000000e+00"/>
    <Variable VarIndex="10" Expression="jet1pt" Label="jet1pt" Title="jet1pt" Unit="" Internal="jet1pt" Type="F" Min="3.71360168e+01" Max="2.10445679e+03"/>
    <Variable VarIndex="11" Expression="jet2pt" Label="jet2pt" Title="jet2pt" Unit="" Internal="jet2pt" Type="F" Min="3.31708374e+01" Max="1.50192896e+03"/>
    <Variable VarIndex="12" Expression="btag1pt" Label="btag1pt" Title="btag1pt" Unit="" Internal="btag1pt" Type="F" Min="2.02949371e+01" Max="2.10445679e+03"/>
    <Variable VarIndex="13" Expression="drl1l2" Label="drl1l2" Title="drl1l2" Unit="" Internal="drl1l2" Type="F" Min="2.09880285e-02" Max="5.62911844e+00"/>
    <Variable VarIndex="14" Expression="mindrl1j" Label="mindrl1j" Title="mindrl1j" Unit="" Internal="mindrl1j" Type="F" Min="2.44058415e-01" Max="4.87909269e+00"/>
    <Variable VarIndex="15" Expression="mindrl2j" Label="mindrl2j" Title="mindrl2j" Unit="" Internal="mindrl2j" Type="F" Min="2.45198980e-01" Max="4.88854456e+00"/>
    <Variable VarIndex="16" Expression="mindrl1bt" Label="mindrl1bt" Title="mindrl1bt" Unit="" Internal="mindrl1bt" Type="F" Min="2.44058415e-01" Max="5.54886484e+00"/>
    <Variable VarIndex="17" Expression="mindrl2bt" Label="mindrl2bt" Title="mindrl2bt" Unit="" Internal="mindrl2bt" Type="F" Min="2.45198980e-01" Max="5.58260918e+00"/>
    <Variable VarIndex="18" Expression="dphil1met" Label="dphil1met" Title="dphil1met" Unit="" Internal="dphil1met" Type="F" Min="2.51531601e-05" Max="3.14159250e+00"/>
    <Variable VarIndex="19" Expression="dphil2met" Label="dphil2met" Title="dphil2met" Unit="" Internal="dphil2met" Type="F" Min="1.54972076e-06" Max="3.14159155e+00"/>
    <Variable VarIndex="20" Expression="mt1" Label="mt1" Title="mt1" Unit="" Internal="mt1" Type="F" Min="0.00000000e+00" Max="2.03904944e+03"/>
    <Variable VarIndex="21" Expression="mt2" Label="mt2" Title="mt2" Unit="" Internal="mt2" Type="F" Min="0.00000000e+00" Max="9.07312866e+02"/>
    <Variable VarIndex="22" Expression="dphil1l2" Label="dphil1l2" Title="dphil1l2" Unit="" Internal="dphil1l2" Type="F" Min="6.43730164e-06" Max="3.14159036e+00"/>
    <Variable VarIndex="23" Expression="l1miniiso" Label="l1miniiso" Title="l1miniiso" Unit="" Internal="l1miniiso" Type="F" Min="0.00000000e+00" Max="1.59790128e-01"/>
    <Variable VarIndex="24" Expression="l2miniiso" Label="l2miniiso" Title="l2miniiso" Unit="" Internal="l2miniiso" Type="F" Min="0.00000000e+00" Max="1.59891441e-01"/>
    <Variable VarIndex="25" Expression="l1dxy" Label="l1dxy" Title="l1dxy" Unit="" Internal="l1dxy" Type="F" Min="-4.78288755e-02" Max="4.92173322e-02"/>
    <Variable VarIndex="26" Expression="l1dz" Label="l1dz" Title="l1dz" Unit="" Internal="l1dz" Type="F" Min="-9.97967049e-02" Max="9.93374661e-02"/>
    <Variable VarIndex="27" Expression="l2dxy" Label="l2dxy" Title="l2dxy" Unit="" Internal="l2dxy" Type="F" Min="-4.13475037e-02" Max="4.71448489e-02"/>
    <Variable VarIndex="28" Expression="l2dz" Label="l2dz" Title="l2dz" Unit="" Internal="l2dz" Type="F" Min="-9.70155522e-02" Max="9.75813791e-02"/>
    <Variable VarIndex="29" Expression="l1ptratio" Label="l1ptratio" Title="l1ptratio" Unit="" Internal="l1ptratio" Type="F" Min="5.39985634e-02" Max="5.15434532e+01"/>
    <Variable VarIndex="30" Expression="l1ptrel" Label="l1ptrel" Title="l1ptrel" Unit="" Internal="l1ptrel" Type="F" Min="0.00000000e+00" Max="1.52397449e+03"/>
    <Variable VarIndex="31" Expression="l2ptratio" Label="l2ptratio" Title="l2ptratio" Unit="" Internal="l2ptratio" Type="F" Min="2.34146491e-02" Max="6.01111298e+01"/>
    <Variable VarIndex="32" Expression="l2ptrel" Label="l2ptrel" Title="l2ptrel" Unit="" Internal="l2ptrel" Type="F" Min="0.00000000e+00" Max="6.13166504e+02"/>
    <Variable VarIndex="33" Expression="jet3pt" Label="jet3pt" Title="jet3pt" Unit="" Internal="jet3pt" Type="F" Min="0.00000000e+00" Max="7.31749329e+02"/>
    <Variable VarIndex="34" Expression="fwd_jetpt" Label="fwd_jetpt" Title="fwd_jetpt" Unit="" Internal="fwd_jetpt" Type="F" Min="3.24762383e+01" Max="1.62656360e+03"/>
  </Variables>
  <Spectators NSpec="0"/>
  <Classes NClass="2">
    <Class Name="Signal" Index="0"/>
    <Class Name="Background" Index="1"/>
  </Classes>
  <Transformations NTransformations="0"/>
  <MVAPdfs/>
  <Weights NTrees="1000" AnalysisType="1">
    <BinaryTree type="DecisionTree" boostWeight="1.0000000000000000e+00" itree="0">
      <Node pos="s" depth="0" NCoef="0" IVar="5" Cut="1.2380952835083008e+00" cType="1" res="5.0624669529497623e-03" rms="4.9997437000274658e-01" purity="5.0506246089935303e-01" nType="0">
        <Node pos="l" depth="1" NCoef="0" IVar="24" Cut="4.5683268457651138e-02" cType="1" res="6.2001239508390427e-02" rms="4.9614095687866211e-01" purity="5.6200122833251953e-01" nType="0">
          <Node pos="l" depth="2" NCoef="0" IVar="-1" Cut="0.0000000000000000e+00" cType="1" res="9.2654390027746558e-04" rms="4.9006456136703491e-01" purity="5.9918016195297241e-01" nType="-99"/>
          <Node pos="r" depth="2" NCoef="0" IVar="-1" Cut="0.0000000000000000e+00" cType="1" res="-2.0823006052523851e-03" rms="4.7246947884559631e-01" purity="3.3637666702270508e-01" nType="-99"/>
        </Node>
        <Node pos="r" depth="1" NCoef="0" IVar="22" Cut="1.7952784299850464e+00" cType="1" res="-2.6254445314407349e-01" rms="4.2552369832992554e-01" purity="2.3745553195476532e-01" nType="0">
          <Node pos="l" depth="2" NCoef="0" IVar="-1" Cut="0.0000000000000000e+00" cType="1" res="-4.5495782978832722e-03" rms="3.8407722115516663e-01" purity="1.7986772954463959e-01" nType="-99"/>
          <Node pos="r" depth="2" NCoef="0" IVar="-1" Cut="0.0000000000000000e+00" cType="1" res="-3.9516305550932884e-03" rms="4.5403933525085449e-01" purity="2.9060021042823792e-01" nType="-99"/>
        </Node>
      </Node>
    </BinaryTree>
    <BinaryTree type="DecisionTree" boostWeight="1.0000000000000000e+00" itree="1">
      <Node pos="s" depth="0" NCoef="0" IVar="5" Cut="1.2380952835083008e+00" cType="1" res="3.0580528546124697e-03" rms="4.9970209598541260e-01" purity="5.0291287899017334e-01" nType="0">
        <Node pos="l" depth="1" NCoef="0" IVar="24" Cut="4.5683268457651138e-02" cType="1" res="5.3480491042137146e-02" rms="4.9699890613555908e-01" purity="5.5372655391693115e-01" nType="0">
          <Node pos="l" depth="2" NCoef="0" IVar="-1" Cut="0.0000000000000000e+00" cType="1" res="9.2212454183027148e-04" rms="4.9092364311218262e-01" purity="5.9483647346496582e-01" nType="-99"/>
          <Node pos="r" depth="2" NCoef="0" IVar="-1" Cut="0.0000000000000000e+00" cType="1" res="-2.4927901104092598e-03" rms="4.6255978941917419e-01" purity="3.1016200780868530e-01" nType="-99"/>
        </Node>
        <Node pos="r" depth="1" NCoef="0" IVar="7" Cut="2.1069451904296875e+02" cType="1" res="-2.5061556696891785e-01" rms="4.3141153454780579e-01" purity="2.4727104604244232e-01" nType="0">
          <Node pos="l" depth="2" NCoef="0" IVar="-1" Cut="0.0000000000000000e+00" cType="1" res="-2.8893391136080027e-03" rms="4.6413749456405640e-01" purity="3.1409046053886414e-01" nType="-99"/>
          <Node pos="r" depth="2" NCoef="0" IVar="-1" Cut="0.0000000000000000e+00" cType="1" res="-5.5387155152857304e-03" rms="4.0869310498237610e-01" purity="2.1197465062141418e-01" nType="-99"/>
        </Node>
      </Node>
    </BinaryTree>
    <BinaryTree type="DecisionTree" boostWeight="1.0000000000000000e+00" itree="2">
      <Node pos="s" depth="0" NCoef="0" IVar="5" Cut="1.2380952835083008e+00" cType="1" res="3.2606329768896103e-03" rms="4.9941006302833557e-01" purity="5.0291699171066284e-01" nType="0">
        <Node pos="l" depth="1" NCoef="0" IVar="24" Cut="3.8069389760494232e-02" cType="1" res="5.1571629941463470e-02" rms="4.9707120656967163e-01" purity="5.5204266309738159e-01" nType="0">
          <Node pos="l" depth="2" NCoef="0" IVar="-1" Cut="0.0000000000000000e+00" cType="1" res="1.0108608985319734e-03" rms="4.9046787619590759e-01" purity="5.9716612100601196e-01" nType="-99"/>
          <Node pos="r" depth="2" NCoef="0" IVar="-1" Cut="0.0000000000000000e+00" cType="1" res="-1.4433390460908413e-03" rms="4.7339263558387756e-01" purity="3.3942252397537231e-01" nType="-99"/>
        </Node>
        <Node pos="r" depth="1" NCoef="0" IVar="9" Cut="9.5238097012042999e-02" cType="1" res="-2.3679010570049286e-01" rms="4.3791502714157104e-01" purity="2.5881829857826233e-01" nType="0">
          <Node pos="l" depth="2" NCoef="0" IVar="-1" Cut="0.0000000000000000e+00" cType="1" res="-6.4545113127678633e-04" rms="4.7745147347450256e-01" purity="3.5183444619178772e-01" nType="-99"/>
          <Node pos="r" depth="2" NCoef="0" IVar="-1" Cut="0.0000000000000000e+00" cType="1" res="-3.8239087443798780e-03" rms="4.1664838790893555e-01" purity="2.2367699444293976e-01" nType="-99"/>
        </Node>
      </Node>
    </BinaryTree>
    <BinaryTree type="DecisionTree" boostWeight="1.0000000000000000e+00" itree="3">
      <Node pos="s" depth="0" NCoef="0" IVar="5" Cut="1.1904761791229248e+00" cType="1" res="-2.9965285211801529e-03" rms="4.9915432929992676e-01" purity="4.9660360813140869e-01" nType="0">
        <Node pos="l" depth="1" NCoef="0" IVar="24" Cut="4.5683268457651138e-02" cType="1" res="4.7042924910783768e-02" rms="4.9739253520965576e-01" purity="5.4778712987899780e-01" nType="0">
          <Node pos="l" depth="2" NCoef="0" IVar="-1" Cut="0.0000000000000000e+00" cType="1" res="8.4260245785117149e-04" rms="4.9194636940956116e-01" purity="5.8933001756668091e-01" nType="-99"/>
          <Node pos="r" depth="2" NCoef="0" IVar="-1" Cut="0.0000000000000000e+00" cType="1" res="-2.1872827783226967e-03" rms="4.6045583486557007e-01" purity="3.0511429905891418e-01" nType="-99"/>
        </Node>
        <Node pos="r" depth="1" NCoef="0" IVar="22" Cut="1.7951540946960449e+00" cType="1" res="-2.4200989305973053e-01" rms="4.3411260843276978e-01" purity="2.5212553143501282e-01" nType="0">
          <Node pos="l" depth="2" NCoef="0" IVar="-1" Cut="0.0000000000000000e+00" cType="1" res="-3.2994544599205256e-03" rms="3.9819341897964478e-01" purity="1.9778341054916382e-01" nType="-99"/>
          <Node pos="r" depth="2" NCoef="0" IVar="-1" Cut="0.0000000000000000e+00" cType="1" res="-3.6893279757350683e-03" rms="4.5654958486557007e-01" purity="2.9631417989730835e-01" nType="-99"/>
        </Node>
      </Node>
    </BinaryTree>
    <BinaryTree type="DecisionTree" boostWeight="1.0000000000000000e+00" itree="4">
      <Node pos="s" depth="0" NCoef="0" IVar="5" Cut="1.2380952835083008e+00" cType="1" res="4.3614818714559078e-03" rms="4.9886763095855713e-01" purity="5.0380408763885498e-01" nType="0">
        <Node pos="l" depth="1" NCoef="0" IVar="24" Cut="6.0865502804517746e-02" cType="1" res="5.6076459586620331e-02" rms="4.9630641937255859e-01" purity="5.5698388814926147e-01" nType="0">
          <Node pos="l" depth="2" NCoef="0" IVar="-1" Cut="0.0000000000000000e+00" cType="1" res="8.7656435789540410e-04" rms="4.9145367741584778e-01" purity="5.9150493144989014e-01" nType="-99"/>
          <Node pos="r" depth="2" NCoef="0" IVar="-1" Cut="0.0000000000000000e+00" cType="1" res="-2.6249119546264410e-03" rms="4.3784767389297485e-01" purity="2.5856801867485046e-01" nType="-99"/>
        </Node>
        <Node pos="r" depth="1" NCoef="0" IVar="15" Cut="9.5003330707550049e-01" cType="1" res="-2.4472439289093018e-01" rms="4.3153229355812073e-01" purity="2.4766270816326141e-01" nType="0">
          <Node pos="l" depth="2" NCoef="0" IVar="-1" Cut="0.0000000000000000e+00" cType="1" res="-3.7689758464694023e-03" rms="4.6675825119018555e-01" purity="3.2120549678802490e-01" nType="-99"/>
          <Node pos="r" depth="2" NCoef="0" IVar="-1" Cut="0.0000000000000000e+00" cType="1" res="-2.9859736096113920e-03" rms="4.0941229462623596e-01" purity="2.1312862634658813e-01" nType="-99"/>
        </Node>
      </Node>
    </BinaryTree>
    <BinaryTree type="DecisionTree" boostWeight="1.0000000000000000e+00" itree="5">
      <Node pos="s" depth="0" NCoef="0" IVar="5" Cut="1.2380952835083008e+00" cType="1" res="5.4508000612258911e-03" rms="4.9857535958290100e-01" purity="5.0477981567382812e-01" nType="0">
        <Node pos="l" depth="1" NCoef="0" IVar="24" Cut="3.0416369438171387e-02" cType="1" res="5.9638336300849915e-02" rms="4.9575766921043396e-01" purity="5.6081455945968628e-01" nType="0">
          <Node pos="l" depth="2" NCoef="0" IVar="-1" Cut="0.0000000000000000e+00" cType="1" res="7.9785147681832314e-04" rms="4.8647099733352661e-01" purity="6.1552476882934570e-01" nType="-99"/>
          <Node pos="r" depth="2" NCoef="0" IVar="-1" Cut="0.0000000000000000e+00" cType="1" res="-1.0354110272601247e-03" rms="4.8310241103172302e-01" purity="3.7305554747581482e-01" nType="-99"/>
        </Node>
        <Node pos="r" depth="1" NCoef="0" IVar="22" Cut="1.7951956987380981e+00" cType="1" res="-2.4666267633438110e-01" rms="4.2940670251846313e-01" purity="2.4407221376895905e-01" nType="0">
          <Node pos="l" depth="2" NCoef="0" IVar="-1" Cut="0.0000000000000000e+00" cType="1" res="-3.3232644200325012e-03" rms="3.9173901081085205e-01" purity="1.8945373594760895e-01" nType="-99"/>
          <Node pos="r" depth="2" NCoef="0" IVar="-1" Cut="0.0000000000000000e+00" cType="1" res="-3.8443799130618572e-03" rms="4.5560416579246521e-01" purity="2.9429602622985840e-01" nType="-99"/>
        </Node>
      </Node>
    </BinaryTree>
    <BinaryTree type="DecisionTree" boostWeight="1.0000000000000000e+00" itree="6">
      <Node pos="s" depth="0" NCoef="0" IVar="5" Cut="1.2380952835083008e+00" cType="1" res="6.0132821090519428e-05" rms="4.9838012456893921e-01" purity="4.9927058815956116e-01" nType="0">
        <Node pos="l" depth="1" NCoef="0" IVar="24" Cut="4.5683268457651138e-02" cType="1" res="5.4213758558034897e-02" rms="4.9632740020751953e-01" purity="5.5562376976013184e-01" nType="0">
          <Node pos="l" depth="2" NCoef="0" IVar="-1" Cut="0.0000000000000000e+00" cType="1" res="9.7046291921287775e-04" rms="4.9071383476257324e-01" purity="5.9582644701004028e-01" nType="-99"/>
          <Node pos="r" depth="2" NCoef="0" IVar="-1" Cut="0.0000000000000000e+00" cType="1" res="-2.4212663993239403e-03" rms="4.6695235371589661e-01" purity="3.2155424356460571e-01" nType="-99"/>
        </Node>
        <Node pos="r" depth="1" NCoef="0" IVar="9" Cut="9.5238097012042999e-02" cType="1" res="-2.5306710600852966e-01" rms="4.2443573474884033e-01" purity="2.3586221039295197e-01" nType="0">
          <Node pos="l" depth="2" NCoef="0" IVar="-1" Cut="0.0000000000000000e+00" cType="1" res="-3.9800917729735374e-03" rms="4.6921592950820923e-01" purity="3.2742089033126831e-01" nType="-99"/>
          <Node pos="r" depth="2" NCoef="0" IVar="-1" Cut="0.0000000000000000e+00" cType="1" res="-3.7289513275027275e-03" rms="4.0138038992881775e-01" purity="2.0183764398097992e-01" nType="-99"/>
        </Node>
      </Node>
    </BinaryTree>
    <BinaryTree type="DecisionTree" boostWeight="1.0000000000000000e+00" itree="7">
      <Node pos="s" depth="0" NCoef="0" IVar="5" Cut="1.2380952835083008e+00" cType="1" res="-6.2138033099472523e-03" rms="4.9811837077140808e-01" purity="4.9286466836929321e-01" nType="0">
        <Node pos="l" depth="1" NCoef="0" IVar="24" Cut="3.8058869540691376e-02" cType="1" res="4.4550564140081406e-02" rms="4.9718421697616577e-01" purity="5.4619073867797852e-01" nType="0">
          <Node pos="l" depth="2" NCoef="0" IVar="-1" Cut="0.0000000000000000e+00" cType="1" res="7.7237159712240100e-04" rms="4.9146261811256409e-01" purity="5.9196937084197998e-01" nType="-99"/>
          <Node pos="r" depth="2" NCoef="0" IVar="-1" Cut="0.0000000000000000e+00" cType="1" res="-1.3316877884790301e-03" rms="4.7310939431190491e-01" purity="3.3931523561477661e-01" nType="-99"/>
        </Node>
        <Node pos="r" depth="1" NCoef="0" IVar="22" Cut="1.9447873830795288e+00" cType="1" res="-2.4522416293621063e-01" rms="4.2806574702262878e-01" purity="2.4179336428642273e-01" nType="0">
          <Node pos="l" depth="2" NCoef="0" IVar="-1" Cut="0.0000000000000000e+00" cType="1" res="-2.2772587835788727e-03" rms="3.8803043961524963e-01" purity="1.8483416736125946e-01" nType="-99"/>
          <Node pos="r" depth="2" NCoef="0" IVar="-1" Cut="0.0000000000000000e+00" cType="1" res="-3.8202228024601936e-03" rms="4.6155503392219543e-01" purity="3.0798166990280151e-01" nType="-99"/>
        </Node>
      </Node>
    </BinaryTree>
    <BinaryTree type="DecisionTree" boostWeight="1.0000000000000000e+00" itree="8">
      <Node pos="s" depth="0" NCoef="0" IVar="5" Cut="1.2380952835083008e+00" cType="1" res="-3.2803104259073734e-03" rms="4.9797761440277100e-01" purity="4.9582788348197937e-01" nType="0">
        <Node pos="l" depth="1" NCoef="0" IVar="24" Cut="3.8002576678991318e-02" cType="1" res="4.5575600117444992e-02" rms="4.9697443842887878e-01" purity="5.4747676849365234e-01" nType="0">
          <Node pos="l" depth="2" NCoef="0" IVar="-1" Cut="0.0000000000000000e+00" cType="1" res="8.5087935440242290e-04" rms="4.9111929535865784e-01" purity="5.9377020597457886e-01" nType="-99"/>
          <Node pos="r" depth="2" NCoef="0" IVar="-1" Cut="0.0000000000000000e+00" cType="1" res="-1.7247872892767191e-03" rms="4.6928206086158752e-01" purity="3.2844102382659912e-01" nType="-99"/>
        </Node>
        <Node pos="r" depth="1" NCoef="0" IVar="22" Cut="2.2439930438995361e+00" cType="1" res="-2.4040521681308746e-01" rms="4.3013140559196472e-01" purity="2.4514712393283844e-01" nType="0">
          <Node pos="l" depth="2" NCoef="0" IVar="-1" Cut="0.0000000000000000e+00" cType="1" res="-2.7514053508639336e-03" rms="4.0592080354690552e-01" purity="2.0817603170871735e-01" nType="-99"/>
          <Node pos="r" depth="2" NCoef="0" IVar="-1" Cut="0.0000000000000000e+00" cType="1" res="-3.5631328355520964e-03" rms="4.6102598309516907e-01" purity="3.0668491125106812e-01" nType="-99"/>
        </Node>
      </Node>
    </BinaryTree>
    <BinaryTree type="DecisionTree" boostWeight="1.0000000000000000e+00" itree="9">
      <Node pos="s" depth="0" NCoef="0" IVar="5" Cut="1.2380952835083008e+00" cType="1" res="-5.9676454402506351e-03" rms="4.9776336550712585e-01" purity="4.9304634332656860e-01" nType="0">
        <Node pos="l" depth="1" NCoef="0" IVar="24" Cut="3.8040939718484879e-02" cType="1" res="4.1126795113086700e-02" rms="4.9726727604866028e-01" purity="5.4316705465316772e-01" nType="0">
          <Node pos="l" depth="2" NCoef="0" IVar="-1" Cut="0.0000000000000000e+00" cType="1" res="6.8846083013340831e-04" rms="4.9202272295951843e-01" purity="5.8893811702728271e-01" nType="-99"/>
          <Node pos="r" depth="2" NCoef="0" IVar="-1" Cut="0.0000000000000000e+00" cType="1" res="-1.7509221797809005e-03" rms="4.7055891156196594e-01" purity="3.3216053247451782e-01" nType="-99"/>
        </Node>
        <Node pos="r" depth="1" NCoef="0" IVar="9" Cut="9.5238097012042999e-02" cType="1" res="-2.3956371843814850e-01" rms="4.2970752716064453e-01" purity="2.4443936347961426e-01" nType="0">
          <Node pos="l" depth="2" NCoef="0" IVar="-1" Cut="0.0000000000000000e+00" cType="1" res="-2.0412926096469164e-03" rms="4.7243425250053406e-01" purity="3.3629637956619263e-01" nType="-99"/>
          <Node pos="r" depth="2" NCoef="0" IVar="-1" Cut="0.0000000000000000e+00" cType="1" res="-3.1159389764070511e-03" rms="4.0736481547355652e-01" purity="2.1000854671001434e-01" nType="-99"/>
        </Node>
      </Node>
    </BinaryTree>
    <BinaryTree type="DecisionTree" boostWeight="1.0000000000000000e+00" itree="10">
      <Node pos="s" depth="0" NCoef="0" IVar="5" Cut="1.2380952835083008e+00" cType="1" res="-1.6524908132851124e-03" rms="4.9766644835472107e-01" purity="4.9719330668449402e-01" nType="0">
        <Node pos="l" depth="1" NCoef="0" IVar="24" Cut="6.0804121196269989e-02" cType="1" res="4.3946776539087296e-02" rms="4.9693080782890320e-01" purity="5.4611921310424805e-01" nType="0">
          <Node pos="l" depth="2" NCoef="0" IVar="-1" Cut="0.0000000000000000e+00" cType="1" res="5.5155012523755431e-04" rms="4.9370089173316956e-01" purity="5.7764285802841187e-01" nType="-99"/>
          <Node pos="r" depth="2" NCoef="0" IVar="-1" Cut="0.0000000000000000e+00" cType="1" res="-3.0722790397703648e-03" rms="4.3384563922882080e-01" purity="2.5144806504249573e-01" nType="-99"/>
        </Node>
        <Node pos="r" depth="1" NCoef="0" IVar="22" Cut="1.7952064275741577e+00" cType="1" res="-2.2441098093986511e-01" rms="4.3756970763206482e-01" purity="2.5818386673927307e-01" nType="0">
          <Node pos="l" depth="2" NCoef="0" IVar="-1" Cut="0.0000000000000000e+00" cType="1" res="-2.1301622036844492e-03" rms="3.9863654971122742e-01" purity="1.9840523600578308e-01" nType="-99"/>
          <Node pos="r" depth="2" NCoef="0" IVar="-1" Cut="0.0000000000000000e+00" cType="1" res="-3.4144488163292408e-03" rms="4.6276277303695679e-01" purity="3.1097006797790527e-01" nType="-99"/>
        </Node>
      </Node>
    </BinaryTree>
    <BinaryTree type="DecisionTree" boostWeight="1.0000000000000000e+00" itree="11">
      <Node pos="s" depth="0" NCoef="0" IVar="5" Cut="1.2380952835083008e+00" cType="1" res="9.3748921062797308e-04" rms="4.9742391705513000e-01" purity="4.9957540631294250e-01" nType="0">
        <Node pos="l" depth="1" NCoef="0" IVar="24" Cut="6.0804121196269989e-02" cType="1" res="4.9610290676355362e-02" rms="4.9631166458129883e-01" purity="5.5188256502151489e-01" nType="0">
          <Node pos="l" depth="2" NCoef="0" IVar="-1" Cut="0.0000000000000000e+00" cType="1" res="5.9982802486047149e-04" rms="4.9298924207687378e-01" purity="5.8213382959365845e-01" nType="-99"/>
          <Node pos="r" depth="2" NCoef="0" IVar="-1" Cut="0.0000000000000000e+00" cType="1" res="-2.6381183415651321e-03" rms="4.4618317484855652e-01" purity="2.7434378862380981e-01" nType="-99"/>
        </Node>
        <Node pos="r" depth="1" NCoef="0" IVar="22" Cut="2.0943884849548340e+00" cType="1" res="-2.3200726509094238e-01" rms="4.3257269263267517e-01" purity="2.4923664331436157e-01" nType="0">
          <Node pos="l" depth="2" NCoef="0" IVar="-1" Cut="0.0000000000000000e+00" cType="1" res="-3.5112111363559961e-03" rms="4.0644708275794983e-01" purity="2.0890703797340393e-01" nType="-99"/>
          <Node pos="r" depth="2" NCoef="0" IVar="-1" Cut="0.0000000000000000e+00" cType="1" res="-3.5801602061837912e-03" rms="4.6062207221984863e-01" purity="3.0574521422386169e-01" nType="-99"/>
        </Node>
      </Node>
    </BinaryTree>
    <BinaryTree type="DecisionTree" boostWeight="1.0000000000000000e+00" itree="12">
      <Node pos="s" depth="0" NCoef="0" IVar="5" Cut="1.2380952835083008e+00" cType="1" res="3.0467743054032326e-03" rms="4.9701648950576782e-01" purity="5.0134479999542236e-01" nType="0">
        <Node pos="l" depth="1" NCoef="0" IVar="24" Cut="4.5649129897356033e-02" cType="1" res="5.3345303982496262e-02" rms="4.9566563963890076e-01" purity="5.5571383237838745e-01" nType="0">
          <Node pos="l" depth="2" NCoef="0" IVar="-1" Cut="0.0000000000000000e+00" cType="1" res="9.4165216432884336e-04" rms="4.8989135026931763e-01" purity="5.9982776641845703e-01" nType="-99"/>
          <Node pos="r" depth="2" NCoef="0" IVar="-1" Cut="0.0000000000000000e+00" cType="1" res="-2.2279212716966867e-03" rms="4.5995834469795227e-01" purity="3.0488035082817078e-01" nType="-99"/>
        </Node>
        <Node pos="r" depth="1" NCoef="0" IVar="22" Cut="1.9447948932647705e+00" cType="1" res="-2.3021940886974335e-01" rms="4.3254867196083069e-01" purity="2.4920098483562469e-01" nType="0">
          <Node pos="l" depth="2" NCoef="0" IVar="-1" Cut="0.0000000000000000e+00" cType="1" res="-3.2093483023345470e-03" rms="3.9560282230377197e-01" purity="1.9441267848014832e-01" nType="-99"/>
          <Node pos="r" depth="2" NCoef="0" IVar="-1" Cut="0.0000000000000000e+00" cType="1" res="-3.3907075412571430e-03" rms="4.6159818768501282e-01" purity="3.0806899070739746e-01" nType="-99"/>
        </Node>
      </Node>
    </BinaryTree>
    <BinaryTree type="DecisionTree" boostWeight="1.0000000000000000e+00" itree="13">
      <Node pos="s" depth="0" NCoef="0" IVar="5" Cut="1.1904761791229248e+00" cType="1" res="-5.0003576325252652e-04" rms="4.9678912758827209e-01" purity="4.9776074290275574e-01" nType="0">
        <Node pos="l" depth="1" NCoef="0" IVar="24" Cut="4.5670639723539352e-02" cType="1" res="4.9990430474281311e-02" rms="4.9595758318901062e-01" purity="5.5261003971099854e-01" nType="0">
          <Node pos="l" depth="2" NCoef="0" IVar="-1" Cut="0.0000000000000000e+00" cType="1" res="6.5069942502304912e-04" rms="4.9097183346748352e-01" purity="5.9438717365264893e-01" nType="-99"/>
          <Node pos="r" depth="2" NCoef="0" IVar="-1" Cut="0.0000000000000000e+00" cType="1" res="-2.1443061996251345e-03" rms="4.6340277791023254e-01" purity="3.1326925754547119e-01" nType="-99"/>
        </Node>
        <Node pos="r" depth="1" NCoef="0" IVar="22" Cut="1.7951956987380981e+00" cType="1" res="-2.3781348764896393e-01" rms="4.2705932259559631e-01" purity="2.3995994031429291e-01" nType="0">
          <Node pos="l" depth="2" NCoef="0" IVar="-1" Cut="0.0000000000000000e+00" cType="1" res="-3.8152567576617002e-03" rms="3.8923412561416626e-01" purity="1.8633602559566498e-01" nType="-99"/>
          <Node pos="r" depth="2" NCoef="0" IVar="-1" Cut="0.0000000000000000e+00" cType="1" res="-3.5659188870340586e-03" rms="4.5150217413902283e-01" purity="2.8537192940711975e-01" nType="-99"/>
        </Node>
      </Node>
    </BinaryTree>
    <BinaryTree type="DecisionTree" boostWeight="1.0000000000000000e+00" itree="14">
      <Node pos="s" depth="0" NCoef="0" IVar="5" Cut="1.2380952835083008e+00" cType="1" res="2.7275666070636362e-05" rms="4.9665081501007080e-01" purity="4.9821990728378296e-01" nType="0">
        <Node pos="l" depth="1" NCoef="0" IVar="24" Cut="4.5649129897356033e-02" cType="1" res="4.7551702708005905e-02" rms="4.9609765410423279e-01" purity="5.5037206411361694e-01" nType="0">
          <Node pos="l" depth="2" NCoef="0" IVar="-1" Cut="0.0000000000000000e+00" cType="1" res="8.3865516353398561e-04" rms="4.9145638942718506e-01" purity="5.9171783924102783e-01" nType="-99"/>
          <Node pos="r" depth="2" NCoef="0" IVar="-1" Cut="0.0000000000000000e+00" cType="1" res="-2.1674830932170153e-03" rms="4.5963943004608154e-01" purity="3.0405566096305847e-01" nType="-99"/>
        </Node>
        <Node pos="r" depth="1" NCoef="0" IVar="22" Cut="1.7952064275741577e+00" cType="1" res="-2.2847610712051392e-01" rms="4.3154260516166687e-01" purity="2.4746575951576233e-01" nType="0">
          <Node pos="l" depth="2" NCoef="0" IVar="-1" Cut="0.0000000000000000e+00" cType="1" res="-3.1236077193170786e-03" rms="3.9396330714225769e-01" purity="1.9228872656822205e-01" nType="-99"/>
          <Node pos="r" depth="2" NCoef="0" IVar="-1" Cut="0.0000000000000000e+00" cType="1" res="-3.8641674909740686e-03" rms="4.5551615953445435e-01" purity="2.9400759935379028e-01" nType="-99"/>
        </Node>
      </Node>
    </BinaryTree>
    <BinaryTree type="DecisionTree" boostWeight="1.0000000000000000e+00" itree="15">
      <Node pos="s" depth="0" NCoef="0" IVar="5" Cut="1.1904761791229248e+00" cType="1" res="7.1124089881777763e-03" rms="4.9640765786170959e-01" purity="5.0508302450180054e-01" nType="0">
        <Node pos="l" depth="1" NCoef="0" IVar="24" Cut="4.5649129897356033e-02" cType="1" res="5.4259389638900757e-02" rms="4.9526727199554443e-01" purity="5.5721002817153931e-01" nType="0">
          <Node pos="l" depth="2" NCoef="0" IVar="-1" Cut="0.0000000000000000e+00" cType="1" res="9.9480617791414261e-04" rms="4.9015215039253235e-01" purity="5.9845924377441406e-01" nType="-99"/>
          <Node pos="r" depth="2" NCoef="0" IVar="-1" Cut="0.0000000000000000e+00" cType="1" res="-2.1713511087000370e-03" rms="4.6556520462036133e-01" purity="3.1850212812423706e-01" nType="-99"/>
        </Node>
        <Node pos="r" depth="1" NCoef="0" IVar="9" Cut="1.0476191043853760e+00" cType="1" res="-2.1806095540523529e-01" rms="4.3646579980850220e-01" purity="2.5612500309944153e-01" nType="0">
          <Node pos="l" depth="2" NCoef="0" IVar="-1" Cut="0.0000000000000000e+00" cType="1" res="-3.0344612896442413e-03" rms="4.4976553320884705e-01" purity="2.8162467479705811e-01" nType="-99"/>
          <Node pos="r" depth="2" NCoef="0" IVar="-1" Cut="0.0000000000000000e+00" cType="1" res="-2.7098066639155149e-03" rms="3.6408051848411560e-01" purity="1.5711317956447601e-01" nType="-99"/>
        </Node>
      </Node>
    </BinaryTree>
    <BinaryTree type="DecisionTree" boostWeight="1.0000000000000000e+00" itree="16">
      <Node pos="s" depth="0" NCoef="0" IVar="5" Cut="1.2380952835083008e+00" cType="1" res="-6.1953766271471977e-04" rms="4.9632686376571655e-01" purity="4.9745509028434753e-01" nType="0">
        <Node pos="l" depth="1" NCoef="0" IVar="23" Cut="3.0436214059591293e-02" cType="1" res="4.4419120997190475e-02" rms="4.9623283743858337e-01" purity="5.4754203557968140e-01" nType="0">
          <Node pos="l" depth="2" NCoef="0" IVar="-1" Cut="0.0000000000000000e+00" cType="1" res="7.7318702824413776e-04" rms="4.9136182665824890e-01" purity="5.8221507072448730e-01" nType="-99"/>
          <Node pos="r" depth="2" NCoef="0" IVar="-1" Cut="0.0000000000000000e+00" cType="1" res="-1.5404025325551629e-03" rms="4.6841132640838623e-01" purity="3.2498446106910706e-01" nType="-99"/>
        </Node>
        <Node pos="r" depth="1" NCoef="0" IVar="22" Cut="2.2440114021301270e+00" cType="1" res="-2.2678425908088684e-01" rms="4.3066504597663879e-01" purity="2.4593997001647949e-01" nType="0">
          <Node pos="l" depth="2" NCoef="0" IVar="-1" Cut="0.0000000000000000e+00" cType="1" res="-2.5281023699790239e-03" rms="3.9924609661102295e-01" purity="1.9913782179355621e-01" nType="-99"/>
          <Node pos="r" depth="2" NCoef="0" IVar="-1" Cut="0.0000000000000000e+00" cType="1" res="-3.2347184605896473e-03" rms="4.6764263510704041e-01" purity="3.2339644432067871e-01" nType="-99"/>
        </Node>
      </Node>
    </BinaryTree>
    <BinaryTree type="DecisionTree" boostWeight="1.0000000000000000e+00" itree="17">
      <Node pos="s" depth="0" NCoef="0" IVar="5" Cut="1.2380952835083008e+00" cType="1" res="9.4764289679005742e-04" rms="4.9612066149711609e-01" purity="4.9892318248748779e-01" nType="0">
        <Node pos="l" depth="1" NCoef="0" IVar="24" Cut="4.5683268457651138e-02" cType="1" res="4.7048762440681458e-02" rms="4.9589934945106506e-01" purity="5.5055004358291626e-01" nType="0">
          <Node pos="l" depth="2" NCoef="0" IVar="-1" Cut="0.0000000000000000e+00" cType="1" res="8.9731835760176182e-04" rms="4.9174308776855469e-01" purity="5.8977377414703369e-01" nType="-99"/>
          <Node pos="r" depth="2" NCoef="0" IVar="-1" Cut="0.0000000000000000e+00" cType="1" res="-2.2884227801114321e-03" rms="4.6625125408172607e-01" purity="3.2026186585426331e-01" nType="-99"/>
        </Node>
        <Node pos="r" depth="1" NCoef="0" IVar="22" Cut="1.7952163219451904e+00" cType="1" res="-2.2140838205814362e-01" rms="4.3301454186439514e-01" purity="2.4991515278816223e-01" nType="0">
          <Node pos="l" depth="2" NCoef="0" IVar="-1" Cut="0.0000000000000000e+00" cType="1" res="-2.2415686398744583e-03" rms="3.9382192492485046e-01" purity="1.9208951294422150e-01" nType="-99"/>
          <Node pos="r" depth="2" NCoef="0" IVar="-1" Cut="0.0000000000000000e+00" cType="1" res="-3.3287364058196545e-03" rms="4.5816621184349060e-01" purity="2.9996874928474426e-01" nType="-99"/>
        </Node>
      </Node>
    </BinaryTree>
    <BinaryTree type="DecisionTree" boostWeight="1.0000000000000000e+00" itree="18">
      <Node pos="s" depth="0" NCoef="0" IVar="5" Cut="1.1904761791229248e+00" cType="1" res="4.5947534963488579e-03" rms="4.9560582637786865e-01" purity="5.0236988067626953e-01" nType="0">
        <Node pos="l" depth="1" NCoef="0" IVar="24" Cut="4.5670639723539352e-02" cType="1" res="5.3423974663019180e-02" rms="4.9489292502403259e-01" purity="5.5712980031967163e-01" nType="0">
          <Node pos="l" depth="2" NCoef="0" IVar="-1" Cut="0.0000000000000000e+00" cType="1" res="9.0428203111514449e-04" rms="4.8962390422821045e-01" purity="6.0061347484588623e-01" nType="-99"/>
          <Node pos="r" depth="2" NCoef="0" IVar="-1" Cut="0.0000000000000000e+00" cType="1" res="-2.4036467075347900e-03" rms="4.5758754014968872e-01" purity="2.9938185214996338e-01" nType="-99"/>
        </Node>
        <Node pos="r" depth="1" NCoef="0" IVar="22" Cut="1.9448467493057251e+00" cType="1" res="-2.2438716888427734e-01" rms="4.3049135804176331e-01" purity="2.4557606875896454e-01" nType="0">
          <Node pos="l" depth="2" NCoef="0" IVar="-1" Cut="0.0000000000000000e+00" cType="1" res="-3.1477431766688824e-03" rms="3.9175871014595032e-01" purity="1.8949294090270996e-01" nType="-99"/>
          <Node pos="r" depth="2" NCoef="0" IVar="-1" Cut="0.0000000000000000e+00" cType="1" res="-3.3010386396199465e-03" rms="4.6210807561874390e-01" purity="3.0938857793807983e-01" nType="-99"/>
        </Node>
      </Node>
    </BinaryTree>
    <BinaryTree type="DecisionTree" boostWeight="1.0000000000000000e+00" itree="19">
      <Node pos="s" depth="0" NCoef="0" IVar="5" Cut="1.2380952835083008e+00" cType="1" res="1.2293403036892414e-02" rms="4.9550840258598328e-01" purity="5.1018548011779785e-01" nType="0">
        <Node pos="l" depth="1" NCoef="0" IVar="24" Cut="4.5683268457651138e-02" cType="1" res="5.9624966233968735e-02" rms="4.9424651265144348e-01" purity="5.6359535455703735e-01" nType="0">
          <Node pos="l" depth="2" NCoef="0" IVar="-1" Cut="0.0000000000000000e+00" cType="1" res="9.1856566723436117e-04" rms="4.8944595456123352e-01" purity="6.0155254602432251e-01" nType="-99"/>
          <Node pos="r" depth="2" NCoef="0" IVar="-1" Cut="0.0000000000000000e+00" cType="1" res="-2.0410225261002779e-03" rms="4.7238606214523315e-01" purity="3.3701696991920471e-01" nType="-99"/>
        </Node>
        <Node pos="r" depth="1" NCoef="0" IVar="9" Cut="9.5238097012042999e-02" cType="1" res="-2.1822543442249298e-01" rms="4.3308374285697937e-01" purity="2.5006324052810669e-01" nType="0">
          <Node pos="l" depth="2" NCoef="0" IVar="-1" Cut="0.0000000000000000e+00" cType="1" res="-1.1543816654011607e-03" rms="4.7152897715568542e-01" purity="3.3341941237449646e-01" nType="-99"/>
          <Node pos="r" depth="2" NCoef="0" IVar="-1" Cut="0.0000000000000000e+00" cType="1" res="-3.3879440743476152e-03" rms="4.1212815046310425e-01" purity="2.1667766571044922e-01" nType="-99"/>
        </Node>
      </Node>
    </BinaryTree>
    <BinaryTree type="DecisionTree" boostWeight="1.0000000000000000e+00" itree="20">
      <Node pos="s" depth="0" NCoef="0" IVar="5" Cut="1.2380952835083008e+00" cType="1" res="-2.8363447636365891e-03" rms="4.9524855613708496e-01" purity="4.9468365311622620e-01" nType="0">
        <Node pos="l" depth="1" NCoef="0" IVar="24" Cut="5.3297147154808044e-02" cType="1" res="4.4796332716941833e-02" rms="4.9565136432647705e-01" purity="5.4885339736938477e-01" nType="0">
          <Node pos="l" depth="2" NCoef="0" IVar="-1" Cut="0.0000000000000000e+00" cType="1" res="7.0903700543567538e-04" rms="4.9215400218963623e-01" purity="5.8652800321578979e-01" nType="-99"/>
          <Node pos="r" depth="2" NCoef="0" IVar="-1" Cut="0.0000000000000000e+00" cType="1" res="-2.1425918675959110e-03" rms="4.5008707046508789e-01" purity="2.8276598453521729e-01" nType="-99"/>
        </Node>
        <Node pos="r" depth="1" NCoef="0" IVar="22" Cut="1.7951911687850952e+00" cType="1" res="-2.2537314891815186e-01" rms="4.2811641097068787e-01" purity="2.4160638451576233e-01" nType="0">
          <Node pos="l" depth="2" NCoef="0" IVar="-1" Cut="0.0000000000000000e+00" cType="1" res="-2.2493179421871901e-03" rms="3.8772737979888916e-01" purity="1.8453417718410492e-01" nType="-99"/>
          <Node pos="r" depth="2" NCoef="0" IVar="-1" Cut="0.0000000000000000e+00" cType="1" res="-3.3103758469223976e-03" rms="4.5481365919113159e-01" purity="2.9247629642486572e-01" nType="-99"/>
        </Node>
      </Node>
    </BinaryTree>
    <BinaryTree type="DecisionTree" boostWeight="1.0000000000000000e+00" itree="21">
      <Node pos="s" depth="0" NCoef="0" IVar="5" Cut="1.2380952835083008e+00" cType="1" res="9.0662362053990364e-03" rms="4.9493891000747681e-01" purity="5.0647825002670288e-01" nType="0">
        <Node pos="l" depth="1" NCoef="0" IVar="24" Cut="3.8040939718484879e-02" cType="1" res="5.7696234434843063e-02" rms="4.9407961964607239e-01" purity="5.6201088428497314e-01" nType="0">
          <Node pos="l" depth="2" NCoef="0" IVar="-1" Cut="0.0000000000000000e+00" cType="1" res="1.1692390544340014e-03" rms="4.8756703734397888e-01" purity="6.1039513349533081e-01" nType="-99"/>
          <Node pos="r" depth="2" NCoef="0" IVar="-1" Cut="0.0000000000000000e+00" cType="1" res="-1.9146321574226022e-03" rms="4.7267732024192810e-01" purity="3.4014821052551270e-01" nType="-99"/>
        </Node>
        <Node pos="r" depth="1" NCoef="0" IVar="22" Cut="1.3463515043258667e+00" cType="1" res="-2.1534137427806854e-01" rms="4.3314492702484131e-01" purity="2.5021794438362122e-01" nType="0">
          <Node pos="l" depth="2" NCoef="0" IVar="-1" Cut="0.0000000000000000e+00" cType="1" res="-2.4584333878010511e-03" rms="3.8781407475471497e-01" purity="1.8470862507820129e-01" nType="-99"/>
          <Node pos="r" depth="2" NCoef="0" IVar="-1" Cut="0.0000000000000000e+00" cType="1" res="-3.5251535009592772e-03" rms="4.5135939121246338e-01" purity="2.8509694337844849e-01" nType="-99"/>
        </Node>
      </Node>
    </BinaryTree>
    <BinaryTree type="DecisionTree" boostWeight="1.0000000000000000e+00" itree="22">
      <Node pos="s" depth="0" NCoef="0" IVar="5" Cut="1.2380952835083008e+00" cType="1" res="1.3300547143444419e-03" rms="4.9516776204109192e-01" purity="4.9913683533668518e-01" nType="0">
        <Node pos="l" depth="1" NCoef="0" IVar="24" Cut="3.8058869540691376e-02" cType="1" res="4.5835528522729874e-02" rms="4.9551180005073547e-01" purity="5.5058211088180542e-01" nType="0">
          <Node pos="l" depth="2" NCoef="0" IVar="-1" Cut="0.0000000000000000e+00" cType="1" res="7.5364758959040046e-04" rms="4.9122387170791626e-01" purity="5.9284913539886475e-01" nType="-99"/>
          <Node pos="r" depth="2" NCoef="0" IVar="-1" Cut="0.0000000000000000e+00" cType="1" res="-1.8424104200676084e-03" rms="4.7537496685981750e-01" purity="3.4824049472808838e-01" nType="-99"/>
        </Node>
        <Node pos="r" depth="1" NCoef="0" IVar="22" Cut="1.9447898864746094e+00" cType="1" res="-2.1547059714794159e-01" rms="4.3229565024375916e-01" purity="2.4853004515171051e-01" nType="0">
          <Node pos="l" depth="2" NCoef="0" IVar="-1" Cut="0.0000000000000000e+00" cType="1" res="-1.7249197699129581e-03" rms="3.9462411403656006e-01" purity="1.9307677447795868e-01" nType="-99"/>
          <Node pos="r" depth="2" NCoef="0" IVar="-1" Cut="0.0000000000000000e+00" cType="1" res="-3.0517999548465014e-03" rms="4.6170219779014587e-01" purity="3.0847105383872986e-01" nType="-99"/>
        </Node>
      </Node>
    </BinaryTree>
    <BinaryTree type="DecisionTree" boostWeight="1.0000000000000000e+00" itree="23">
      <Node pos="s" depth="0" NCoef="0" IVar="5" Cut="1.2380952835083008e+00" cType="1" res="-4.7617629170417786e-03" rms="4.9498790502548218e-01" purity="4.9299547076225281e-01" nType="0">
        <Node pos="l" depth="1" NCoef="0" IVar="24" Cut="6.0911025851964951e-02" cType="1" res="3.7076197564601898e-02" rms="4.9609720706939697e-01" purity="5.4186975955963135e-01" nType="0">
          <Node pos="l" depth="2" NCoef="0" IVar="-1" Cut="0.0000000000000000e+00" cType="1" res="5.7128118351101875e-04" rms="4.9399983882904053e-01" purity="5.7391273975372314e-01" nType="-99"/>
          <Node pos="r" depth="2" NCoef="0" IVar="-1" Cut="0.0000000000000000e+00" cType="1" res="-2.8380618896335363e-03" rms="4.3269890546798706e-01" purity="2.4944478273391724e-01" nType="-99"/>
        </Node>
        <Node pos="r" depth="1" NCoef="0" IVar="22" Cut="1.9447948932647705e+00" cType="1" res="-2.1315318346023560e-01" rms="4.3288722634315491e-01" purity="2.4955704808235168e-01" nType="0">
          <Node pos="l" depth="2" NCoef="0" IVar="-1" Cut="0.0000000000000000e+00" cType="1" res="-2.4622664786875248e-03" rms="3.9282190799713135e-01" purity="1.9084390997886658e-01" nType="-99"/>
          <Node pos="r" depth="2" NCoef="0" IVar="-1" Cut="0.0000000000000000e+00" cType="1" res="-3.2762375194579363e-03" rms="4.6171250939369202e-01" purity="3.0859208106994629e-01" nType="-99"/>
        </Node>
      </Node>
    </BinaryTree>
    <BinaryTree type="DecisionTree" boostWeight="1.0000000000000000e+00" itree="24">
      <Node pos="s" depth="0" NCoef="0" IVar="5" Cut="1.2380952835083008e+00" cType="1" res="-2.9488410800695419e-03" rms="4.9423694610595703e-01" purity="4.9412962794303894e-01" nType="0">
        <Node pos="l" depth="1" NCoef="0" IVar="24" Cut="3.8069389760494232e-02" cType="1" res="4.5166108757257462e-02" rms="4.9502396583557129e-01" purity="5.4991787672042847e-01" nType="0">
          <Node pos="l" depth="2" NCoef="0" IVar="-1" Cut="0.0000000000000000e+00" cType="1" res="1.0573100298643112e-03" rms="4.8955059051513672e-01" purity="6.0126972198486328e-01" nType="-99"/>
          <Node pos="r" depth="2" NCoef="0" IVar="-1" Cut="0.0000000000000000e+00" cType="1" res="-1.6086647519841790e-03" rms="4.6583557128906250e-01" purity="3.2153978943824768e-01" nType="-99"/>
        </Node>
        <Node pos="r" depth="1" NCoef="0" IVar="22" Cut="1.9448143243789673e+00" cType="1" res="-2.2633609175682068e-01" rms="4.2427024245262146e-01" purity="2.3511697351932526e-01" nType="0">
          <Node pos="l" depth="2" NCoef="0" IVar="-1" Cut="0.0000000000000000e+00" cType="1" res="-2.0998960826545954e-03" rms="3.8458451628684998e-01" purity="1.8061555922031403e-01" nType="-99"/>
          <Node pos="r" depth="2" NCoef="0" IVar="-1" Cut="0.0000000000000000e+00" cType="1" res="-3.5035214386880398e-03" rms="4.5738351345062256e-01" purity="2.9838928580284119e-01" nType="-99"/>
        </Node>
      </Node>
    </BinaryTree>
    <BinaryTree type="DecisionTree" boostWeight="1.0000000000000000e+00" itree="25">
      <Node pos="s" depth="0" NCoef="0" IVar="5" Cut="1.1904761791229248e+00" cType="1" res="-2.0977572421543300e-04" rms="4.9441504478454590e-01" purity="4.9730578064918518e-01" nType="0">
        <Node pos="l" depth="1" NCoef="0" IVar="24" Cut="4.5683268457651138e-02" cType="1" res="4.4791717082262039e-02" rms="4.9518212676048279e-01" purity="5.5002111196517944e-01" nType="0">
          <Node pos="l" depth="2" NCoef="0" IVar="-1" Cut="0.0000000000000000e+00" cType="1" res="6.9022848038002849e-04" rms="4.9161571264266968e-01" purity="5.9039324522018433e-01" nType="-99"/>
          <Node pos="r" depth="2" NCoef="0" IVar="-1" Cut="0.0000000000000000e+00" cType="1" res="-2.0238712895661592e-03" rms="4.6335542201995850e-01" purity="3.1355649232864380e-01" nType="-99"/>
        </Node>
        <Node pos="r" depth="1" NCoef="0" IVar="15" Cut="9.3320900201797485e-01" cType="1" res="-2.1944139897823334e-01" rms="4.2757427692413330e-01" purity="2.4049524962902069e-01" nType="0">
          <Node pos="l" depth="2" NCoef="0" IVar="-1" Cut="0.0000000000000000e+00" cType="1" res="-3.1018825247883797e-03" rms="4.6959620714187622e-01" purity="3.2771062850952148e-01" nType="-99"/>
          <Node pos="r" depth="2" NCoef="0" IVar="-1" Cut="0.0000000000000000e+00" cType="1" res="-3.6817679647356272e-03" rms="4.0067160129547119e-01" purity="2.0087234675884247e-01" nType="-99"/>
        </Node>
      </Node>
    </BinaryTree>
    <BinaryTree type="DecisionTree" boostWeight="1.0000000000000000e+00" itree="26">
      <Node pos="s" depth="0" NCoef="0" IVar="5" Cut="1.2380952835083008e+00" cType="1" res="2.1034269593656063e-03" rms="4.9427923560142517e-01" purity="4.9954760074615479e-01" nType="0">
        <Node pos="l" depth="1" NCoef="0" IVar="31" Cut="8.6982685327529907e-01" cType="1" res="4.7993719577789307e-02" rms="4.9491888284683228e-01" purity="5.5358672142028809e-01" nType="0">
          <Node pos="l" depth="2" NCoef="0" IVar="-1" Cut="0.0000000000000000e+00" cType="1" res="-8.3696795627474785e-04" rms="4.9135890603065491e-01" purity="4.2575368285179138e-01" nType="-99"/>
          <Node pos="r" depth="2" NCoef="0" IVar="-1" Cut="0.0000000000000000e+00" cType="1" res="1.0532507440075278e-03" rms="4.8291295766830444e-01" purity="6.2775611877441406e-01" nType="-99"/>
        </Node>
        <Node pos="r" depth="1" NCoef="0" IVar="22" Cut="1.7953424453735352e+00" cType="1" res="-2.1825118362903595e-01" rms="4.2732354998588562e-01" purity="2.4006430804729462e-01" nType="0">
          <Node pos="l" depth="2" NCoef="0" IVar="-1" Cut="0.0000000000000000e+00" cType="1" res="-2.9344731010496616e-03" rms="3.8473540544509888e-01" purity="1.8089634180068970e-01" nType="-99"/>
          <Node pos="r" depth="2" NCoef="0" IVar="-1" Cut="0.0000000000000000e+00" cType="1" res="-3.4789931960403919e-03" rms="4.5591762661933899e-01" purity="2.9505127668380737e-01" nType="-99"/>
        </Node>
      </Node>
    </BinaryTree>
    <BinaryTree type="DecisionTree" boostWeight="1.0000000000000000e+00" itree="27">
      <Node pos="s" depth="0" NCoef="0" IVar="5" Cut="1.1904761791229248e+00" cType="1" res="-8.2107662456110120e-04" rms="4.9394753575325012e-01" purity="4.9620592594146729e-01" nType="0">
        <Node pos="l" depth="1" NCoef="0" IVar="24" Cut="4.5603092759847641e-02" cType="1" res="4.1296381503343582e-02" rms="4.9503591656684875e-01" purity="5.4657250642776489e-01" nType="0">
          <Node pos="l" depth="2" NCoef="0" IVar="-1" Cut="0.0000000000000000e+00" cType="1" res="7.3689810233190656e-04" rms="4.9114623665809631e-01" purity="5.9246468544006348e-01" nType="-99"/>
          <Node pos="r" depth="2" NCoef="0" IVar="-1" Cut="0.0000000000000000e+00" cType="1" res="-2.2210672032088041e-03" rms="4.5495420694351196e-01" purity="2.9390063881874084e-01" nType="-99"/>
        </Node>
        <Node pos="r" depth="1" NCoef="0" IVar="22" Cut="2.0944340229034424e+00" cType="1" res="-2.0678481459617615e-01" rms="4.3315660953521729e-01" purity="2.4990186095237732e-01" nType="0">
          <Node pos="l" depth="2" NCoef="0" IVar="-1" Cut="0.0000000000000000e+00" cType="1" res="-3.4764446318149567e-03" rms="4.0003496408462524e-01" purity="2.0026354491710663e-01" nType="-99"/>
          <Node pos="r" depth="2" NCoef="0" IVar="-1" Cut="0.0000000000000000e+00" cType="1" res="-2.8860184829682112e-03" rms="4.6511411666870117e-01" purity="3.1686109304428101e-01" nType="-99"/>
        </Node>
      </Node>
    </BinaryTree>
    <BinaryTree type="DecisionTree" boostWeight="1.0000000000000000e+00" itree="28">
      <Node pos="s" depth="0" NCoef="0" IVar="5" Cut="1.2380952835083008e+00" cType="1" res="4.7688703052699566e-03" rms="4.9390169978141785e-01" purity="5.0192201137542725e-01" nType="0">
        <Node pos="l" depth="1" NCoef="0" IVar="24" Cut="4.5670639723539352e-02" cType="1" res="4.6285104006528854e-02" rms="4.9459376931190491e-01" purity="5.5199593305587769e-01" nType="0">
          <Node pos="l" depth="2" NCoef="0" IVar="-1" Cut="0.0000000000000000e+00" cType="1" res="8.2965724868699908e-04" rms="4.9087443947792053e-01" purity="5.9400290250778198e-01" nType="-99"/>
          <Node pos="r" depth="2" NCoef="0" IVar="-1" Cut="0.0000000000000000e+00" cType="1" res="-2.2402072791010141e-03" rms="4.5958238840103149e-01" purity="3.0468836426734924e-01" nType="-99"/>
        </Node>
        <Node pos="r" depth="1" NCoef="0" IVar="22" Cut="2.0944395065307617e+00" cType="1" res="-1.9947481155395508e-01" rms="4.3632367253303528e-01" purity="2.5557783246040344e-01" nType="0">
          <Node pos="l" depth="2" NCoef="0" IVar="-1" Cut="0.0000000000000000e+00" cType="1" res="-3.3217885065823793e-03" rms="4.0751412510871887e-01" purity="2.1054586768150330e-01" nType="-99"/>
          <Node pos="r" depth="2" NCoef="0" IVar="-1" Cut="0.0000000000000000e+00" cType="1" res="-2.8623377438634634e-03" rms="4.6455162763595581e-01" purity="3.1545352935791016e-01" nType="-99"/>
        </Node>
      </Node>
    </BinaryTree>
    <BinaryTree type="DecisionTree" boostWeight="1.0000000000000000e+00" itree="29">
      <Node pos="s" depth="0" NCoef="0" IVar="5" Cut="1.2380952835083008e+00" cType="1" res="1.2072468176484108e-02" rms="4.9348989129066467e-01" purity="5.0891304016113281e-01" nType="0">
        <Node pos="l" depth="1" NCoef="0" IVar="23" Cut="3.0436214059591293e-02" cType="1" res="5.6632559746503830e-02" rms="4.9346002936363220e-01" purity="5.6255799531936646e-01" nType="0">
          <Node pos="l" depth="2" NCoef="0" IVar="-1" Cut="0.0000000000000000e+00" cType="1" res="1.0752332163974643e-03" rms="4.8744180798530579e-01" purity="5.9731435775756836e-01" nType="-99"/>
          <Node pos="r" depth="2" NCoef="0" IVar="-1" Cut="0.0000000000000000e+00" cType="1" res="-1.9682617858052254e-03" rms="4.7007486224174500e-01" purity="3.3040329813957214e-01" nType="-99"/>
        </Node>
        <Node pos="r" depth="1" NCoef="0" IVar="9" Cut="9.5238097012042999e-02" cType="1" res="-2.0103065669536591e-01" rms="4.3447020649909973e-01" purity="2.5236237049102783e-01" nType="0">
          <Node pos="l" depth="2" NCoef="0" IVar="-1" Cut="0.0000000000000000e+00" cType="1" res="-9.5886969938874245e-04" rms="4.7705742716789246e-01" purity="3.4999138116836548e-01" nType="-99"/>
          <Node pos="r" depth="2" NCoef="0" IVar="-1" Cut="0.0000000000000000e+00" cType="1" res="-3.5149471368640661e-03" rms="4.1134342551231384e-01" purity="2.1523199975490570e-01" nType="-99"/>
        </Node>
      </Node>
    </BinaryTree>
    <BinaryTree type="DecisionTree" boostWeight="1.0000000000000000e+00" itree="30">
      <Node pos="s" depth="0" NCoef="0" IVar="5" Cut="1.2380952835083008e+00" cType="1" res="6.4672512235119939e-04" rms="4.9375581741333008e-01" purity="4.9765002727508545e-01" nType="0">
        <Node pos="l" depth="1" NCoef="0" IVar="31" Cut="8.7993156909942627e-01" cType="1" res="4.0914751589298248e-02" rms="4.9511632323265076e-01" purity="5.4731041193008423e-01" nType="0">
          <Node pos="l" depth="2" NCoef="0" IVar="-1" Cut="0.0000000000000000e+00" cType="1" res="-7.5505417771637440e-04" rms="4.9146619439125061e-01" purity="4.3059065937995911e-01" nType="-99"/>
          <Node pos="r" depth="2" NCoef="0" IVar="-1" Cut="0.0000000000000000e+00" cType="1" res="1.1002663522958755e-03" rms="4.8427307605743408e-01" purity="6.2232506275177002e-01" nType="-99"/>
        </Node>
        <Node pos="r" depth="1" NCoef="0" IVar="22" Cut="2.2439930438995361e+00" cType="1" res="-1.9197121262550354e-01" rms="4.3874967098236084e-01" purity="2.6010495424270630e-01" nType="0">
          <Node pos="l" depth="2" NCoef="0" IVar="-1" Cut="0.0000000000000000e+00" cType="1" res="-1.8919906578958035e-03" rms="4.0987265110015869e-01" purity="2.1394835412502289e-01" nType="-99"/>
          <Node pos="r" depth="2" NCoef="0" IVar="-1" Cut="0.0000000000000000e+00" cType="1" res="-2.3628496564924717e-03" rms="4.7188928723335266e-01" purity="3.3541694283485413e-01" nType="-99"/>
        </Node>
      </Node>
    </BinaryTree>
    <BinaryTree type="DecisionTree" boostWeight="1.0000000000000000e+00" itree="31">
      <Node pos="s" depth="0" NCoef="0" IVar="5" Cut="1.2380952835083008e+00" cType="1" res="-1.5998365124687552e-03" rms="4.9347892403602600e-01" purity="4.9547216296195984e-01" nType="0">
        <Node pos="l" depth="1" NCoef="0" IVar="31" Cut="8.6982685327529907e-01" cType="1" res="3.9954230189323425e-02" rms="4.9516522884368896e-01" purity="5.4654258489608765e-01" nType="0">
          <Node pos="l" depth="2" NCoef="0" IVar="-1" Cut="0.0000000000000000e+00" cType="1" res="-9.6206850139424205e-04" rms="4.8968708515167236e-01" purity="4.1877204179763794e-01" nType="-99"/>
          <Node pos="r" depth="2" NCoef="0" IVar="-1" Cut="0.0000000000000000e+00" cType="1" res="9.6892798319458961e-04" rms="4.8536652326583862e-01" purity="6.1768972873687744e-01" nType="-99"/>
        </Node>
        <Node pos="r" depth="1" NCoef="0" IVar="9" Cut="9.5238097012042999e-02" cType="1" res="-2.0259527862071991e-01" rms="4.3209505081176758e-01" purity="2.4844659864902496e-01" nType="0">
          <Node pos="l" depth="2" NCoef="0" IVar="-1" Cut="0.0000000000000000e+00" cType="1" res="-9.7986101172864437e-04" rms="4.7500267624855042e-01" purity="3.4328690171241760e-01" nType="-99"/>
          <Node pos="r" depth="2" NCoef="0" IVar="-1" Cut="0.0000000000000000e+00" cType="1" res="-2.7260407805442810e-03" rms="4.1058027744293213e-01" purity="2.1431387960910797e-01" nType="-99"/>
        </Node>
      </Node>
    </BinaryTree>
    <BinaryTree type="DecisionTree" boostWeight="1.0000000000000000e+00" itree="32">
      <Node pos="s" depth="0" NCoef="0" IVar="5" Cut="1.1904761791229248e+00" cType="1" res="1.7923228442668915e-03" rms="4.9302887916564941e-01" purity="4.9851396679878235e-01" nType="0">
        <Node pos="l" depth="1" NCoef="0" IVar="24" Cut="3.8069389760494232e-02" cType="1" res="4.4537615031003952e-02" rms="4.9436938762664795e-01" purity="5.5102276802062988e-01" nType="0">
          <Node pos="l" depth="2" NCoef="0" IVar="-1" Cut="0.0000000000000000e+00" cType="1" res="1.0361968306824565e-03" rms="4.9011692404747009e-01" purity="5.9720146656036377e-01" nType="-99"/>
          <Node pos="r" depth="2" NCoef="0" IVar="-1" Cut="0.0000000000000000e+00" cType="1" res="-1.8104062182828784e-03" rms="4.7030282020568848e-01" purity="3.3555993437767029e-01" nType="-99"/>
        </Node>
        <Node pos="r" depth="1" NCoef="0" IVar="14" Cut="1.1024844646453857e+00" cType="1" res="-2.0245571434497833e-01" rms="4.3163073062896729e-01" purity="2.4761356413364410e-01" nType="0">
          <Node pos="l" depth="2" NCoef="0" IVar="-1" Cut="0.0000000000000000e+00" cType="1" res="-2.9006865806877613e-03" rms="4.6383309364318848e-01" purity="3.1334140896797180e-01" nType="-99"/>
          <Node pos="r" depth="2" NCoef="0" IVar="-1" Cut="0.0000000000000000e+00" cType="1" res="-2.9387995600700378e-03" rms="4.0536671876907349e-01" purity="2.0740418136119843e-01" nType="-99"/>
        </Node>
      </Node>
    </BinaryTree>
    <BinaryTree type="DecisionTree" boostWeight="1.0000000000000000e+00" itree="33">
      <Node pos="s" depth="0" NCoef="0" IVar="5" Cut="1.1904761791229248e+00" cType="1" res="1.0622908594086766e-03" rms="4.9278086423873901e-01" purity="4.9770677089691162e-01" nType="0">
        <Node pos="l" depth="1" NCoef="0" IVar="31" Cut="8.5224044322967529e-01" cType="1" res="4.4628683477640152e-02" rms="4.9429231882095337e-01" purity="5.5155211687088013e-01" nType="0">
          <Node pos="l" depth="2" NCoef="0" IVar="-1" Cut="0.0000000000000000e+00" cType="1" res="-9.5011759549379349e-04" rms="4.8720890283584595e-01" purity="4.0683895349502563e-01" nType="-99"/>
          <Node pos="r" depth="2" NCoef="0" IVar="-1" Cut="0.0000000000000000e+00" cType="1" res="9.3807379016652703e-04" rms="4.8541447520256042e-01" purity="6.1516797542572021e-01" nType="-99"/>
        </Node>
        <Node pos="r" depth="1" NCoef="0" IVar="7" Cut="2.3017788696289062e+02" cType="1" res="-2.0249053835868835e-01" rms="4.3076744675636292e-01" purity="2.4612832069396973e-01" nType="0">
          <Node pos="l" depth="2" NCoef="0" IVar="-1" Cut="0.0000000000000000e+00" cType="1" res="-1.6373645048588514e-03" rms="4.6146619319915771e-01" purity="3.0776038765907288e-01" nType="-99"/>
          <Node pos="r" depth="2" NCoef="0" IVar="-1" Cut="0.0000000000000000e+00" cType="1" res="-4.1435980238020420e-03" rms="4.0219140052795410e-01" purity="2.0266059041023254e-01" nType="-99"/>
        </Node>
      </Node>
    </BinaryTree>
    <BinaryTree type="DecisionTree" boostWeight="1.0000000000000000e+00" itree="34">
      <Node pos="s" depth="0" NCoef="0" IVar="5" Cut="1.2380952835083008e+00" cType="1" res="1.1916067451238632e-02" rms="4.9231511354446411e-01" purity="5.0849252939224243e-01" nType="0">
        <Node pos="l" depth="1" NCoef="0" IVar="24" Cut="3.8058869540691376e-02" cType="1" res="5.6807179003953934e-02" rms="4.9272021651268005e-01" purity="5.6383240222930908e-01" nType="0">
          <Node pos="l" depth="2" NCoef="0" IVar="-1" Cut="0.0000000000000000e+00" cType="1" res="1.4008267316967249e-03" rms="4.8730087280273438e-01" purity="6.1037570238113403e-01" nType="-99"/>
          <Node pos="r" depth="2" NCoef="0" IVar="-1" Cut="0.0000000000000000e+00" cType="1" res="-1.4331190614029765e-03" rms="4.7379508614540100e-01" purity="3.4633299708366394e-01" nType="-99"/>
        </Node>
        <Node pos="r" depth="1" NCoef="0" IVar="22" Cut="1.6457688808441162e+00" cType="1" res="-2.0069701969623566e-01" rms="4.3097028136253357e-01" purity="2.4639262259006500e-01" nType="0">
          <Node pos="l" depth="2" NCoef="0" IVar="-1" Cut="0.0000000000000000e+00" cType="1" res="-3.6065166350454092e-03" rms="3.9176216721534729e-01" purity="1.8972645699977875e-01" nType="-99"/>
          <Node pos="r" depth="2" NCoef="0" IVar="-1" Cut="0.0000000000000000e+00" cType="1" res="-3.1560359057039022e-03" rms="4.5337325334548950e-01" purity="2.8954702615737915e-01" nType="-99"/>
        </Node>
      </Node>
    </BinaryTree>
    <BinaryTree type="DecisionTree" boostWeight="1.0000000000000000e+00" itree="35">
      <Node pos="s" depth="0" NCoef="0" IVar="5" Cut="1.1904761791229248e+00" cType="1" res="9.1734845191240311e-03" rms="4.9253416061401367e-01" purity="5.0582182407379150e-01" nType="0">
        <Node pos="l" depth="1" NCoef="0" IVar="31" Cut="8.8581013679504395e-01" cType="1" res="5.0362497568130493e-02" rms="4.9347010254859924e-01" purity="5.5785816907882690e-01" nType="0">
          <Node pos="l" depth="2" NCoef="0" IVar="-1" Cut="0.0000000000000000e+00" cType="1" res="-7.6758896466344595e-04" rms="4.9246022105216980e-01" purity="4.4052043557167053e-01" nType="-99"/>
          <Node pos="r" depth="2" NCoef="0" IVar="-1" Cut="0.0000000000000000e+00" cType="1" res="1.1506924638524652e-03" rms="4.7912627458572388e-01" purity="6.4137583971023560e-01" nType="-99"/>
        </Node>
        <Node pos="r" depth="1" NCoef="0" IVar="22" Cut="1.9448467493057251e+00" cType="1" res="-1.8556244671344757e-01" rms="4.3850174546241760e-01" purity="2.5980108976364136e-01" nType="0">
          <Node pos="l" depth="2" NCoef="0" IVar="-1" Cut="0.0000000000000000e+00" cType="1" res="-4.1416529566049576e-03" rms="4.0664750337600708e-01" purity="2.0953221619129181e-01" nType="-99"/>
          <Node pos="r" depth="2" NCoef="0" IVar="-1" Cut="0.0000000000000000e+00" cType="1" res="-2.5844604242593050e-03" rms="4.6305438876152039e-01" purity="3.1219685077667236e-01" nType="-99"/>
        </Node>
      </Node>
    </BinaryTree>
    <BinaryTree type="DecisionTree" boostWeight="1.0000000000000000e+00" itree="36">
      <Node pos="s" depth="0" NCoef="0" IVar="5" Cut="1.2380952835083008e+00" cType="1" res="7.4890158139169216e-03" rms="4.9202716350555420e-01" purity="5.0386387109756470e-01" nType="0">
        <Node pos="l" depth="1" NCoef="0" IVar="24" Cut="4.5683268457651138e-02" cType="1" res="4.9723960459232330e-02" rms="4.9321082234382629e-01" purity="5.5720633268356323e-01" nType="0">
          <Node pos="l" depth="2" NCoef="0" IVar="-1" Cut="0.0000000000000000e+00" cType="1" res="8.0605148104950786e-04" rms="4.8919847607612610e-01" purity="6.0064804553985596e-01" nType="-99"/>
          <Node pos="r" depth="2" NCoef="0" IVar="-1" Cut="0.0000000000000000e+00" cType="1" res="-2.2081700153648853e-03" rms="4.6047079563140869e-01" purity="3.0748569965362549e-01" nType="-99"/>
        </Node>
        <Node pos="r" depth="1" NCoef="0" IVar="22" Cut="2.0943884849548340e+00" cType="1" res="-1.9285516440868378e-01" rms="4.3354299664497375e-01" purity="2.5083050131797791e-01" nType="0">
          <Node pos="l" depth="2" NCoef="0" IVar="-1" Cut="0.0000000000000000e+00" cType="1" res="-2.8694043867290020e-03" rms="4.0408664941787720e-01" purity="2.0590500533580780e-01" nType="-99"/>
          <Node pos="r" depth="2" NCoef="0" IVar="-1" Cut="0.0000000000000000e+00" cType="1" res="-2.7968003414571285e-03" rms="4.6358320116996765e-01" purity="3.1296458840370178e-01" nType="-99"/>
        </Node>
      </Node>
    </BinaryTree>
    <BinaryTree type="DecisionTree" boostWeight="1.0000000000000000e+00" itree="37">
      <Node pos="s" depth="0" NCoef="0" IVar="5" Cut="1.2380952835083008e+00" cType="1" res="-1.2019277783110738e-03" rms="4.9217730760574341e-01" purity="4.9533209204673767e-01" nType="0">
        <Node pos="l" depth="1" NCoef="0" IVar="23" Cut="3.7990707904100418e-02" cType="1" res="4.0286269038915634e-02" rms="4.9447521567344666e-01" purity="5.4820841550827026e-01" nType="0">
          <Node pos="l" depth="2" NCoef="0" IVar="-1" Cut="0.0000000000000000e+00" cType="1" res="6.5348076168447733e-04" rms="4.8980349302291870e-01" purity="5.8157587051391602e-01" nType="-99"/>
          <Node pos="r" depth="2" NCoef="0" IVar="-1" Cut="0.0000000000000000e+00" cType="1" res="-2.0716406870633364e-03" rms="4.4931328296661377e-01" purity="2.8153643012046814e-01" nType="-99"/>
        </Node>
        <Node pos="r" depth="1" NCoef="0" IVar="22" Cut="1.7951911687850952e+00" cType="1" res="-1.9876490533351898e-01" rms="4.2920199036598206e-01" purity="2.4354004859924316e-01" nType="0">
          <Node pos="l" depth="2" NCoef="0" IVar="-1" Cut="0.0000000000000000e+00" cType="1" res="-2.7951302472501993e-03" rms="3.9120692014694214e-01" purity="1.8895637989044189e-01" nType="-99"/>
          <Node pos="r" depth="2" NCoef="0" IVar="-1" Cut="0.0000000000000000e+00" cType="1" res="-3.0460807029157877e-03" rms="4.5477065443992615e-01" purity="2.9285758733749390e-01" nType="-99"/>
        </Node>
      </Node>
    </BinaryTree>
    <BinaryTree type="DecisionTree" boostWeight="1.0000000000000000e+00" itree="38">
      <Node pos="s" depth="0" NCoef="0" IVar="5" Cut="1.2380952835083008e+00" cType="1" res="4.8512415960431099e-03" rms="4.9182325601577759e-01" purity="5.0073313713073730e-01" nType="0">
        <Node pos="l" depth="1" NCoef="0" IVar="24" Cut="4.5683268457651138e-02" cType="1" res="4.4393360614776611e-02" rms="4.9347507953643799e-01" purity="5.5209195613861084e-01" nType="0">
          <Node pos="l" depth="2" NCoef="0" IVar="-1" Cut="0.0000000000000000e+00" cType="1" res="8.9079525787383318e-04" rms="4.8969060182571411e-01" purity="5.9793645143508911e-01" nType="-99"/>
          <Node pos="r" depth="2" NCoef="0" IVar="-1" Cut="0.0000000000000000e+00" cType="1" res="-2.1340032108128071e-03" rms="4.5496261119842529e-01" purity="2.9476013779640198e-01" nType="-99"/>
        </Node>
        <Node pos="r" depth="1" NCoef="0" IVar="22" Cut="1.9447948932647705e+00" cType="1" res="-1.7950251698493958e-01" rms="4.3934747576713562e-01" purity="2.6128777861595154e-01" nType="0">
          <Node pos="l" depth="2" NCoef="0" IVar="-1" Cut="0.0000000000000000e+00" cType="1" res="-2.8925382066518068e-03" rms="4.0846326947212219e-01" purity="2.1205626428127289e-01" nType="-99"/>
          <Node pos="r" depth="2" NCoef="0" IVar="-1" Cut="0.0000000000000000e+00" cType="1" res="-2.6856409385800362e-03" rms="4.6346470713615417e-01" purity="3.1290853023529053e-01" nType="-99"/>
        </Node>
      </Node>
    </BinaryTree>
    <BinaryTree type="DecisionTree" boostWeight="1.0000000000000000e+00" itree="39">
      <Node pos="s" depth="0" NCoef="0" IVar="5" Cut="1.2380952835083008e+00" cType="1" res="6.3556102104485035e-03" rms="4.9097096920013428e-01" purity="5.0234246253967285e-01" nType="0">
        <Node pos="l" depth="1" NCoef="0" IVar="24" Cut="4.5603092759847641e-02" cType="1" res="5.2363589406013489e-02" rms="4.9260494112968445e-01" purity="5.6035220623016357e-01" nType="0">
          <Node pos="l" depth="2" NCoef="0" IVar="-1" Cut="0.0000000000000000e+00" cType="1" res="1.0037047322839499e-03" rms="4.8843276500701904e-01" purity="6.0384398698806763e-01" nType="-99"/>
          <Node pos="r" depth="2" NCoef="0" IVar="-1" Cut="0.0000000000000000e+00" cType="1" res="-1.7739695031195879e-03" rms="4.6385648846626282e-01" purity="3.1566822528839111e-01" nType="-99"/>
        </Node>
        <Node pos="r" depth="1" NCoef="0" IVar="22" Cut="2.0943939685821533e+00" cType="1" res="-2.1028487384319305e-01" rms="4.2021968960762024e-01" purity="2.2918878495693207e-01" nType="0">
          <Node pos="l" depth="2" NCoef="0" IVar="-1" Cut="0.0000000000000000e+00" cType="1" res="-2.8420833405107260e-03" rms="3.9214986562728882e-01" purity="1.9021742045879364e-01" nType="-99"/>
          <Node pos="r" depth="2" NCoef="0" IVar="-1" Cut="0.0000000000000000e+00" cType="1" res="-3.1032685656100512e-03" rms="4.4959020614624023e-01" purity="2.8185188770294189e-01" nType="-99"/>
        </Node>
      </Node>
    </BinaryTree>
    <BinaryTree type="DecisionTree" boostWeight="1.0000000000000000e+00" itree="40">
      <Node pos="s" depth="0" NCoef="0" IVar="5" Cut="1.1904761791229248e+00" cType="1" res="8.5067935287952423e-04" rms="4.9164599180221558e-01" purity="4.9734258651733398e-01" nType="0">
        <Node pos="l" depth="1" NCoef="0" IVar="23" Cut="3.7990707904100418e-02" cType="1" res="3.9320826530456543e-02" rms="4.9400025606155396e-01" purity="5.4771822690963745e-01" nType="0">
          <Node pos="l" depth="2" NCoef="0" IVar="-1" Cut="0.0000000000000000e+00" cType="1" res="7.3578662704676390e-04" rms="4.8942786455154419e-01" purity="5.8049666881561279e-01" nType="-99"/>
          <Node pos="r" depth="2" NCoef="0" IVar="-1" Cut="0.0000000000000000e+00" cType="1" res="-1.2750058667734265e-03" rms="4.5359250903129578e-01" purity="2.9022362828254700e-01" nType="-99"/>
        </Node>
        <Node pos="r" depth="1" NCoef="0" IVar="9" Cut="9.5238097012042999e-02" cType="1" res="-1.8827198445796967e-01" rms="4.3274143338203430e-01" purity="2.4969147145748138e-01" nType="0">
          <Node pos="l" depth="2" NCoef="0" IVar="-1" Cut="0.0000000000000000e+00" cType="1" res="-1.4575521927326918e-03" rms="4.6822062134742737e-01" purity="3.2460567355155945e-01" nType="-99"/>
          <Node pos="r" depth="2" NCoef="0" IVar="-1" Cut="0.0000000000000000e+00" cType="1" res="-3.3490334171801805e-03" rms="4.1505864262580872e-01" purity="2.2091184556484222e-01" nType="-99"/>
        </Node>
      </Node>
    </BinaryTree>
    <BinaryTree type="DecisionTree" boostWeight="1.0000000000000000e+00" itree="41">
      <Node pos="s" depth="0" NCoef="0" IVar="5" Cut="1.1904761791229248e+00" cType="1" res="2.5477325543761253e-03" rms="4.9102711677551270e-01" purity="4.9842166900634766e-01" nType="0">
        <Node pos="l" depth="1" NCoef="0" IVar="23" Cut="3.7990707904100418e-02" cType="1" res="4.4793348759412766e-02" rms="4.9335154891014099e-01" purity="5.5336850881576538e-01" nType="0">
          <Node pos="l" depth="2" NCoef="0" IVar="-1" Cut="0.0000000000000000e+00" cType="1" res="9.3823706265538931e-04" rms="4.8899075388908386e-01" purity="5.8345949649810791e-01" nType="-99"/>
          <Node pos="r" depth="2" NCoef="0" IVar="-1" Cut="0.0000000000000000e+00" cType="1" res="-2.4730376899242401e-03" rms="4.5759311318397522e-01" purity="3.0030098557472229e-01" nType="-99"/>
        </Node>
        <Node pos="r" depth="1" NCoef="0" IVar="7" Cut="2.3062139892578125e+02" cType="1" res="-1.9483043253421783e-01" rms="4.2792609333992004e-01" purity="2.4170124530792236e-01" nType="0">
          <Node pos="l" depth="2" NCoef="0" IVar="-1" Cut="0.0000000000000000e+00" cType="1" res="-1.5374912181869149e-03" rms="4.6127286553382874e-01" purity="3.0768907070159912e-01" nType="-99"/>
          <Node pos="r" depth="2" NCoef="0" IVar="-1" Cut="0.0000000000000000e+00" cType="1" res="-3.0524742323905230e-03" rms="3.9871698617935181e-01" purity="1.9815906882286072e-01" nType="-99"/>
        </Node>
      </Node>
    </BinaryTree>
    <BinaryTree type="DecisionTree" boostWeight="1.0000000000000000e+00" itree="42">
      <Node pos="s" depth="0" NCoef="0" IVar="5" Cut="1.2380952835083008e+00" cType="1" res="1.1514910496771336e-02" rms="4.9101883172988892e-01" purity="5.0818467140197754e-01" nType="0">
        <Node pos="l" depth="1" NCoef="0" IVar="24" Cut="4.5670639723539352e-02" cType="1" res="5.1338329911231995e-02" rms="4.9249032139778137e-01" purity="5.6044316291809082e-01" nType="0">
          <Node pos="l" depth="2" NCoef="0" IVar="-1" Cut="0.0000000000000000e+00" cType="1" res="9.2836166732013226e-04" rms="4.8862430453300476e-01" purity="6.0236322879791260e-01" nType="-99"/>
          <Node pos="r" depth="2" NCoef="0" IVar="-1" Cut="0.0000000000000000e+00" cType="1" res="-2.0643987227231264e-03" rms="4.6309334039688110e-01" purity="3.1390920281410217e-01" nType="-99"/>
        </Node>
        <Node pos="r" depth="1" NCoef="0" IVar="15" Cut="1.2218885421752930e+00" cType="1" res="-1.8482288718223572e-01" rms="4.3312460184097290e-01" purity="2.5053942203521729e-01" nType="0">
          <Node pos="l" depth="2" NCoef="0" IVar="-1" Cut="0.0000000000000000e+00" cType="1" res="-3.3566483762115240e-03" rms="4.5808717608451843e-01" purity="3.0000528693199158e-01" nType="-99"/>
          <Node pos="r" depth="2" NCoef="0" IVar="-1" Cut="0.0000000000000000e+00" cType="1" res="-2.4749801959842443e-03" rms="4.0255784988403320e-01" purity="2.0399391651153564e-01" nType="-99"/>
        </Node>
      </Node>
    </BinaryTree>
    <BinaryTree type="DecisionTree" boostWeight="1.0000000000000000e+00" itree="43">
      <Node pos="s" depth="0" NCoef="0" IVar="5" Cut="1.1904761791229248e+00" cType="1" res="1.8014254746958613e-03" rms="4.9110847711563110e-01" purity="4.9860218167304993e-01" nType="0">
        <Node pos="l" depth="1" NCoef="0" IVar="24" Cut="4.5649129897356033e-02" cType="1" res="4.0859844535589218e-02" rms="4.9374067783355713e-01" purity="5.5029129981994629e-01" nType="0">
          <Node pos="l" depth="2" NCoef="0" IVar="-1" Cut="0.0000000000000000e+00" cType="1" res="6.9195718970149755e-04" rms="4.9108764529228210e-01" purity="5.9015506505966187e-01" nType="-99"/>
          <Node pos="r" depth="2" NCoef="0" IVar="-1" Cut="0.0000000000000000e+00" cType="1" res="-1.8993049161508679e-03" rms="4.6271505951881409e-01" purity="3.1310585141181946e-01" nType="-99"/>
        </Node>
        <Node pos="r" depth="1" NCoef="0" IVar="9" Cut="9.5238097012042999e-02" cType="1" res="-1.9261072576045990e-01" rms="4.2766207456588745e-01" purity="2.4132098257541656e-01" nType="0">
          <Node pos="l" depth="2" NCoef="0" IVar="-1" Cut="0.0000000000000000e+00" cType="1" res="-8.6296175140887499e-04" rms="4.7264781594276428e-01" purity="3.3639669418334961e-01" nType="-99"/>
          <Node pos="r" depth="2" NCoef="0" IVar="-1" Cut="0.0000000000000000e+00" cType="1" res="-3.9104246534407139e-03" rms="4.0250208973884583e-01" purity="2.0320522785186768e-01" nType="-99"/>
        </Node>
      </Node>
    </BinaryTree>
    <BinaryTree type="DecisionTree" boostWeight="1.0000000000000000e+00" itree="44">
      <Node pos="s" depth="0" NCoef="0" IVar="5" Cut="1.2380952835083008e+00" cType="1" res="8.0928029492497444e-03" rms="4.9001467227935791e-01" purity="5.0381094217300415e-01" nType="0">
        <Node pos="l" depth="1" NCoef="0" IVar="24" Cut="6.0894187539815903e-02" cType="1" res="5.3124308586120605e-02" rms="4.9202904105186462e-01" purity="5.6245791912078857e-01" nType="0">
          <Node pos="l" depth="2" NCoef="0" IVar="-1" Cut="0.0000000000000000e+00" cType="1" res="6.0940731782466173e-04" rms="4.8932331800460815e-01" purity="5.9590142965316772e-01" nType="-99"/>
          <Node pos="r" depth="2" NCoef="0" IVar="-1" Cut="0.0000000000000000e+00" cType="1" res="-2.4532959796488285e-03" rms="4.3905854225158691e-01" purity="2.6154258847236633e-01" nType="-99"/>
        </Node>
        <Node pos="r" depth="1" NCoef="0" IVar="15" Cut="1.0621845722198486e+00" cType="1" res="-2.0093150436878204e-01" rms="4.2169702053070068e-01" purity="2.3158720135688782e-01" nType="0">
          <Node pos="l" depth="2" NCoef="0" IVar="-1" Cut="0.0000000000000000e+00" cType="1" res="-3.1041158363223076e-03" rms="4.5387521386146545e-01" purity="2.9056382179260254e-01" nType="-99"/>
          <Node pos="r" depth="2" NCoef="0" IVar="-1" Cut="0.0000000000000000e+00" cType="1" res="-1.9728916231542826e-03" rms="3.9494442939758301e-01" purity="1.9380217790603638e-01" nType="-99"/>
        </Node>
      </Node>
    </BinaryTree>
    <BinaryTree type="DecisionTree" boostWeight="1.0000000000000000e+00" itree="45">
      <Node pos="s" depth="0" NCoef="0" IVar="5" Cut="1.2380952835083008e+00" cType="1" res="2.0683722104877234e-03" rms="4.9145403504371643e-01" purity="4.9863916635513306e-01" nType="0">
        <Node pos="l" depth="1" NCoef="0" IVar="23" Cut="3.7990707904100418e-02" cType="1" res="3.8386475294828415e-02" rms="4.9422535300254822e-01" purity="5.4822432994842529e-01" nType="0">
          <Node pos="l" depth="2" NCoef="0" IVar="-1" Cut="0.0000000000000000e+00" cType="1" res="6.7059876164421439e-04" rms="4.9058842658996582e-01" purity="5.7631725072860718e-01" nType="-99"/>
          <Node pos="r" depth="2" NCoef="0" IVar="-1" Cut="0.0000000000000000e+00" cType="1" res="-2.4054767563939095e-03" rms="4.6202820539474487e-01" purity="3.0965825915336609e-01" nType="-99"/>
        </Node>
        <Node pos="r" depth="1" NCoef="0" IVar="22" Cut="1.9448417425155640e+00" cType="1" res="-1.7671369016170502e-01" rms="4.3545857071876526e-01" purity="2.5454777479171753e-01" nType="0">
          <Node pos="l" depth="2" NCoef="0" IVar="-1" Cut="0.0000000000000000e+00" cType="1" res="-2.1599810570478439e-03" rms="4.0247336030006409e-01" purity="2.0400784909725189e-01" nType="-99"/>
          <Node pos="r" depth="2" NCoef="0" IVar="-1" Cut="0.0000000000000000e+00" cType="1" res="-2.7153899427503347e-03" rms="4.6221747994422913e-01" purity="3.1021520495414734e-01" nType="-99"/>
        </Node>
      </Node>
    </BinaryTree>
    <BinaryTree type="DecisionTree" boostWeight="1.0000000000000000e+00" itree="46">
      <Node pos="s" depth="0" NCoef="0" IVar="5" Cut="1.2380952835083008e+00" cType="1" res="1.0316729545593262e-02" rms="4.9022901058197021e-01" purity="5.0617235898971558e-01" nType="0">
        <Node pos="l" depth="1" NCoef="0" IVar="24" Cut="5.3257316350936890e-02" cType="1" res="5.1390666514635086e-02" rms="4.9219530820846558e-01" purity="5.6125789880752563e-01" nType="0">
          <Node pos="l" depth="2" NCoef="0" IVar="-1" Cut="0.0000000000000000e+00" cType="1" res="9.9537824280560017e-04" rms="4.8929172754287720e-01" purity="5.9723132848739624e-01" nType="-99"/>
          <Node pos="r" depth="2" NCoef="0" IVar="-1" Cut="0.0000000000000000e+00" cType="1" res="-2.1760521922260523e-03" rms="4.5556068420410156e-01" purity="2.9557245969772339e-01" nType="-99"/>
        </Node>
        <Node pos="r" depth="1" NCoef="0" IVar="22" Cut="2.0943939685821533e+00" cType="1" res="-1.8238060176372528e-01" rms="4.3152612447738647e-01" purity="2.4773964285850525e-01" nType="0">
          <Node pos="l" depth="2" NCoef="0" IVar="-1" Cut="0.0000000000000000e+00" cType="1" res="-2.9128347523510456e-03" rms="4.0434610843658447e-01" purity="2.0650973916053772e-01" nType="-99"/>
          <Node pos="r" depth="2" NCoef="0" IVar="-1" Cut="0.0000000000000000e+00" cType="1" res="-2.5436710566282272e-03" rms="4.5910125970840454e-01" purity="3.0293089151382446e-01" nType="-99"/>
        </Node>
      </Node>
    </BinaryTree>
    <BinaryTree type="DecisionTree" boostWeight="1.0000000000000000e+00" itree="47">
      <Node pos="s" depth="0" NCoef="0" IVar="5" Cut="1.1904761791229248e+00" cType="1" res="-2.3551046615466475e-04" rms="4.9074384570121765e-01" purity="4.9593412876129150e-01" nType="0">
        <Node pos="l" depth="1" NCoef="0" IVar="23" Cut="3.0373698100447655e-02" cType="1" res="3.8089267909526825e-02" rms="4.9397075176239014e-01" purity="5.4845082759857178e-01" nType="0">
          <Node pos="l" depth="2" NCoef="0" IVar="-1" Cut="0.0000000000000000e+00" cType="1" res="8.0661760875955224e-04" rms="4.8862889409065247e-01" purity="5.8717495203018188e-01" nType="-99"/>
          <Node pos="r" depth="2" NCoef="0" IVar="-1" Cut="0.0000000000000000e+00" cType="1" res="-1.6533320304006338e-03" rms="4.6088778972625732e-01" purity="3.0857914686203003e-01" nType="-99"/>
        </Node>
        <Node pos="r" depth="1" NCoef="0" IVar="22" Cut="1.9447921514511108e+00" cType="1" res="-1.8260391056537628e-01" rms="4.3065252900123596e-01" purity="2.4603368341922760e-01" nType="0">
          <Node pos="l" depth="2" NCoef="0" IVar="-1" Cut="0.0000000000000000e+00" cType="1" res="-2.5002143811434507e-03" rms="3.9192974567413330e-01" purity="1.9002202153205872e-01" nType="-99"/>
          <Node pos="r" depth="2" NCoef="0" IVar="-1" Cut="0.0000000000000000e+00" cType="1" res="-2.4305905681103468e-03" rms="4.6109116077423096e-01" purity="3.0745154619216919e-01" nType="-99"/>
        </Node>
      </Node>
    </BinaryTree>
    <BinaryTree type="DecisionTree" boostWeight="1.0000000000000000e+00" itree="48">
      <Node pos="s" depth="0" NCoef="0" IVar="5" Cut="1.2380952835083008e+00" cType="1" res="-5.2560598123818636e-04" rms="4.9022683501243591e-01" purity="4.9557089805603027e-01" nType="0">
        <Node pos="l" depth="1" NCoef="0" IVar="23" Cut="2.2794425487518311e-02" cType="1" res="3.6019016057252884e-02" rms="4.9342179298400879e-01" purity="5.4605251550674438e-01" nType="0">
          <Node pos="l" depth="2" NCoef="0" IVar="-1" Cut="0.0000000000000000e+00" cType="1" res="6.2758766580373049e-04" rms="4.8745214939117432e-01" purity="5.8877271413803101e-01" nType="-99"/>
          <Node pos="r" depth="2" NCoef="0" IVar="-1" Cut="0.0000000000000000e+00" cType="1" res="-1.5446882462128997e-03" rms="4.7128465771675110e-01" purity="3.3870124816894531e-01" nType="-99"/>
        </Node>
        <Node pos="r" depth="1" NCoef="0" IVar="22" Cut="1.7952064275741577e+00" cType="1" res="-1.8038542568683624e-01" rms="4.3119892477989197e-01" purity="2.4711813032627106e-01" nType="0">
          <Node pos="l" depth="2" NCoef="0" IVar="-1" Cut="0.0000000000000000e+00" cType="1" res="-2.3343185894191265e-03" rms="3.9576923847198486e-01" purity="1.9504503905773163e-01" nType="-99"/>
          <Node pos="r" depth="2" NCoef="0" IVar="-1" Cut="0.0000000000000000e+00" cType="1" res="-2.7797119691967964e-03" rms="4.5501008629798889e-01" purity="2.9356318712234497e-01" nType="-99"/>
        </Node>
      </Node>
    </BinaryTree>
    <BinaryTree type="DecisionTree" boostWeight="1.0000000000000000e+00" itree="49">
      <Node pos="s" depth="0" NCoef="0" IVar="5" Cut="1.2380952835083008e+00" cType="1" res="-6.5323729068040848e-03" rms="4.9041914939880371e-01" purity="4.9000674486160278e-01" nType="0">
        <Node pos="l" depth="1" NCoef="0" IVar="24" Cut="3.8040939718484879e-02" cType="1" res="2.8678268194198608e-02" rms="4.9429988861083984e-01" purity="5.3941220045089722e-01" nType="0">
          <Node pos="l" depth="2" NCoef="0" IVar="-1" Cut="0.0000000000000000e+00" cType="1" res="4.7956002526916564e-04" rms="4.9185433983802795e-01" purity="5.8489298820495605e-01" nType="-99"/>
          <Node pos="r" depth="2" NCoef="0" IVar="-1" Cut="0.0000000000000000e+00" cType="1" res="-1.1498330859467387e-03" rms="4.6555662155151367e-01" purity="3.2348790764808655e-01" nType="-99"/>
        </Node>
        <Node pos="r" depth="1" NCoef="0" IVar="22" Cut="2.2439961433410645e+00" cType="1" res="-1.8072578310966492e-01" rms="4.3026596307754517e-01" purity="2.4558900296688080e-01" nType="0">
          <Node pos="l" depth="2" NCoef="0" IVar="-1" Cut="0.0000000000000000e+00" cType="1" res="-2.3100250400602818e-03" rms="4.0175691246986389e-01" purity="2.0300556719303131e-01" nType="-99"/>
          <Node pos="r" depth="2" NCoef="0" IVar="-1" Cut="0.0000000000000000e+00" cType="1" res="-2.3450059816241264e-03" rms="4.6434524655342102e-01" purity="3.1555256247520447e-01" nType="-99"/>
        </Node>
      </Node>
    </BinaryTree>
    <BinaryTree type="DecisionTree" boostWeight="1.0000000000000000e+00" itree="50">
      <Node pos="s" depth="0" NCoef="0" IVar="5" Cut="1.2380952835083008e+00" cType="1" res="7.4777416884899139e-03" rms="4.8985993862152100e-01" purity="5.0357186794281006e-01" nType="0">
        <Node pos="l" depth="1" NCoef="0" IVar="23" Cut="3.7990707904100418e-02" cType="1" res="4.6974789351224899e-02" rms="4.9252328276634216e-01" purity="5.5783689022064209e-01" nType="0">
          <Node pos="l" depth="2" NCoef="0" IVar="-1" Cut="0.0000000000000000e+00" cType="1" res="6.1324180569499731e-04" rms="4.8803541064262390e-01" purity="5.8820790052413940e-01" nType="-99"/>
          <Node pos="r" depth="2" NCoef="0" IVar="-1" Cut="0.0000000000000000e+00" cType="1" res="-2.5706707965582609e-03" rms="4.5842686295509338e-01" purity="3.0158463120460510e-01" nType="-99"/>
        </Node>
        <Node pos="r" depth="1" NCoef="0" IVar="22" Cut="1.9447948932647705e+00" cType="1" res="-1.8201771378517151e-01" rms="4.2897182703018188e-01" purity="2.4322392046451569e-01" nType="0">
          <Node pos="l" depth="2" NCoef="0" IVar="-1" Cut="0.0000000000000000e+00" cType="1" res="-3.1152172014117241e-03" rms="3.9301484823226929e-01" purity="1.9150452315807343e-01" nType="-99"/>
          <Node pos="r" depth="2" NCoef="0" IVar="-1" Cut="0.0000000000000000e+00" cType="1" res="-2.4945992045104504e-03" rms="4.5746245980262756e-01" purity="2.9883322119712830e-01" nType="-99"/>
        </Node>
      </Node>
    </BinaryTree>
    <BinaryTree type="DecisionTree" boostWeight="1.0000000000000000e+00" itree="51">
      <Node pos="s" depth="0" NCoef="0" IVar="5" Cut="1.2380952835083008e+00" cType="1" res="2.7429470792412758e-03" rms="4.8976880311965942e-01" purity="4.9869725108146667e-01" nType="0">
        <Node pos="l" depth="1" NCoef="0" IVar="15" Cut="1.3802629709243774e+00" cType="1" res="4.0200535207986832e-02" rms="4.9297925829887390e-01" purity="5.5092096328735352e-01" nType="0">
          <Node pos="l" depth="2" NCoef="0" IVar="-1" Cut="0.0000000000000000e+00" cType="1" res="1.5403428114950657e-03" rms="4.7942891716957092e-01" purity="6.2653380632400513e-01" nType="-99"/>
          <Node pos="r" depth="2" NCoef="0" IVar="-1" Cut="0.0000000000000000e+00" cType="1" res="-3.8366371882148087e-04" rms="4.9298155307769775e-01" purity="4.5010319352149963e-01" nType="-99"/>
        </Node>
        <Node pos="r" depth="1" NCoef="0" IVar="0" Cut="7.7563903808593750e+01" cType="1" res="-1.8007527291774750e-01" rms="4.2919009923934937e-01" purity="2.4381045997142792e-01" nType="0">
          <Node pos="l" depth="2" NCoef="0" IVar="-1" Cut="0.0000000000000000e+00" cType="1" res="-2.4205655790865421e-03" rms="4.5505866408348083e-01" purity="2.9325595498085022e-01" nType="-99"/>
          <Node pos="r" depth="2" NCoef="0" IVar="-1" Cut="0.0000000000000000e+00" cType="1" res="-2.9479365330189466e-03" rms="3.8637307286262512e-01" purity="1.8257348239421844e-01" nType="-99"/>
        </Node>
      </Node>
    </BinaryTree>
    <BinaryTree type="DecisionTree" boostWeight="1.0000000000000000e+00" itree="52">
      <Node pos="s" depth="0" NCoef="0" IVar="5" Cut="1.1904761791229248e+00" cType="1" res="4.2968872003257275e-03" rms="4.8954817652702332e-01" purity="5.0025743246078491e-01" nType="0">
        <Node pos="l" depth="1" NCoef="0" IVar="23" Cut="3.8045268505811691e-02" cType="1" res="4.1661906987428665e-02" rms="4.9266761541366577e-01" purity="5.5270445346832275e-01" nType="0">
          <Node pos="l" depth="2" NCoef="0" IVar="-1" Cut="0.0000000000000000e+00" cType="1" res="6.7509338259696960e-04" rms="4.8820701241493225e-01" purity="5.8505272865295410e-01" nType="-99"/>
          <Node pos="r" depth="2" NCoef="0" IVar="-1" Cut="0.0000000000000000e+00" cType="1" res="-1.3850886607542634e-03" rms="4.5679005980491638e-01" purity="2.9703462123870850e-01" nType="-99"/>
        </Node>
        <Node pos="r" depth="1" NCoef="0" IVar="0" Cut="9.1693244934082031e+01" cType="1" res="-1.7737905681133270e-01" rms="4.3007609248161316e-01" purity="2.4525004625320435e-01" nType="0">
          <Node pos="l" depth="2" NCoef="0" IVar="-1" Cut="0.0000000000000000e+00" cType="1" res="-2.6439232751727104e-03" rms="4.4897621870040894e-01" purity="2.8012949228286743e-01" nType="-99"/>
          <Node pos="r" depth="2" NCoef="0" IVar="-1" Cut="0.0000000000000000e+00" cType="1" res="-2.3957558441907167e-03" rms="3.8175806403160095e-01" purity="1.7703950405120850e-01" nType="-99"/>
        </Node>
      </Node>
    </BinaryTree>
    <BinaryTree type="DecisionTree" boostWeight="1.0000000000000000e+00" itree="53">
      <Node pos="s" depth="0" NCoef="0" IVar="5" Cut="1.1904761791229248e+00" cType="1" res="5.1647806540131569e-03" rms="4.8916336894035339e-01" purity="5.0038850307464600e-01" nType="0">
        <Node pos="l" depth="1" NCoef="0" IVar="23" Cut="3.0298033729195595e-02" cType="1" res="4.3179869651794434e-02" rms="4.9224877357482910e-01" purity="5.5421131849288940e-01" nType="0">
          <Node pos="l" depth="2" NCoef="0" IVar="-1" Cut="0.0000000000000000e+00" cType="1" res="7.5714779086410999e-04" rms="4.8681443929672241e-01" purity="5.9218961000442505e-01" nType="-99"/>
          <Node pos="r" depth="2" NCoef="0" IVar="-1" Cut="0.0000000000000000e+00" cType="1" res="-1.2646802933886647e-03" rms="4.6452978253364563e-01" purity="3.1940364837646484e-01" nType="-99"/>
        </Node>
        <Node pos="r" depth="1" NCoef="0" IVar="9" Cut="1.0476191043853760e+00" cType="1" res="-1.7291700839996338e-01" rms="4.3198722600936890e-01" purity="2.4825498461723328e-01" nType="0">
          <Node pos="l" depth="2" NCoef="0" IVar="-1" Cut="0.0000000000000000e+00" cType="1" res="-2.9121793340891600e-03" rms="4.4542884826660156e-01" purity="2.7268990874290466e-01" nType="-99"/>
          <Node pos="r" depth="2" NCoef="0" IVar="-1" Cut="0.0000000000000000e+00" cType="1" res="-4.7058342024683952e-03" rms="3.6244425177574158e-01" purity="1.5539495646953583e-01" nType="-99"/>
        </Node>
      </Node>
    </BinaryTree>
    <BinaryTree type="DecisionTree" boostWeight="1.0000000000000000e+00" itree="54">
      <Node pos="s" depth="0" NCoef="0" IVar="5" Cut="1.2380952835083008e+00" cType="1" res="1.0376125574111938e-02" rms="4.8891752958297729e-01" purity="5.0584793090820312e-01" nType="0">
        <Node pos="l" depth="1" NCoef="0" IVar="24" Cut="3.8069389760494232e-02" cType="1" res="4.8743497580289841e-02" rms="4.9162453413009644e-01" purity="5.6003248691558838e-01" nType="0">
          <Node pos="l" depth="2" NCoef="0" IVar="-1" Cut="0.0000000000000000e+00" cType="1" res="1.0271153878420591e-03" rms="4.8698049783706665e-01" purity="6.0787886381149292e-01" nType="-99"/>
          <Node pos="r" depth="2" NCoef="0" IVar="-1" Cut="0.0000000000000000e+00" cType="1" res="-1.3096377952024341e-03" rms="4.7255846858024597e-01" purity="3.4433922171592712e-01" nType="-99"/>
        </Node>
        <Node pos="r" depth="1" NCoef="0" IVar="22" Cut="2.5431594848632812e+00" cType="1" res="-1.7360214889049530e-01" rms="4.3058747053146362e-01" purity="2.4602358043193817e-01" nType="0">
          <Node pos="l" depth="2" NCoef="0" IVar="-1" Cut="0.0000000000000000e+00" cType="1" res="-2.7634454891085625e-03" rms="4.1151368618011475e-01" purity="2.1638308465480804e-01" nType="-99"/>
          <Node pos="r" depth="2" NCoef="0" IVar="-1" Cut="0.0000000000000000e+00" cType="1" res="-1.8604662036523223e-03" rms="4.6826413273811340e-01" purity="3.2565671205520630e-01" nType="-99"/>
        </Node>
      </Node>
    </BinaryTree>
    <BinaryTree type="DecisionTree" boostWeight="1.0000000000000000e+00" itree="55">
      <Node pos="s" depth="0" NCoef="0" IVar="5" Cut="1.2380952835083008e+00" cType="1" res="-3.3381086541339755e-04" rms="4.8929116129875183e-01" purity="4.9505266547203064e-01" nType="0">
        <Node pos="l" depth="1" NCoef="0" IVar="24" Cut="3.8069389760494232e-02" cType="1" res="3.3774275332689285e-02" rms="4.9298918247222900e-01" purity="5.4533040523529053e-01" nType="0">
          <Node pos="l" depth="2" NCoef="0" IVar="-1" Cut="0.0000000000000000e+00" cType="1" res="6.5066746901720762e-04" rms="4.8972180485725403e-01" purity="5.9415489435195923e-01" nType="-99"/>
          <Node pos="r" depth="2" NCoef="0" IVar="-1" Cut="0.0000000000000000e+00" cType="1" res="-1.4557043323293328e-03" rms="4.6649929881095886e-01" purity="3.2727330923080444e-01" nType="-99"/>
        </Node>
        <Node pos="r" depth="1" NCoef="0" IVar="22" Cut="1.9447786808013916e+00" cType="1" res="-1.6282041370868683e-01" rms="4.3606999516487122e-01" purity="2.5553587079048157e-01" nType="0">
          <Node pos="l" depth="2" NCoef="0" IVar="-1" Cut="0.0000000000000000e+00" cType="1" res="-2.3497727233916521e-03" rms="4.0551325678825378e-01" purity="2.0799835026264191e-01" nType="-99"/>
          <Node pos="r" depth="2" NCoef="0" IVar="-1" Cut="0.0000000000000000e+00" cType="1" res="-2.2808294743299484e-03" rms="4.6119230985641479e-01" purity="3.0761802196502686e-01" nType="-99"/>
        </Node>
      </Node>
    </BinaryTree>
    <BinaryTree type="DecisionTree" boostWeight="1.0000000000000000e+00" itree="56">
      <Node pos="s" depth="0" NCoef="0" IVar="5" Cut="1.1904761791229248e+00" cType="1" res="1.0096202604472637e-02" rms="4.8918744921684265e-01" purity="5.0582569837570190e-01" nType="0">
        <Node pos="l" depth="1" NCoef="0" IVar="23" Cut="3.0436214059591293e-02" cType="1" res="4.4897366315126419e-02" rms="4.9198451638221741e-01" purity="5.5686187744140625e-01" nType="0">
          <Node pos="l" depth="2" NCoef="0" IVar="-1" Cut="0.0000000000000000e+00" cType="1" res="9.3977729557082057e-04" rms="4.8720163106918335e-01" purity="5.9003156423568726e-01" nType="-99"/>
          <Node pos="r" depth="2" NCoef="0" IVar="-1" Cut="0.0000000000000000e+00" cType="1" res="-1.6007222002372146e-03" rms="4.7162610292434692e-01" purity="3.3743718266487122e-01" nType="-99"/>
        </Node>
        <Node pos="r" depth="1" NCoef="0" IVar="22" Cut="1.6456042528152466e+00" cType="1" res="-1.5822188556194305e-01" rms="4.3799808621406555e-01" purity="2.5898557901382446e-01" nType="0">
          <Node pos="l" depth="2" NCoef="0" IVar="-1" Cut="0.0000000000000000e+00" cType="1" res="-2.9931473545730114e-03" rms="3.9251118898391724e-01" purity="1.9098378717899323e-01" nType="-99"/>
          <Node pos="r" depth="2" NCoef="0" IVar="-1" Cut="0.0000000000000000e+00" cType="1" res="-2.3235618136823177e-03" rms="4.6225616335868835e-01" purity="3.1001189351081848e-01" nType="-99"/>
        </Node>
      </Node>
    </BinaryTree>
    <BinaryTree type="DecisionTree" boostWeight="1.0000000000000000e+00" itree="57">
      <Node pos="s" depth="0" NCoef="0" IVar="24" Cut="3.8040939718484879e-02" cType="1" res="-1.9653271883726120e-03" rms="4.8885694146156311e-01" purity="4.9383220076560974e-01" nType="0">
        <Node pos="l" depth="1" NCoef="0" IVar="5" Cut="1.1904761791229248e+00" cType="1" res="3.4109324216842651e-02" rms="4.8911064863204956e-01" purity="5.3682798147201538e-01" nType="0">
          <Node pos="l" depth="2" NCoef="0" IVar="-1" Cut="0.0000000000000000e+00" cType="1" res="7.4220402166247368e-04" rms="4.8983651399612427e-01" purity="5.9354186058044434e-01" nType="-99"/>
          <Node pos="r" depth="2" NCoef="0" IVar="-1" Cut="0.0000000000000000e+00" cType="1" res="-2.2130885627120733e-03" rms="4.4024738669395447e-01" purity="2.6345154643058777e-01" nType="-99"/>
        </Node>
        <Node pos="r" depth="1" NCoef="0" IVar="15" Cut="1.0692028999328613e+00" cType="1" res="-1.6929660737514496e-01" rms="4.5143559575080872e-01" purity="2.9439780116081238e-01" nType="0">
          <Node pos="l" depth="2" NCoef="0" IVar="-1" Cut="0.0000000000000000e+00" cType="1" res="-7.7692430932074785e-04" rms="4.8699098825454712e-01" purity="4.1460248827934265e-01" nType="-99"/>
          <Node pos="r" depth="2" NCoef="0" IVar="-1" Cut="0.0000000000000000e+00" cType="1" res="-1.6707855975255370e-03" rms="4.1620421409606934e-01" purity="2.2866874933242798e-01" nType="-99"/>
        </Node>
      </Node>
    </BinaryTree>
    <BinaryTree type="DecisionTree" boostWeight="1.0000000000000000e+00" itree="58">
      <Node pos="s" depth="0" NCoef="0" IVar="5" Cut="1.1904761791229248e+00" cType="1" res="2.4480889551341534e-03" rms="4.8877984285354614e-01" purity="4.9848523736000061e-01" nType="0">
        <Node pos="l" depth="1" NCoef="0" IVar="23" Cut="3.0436214059591293e-02" cType="1" res="3.7271406501531601e-02" rms="4.9254703521728516e-01" purity="5.4964703321456909e-01" nType="0">
          <Node pos="l" depth="2" NCoef="0" IVar="-1" Cut="0.0000000000000000e+00" cType="1" res="7.9744489630684257e-04" rms="4.8788049817085266e-01" purity="5.8445191383361816e-01" nType="-99"/>
          <Node pos="r" depth="2" NCoef="0" IVar="-1" Cut="0.0000000000000000e+00" cType="1" res="-1.9024562789127231e-03" rms="4.6888276934623718e-01" purity="3.2856532931327820e-01" nType="-99"/>
        </Node>
        <Node pos="r" depth="1" NCoef="0" IVar="22" Cut="1.7952064275741577e+00" cType="1" res="-1.7006433010101318e-01" rms="4.2991131544113159e-01" purity="2.4503310024738312e-01" nType="0">
          <Node pos="l" depth="2" NCoef="0" IVar="-1" Cut="0.0000000000000000e+00" cType="1" res="-2.4749508593231440e-03" rms="3.9567238092422485e-01" purity="1.9488899409770966e-01" nType="-99"/>
          <Node pos="r" depth="2" NCoef="0" IVar="-1" Cut="0.0000000000000000e+00" cType="1" res="-2.5200543459504843e-03" rms="4.5233321189880371e-01" purity="2.8781509399414062e-01" nType="-99"/>
        </Node>
      </Node>
    </BinaryTree>
    <BinaryTree type="DecisionTree" boostWeight="1.0000000000000000e+00" itree="59">
      <Node pos="s" depth="0" NCoef="0" IVar="5" Cut="1.1904761791229248e+00" cType="1" res="9.7101153805851936e-03" rms="4.8791509866714478e-01" purity="5.0470566749572754e-01" nType="0">
        <Node pos="l" depth="1" NCoef="0" IVar="24" Cut="4.5683268457651138e-02" cType="1" res="4.7617323696613312e-02" rms="4.9105095863342285e-01" purity="5.5994403362274170e-01" nType="0">
          <Node pos="l" depth="2" NCoef="0" IVar="-1" Cut="0.0000000000000000e+00" cType="1" res="1.1902755359187722e-03" rms="4.8715257644653320e-01" purity="6.0592925548553467e-01" nType="-99"/>
          <Node pos="r" depth="2" NCoef="0" IVar="-1" Cut="0.0000000000000000e+00" cType="1" res="-2.0461862441152334e-03" rms="4.5918649435043335e-01" purity="3.0484044551849365e-01" nType="-99"/>
        </Node>
        <Node pos="r" depth="1" NCoef="0" IVar="22" Cut="1.9448417425155640e+00" cType="1" res="-1.6785326600074768e-01" rms="4.3060600757598877e-01" purity="2.4596023559570312e-01" nType="0">
          <Node pos="l" depth="2" NCoef="0" IVar="-1" Cut="0.0000000000000000e+00" cType="1" res="-3.0454352963715792e-03" rms="3.8984337449073792e-01" purity="1.8727636337280273e-01" nType="-99"/>
