<?xml version="1.0"?>
<MethodSetup Method="BDT::BDTG1000t2.5%n2d">
  <GeneralInfo>
    <Info name="TMVA Release" value="4.2.1 [262657]"/>
    <Info name="ROOT Release" value="6.10/09 [395785]"/>
    <Info name="Creator" value="shchauha"/>
    <Info name="Date" value="Sun Sep  8 12:31:01 2019"/>
    <Info name="Host" value="Linux cmsbuild76.cern.ch 2.6.32-696.30.1.el6.x86_64 #1 SMP Tue May 22 06:09:36 CEST 2018 x86_64 x86_64 x86_64 GNU/Linux"/>
    <Info name="Dir" value="/home/users/shchauha/2019/Sep7/FCNCAna/analysis/bdts"/>
    <Info name="Training events" value="97824"/>
    <Info name="TrainingTime" value="8.95016000e+01"/>
    <Info name="AnalysisType" value="Classification"/>
  </GeneralInfo>
  <Options>
    <Option name="V" modified="Yes">False</Option>
    <Option name="VerbosityLevel" modified="No">Default</Option>
    <Option name="VarTransform" modified="No">None</Option>
    <Option name="H" modified="Yes">False</Option>
    <Option name="CreateMVAPdfs" modified="No">False</Option>
    <Option name="IgnoreNegWeightsInTraining" modified="No">False</Option>
    <Option name="NTrees" modified="Yes">1000</Option>
    <Option name="MaxDepth" modified="Yes">2</Option>
    <Option name="MinNodeSize" modified="Yes">2.5%</Option>
    <Option name="nCuts" modified="Yes">20</Option>
    <Option name="BoostType" modified="Yes">Grad</Option>
    <Option name="AdaBoostR2Loss" modified="No">quadratic</Option>
    <Option name="UseBaggedBoost" modified="Yes">True</Option>
    <Option name="Shrinkage" modified="Yes">1.000000e-01</Option>
    <Option name="AdaBoostBeta" modified="No">5.000000e-01</Option>
    <Option name="UseRandomisedTrees" modified="No">False</Option>
    <Option name="UseNvars" modified="No">6</Option>
    <Option name="UsePoissonNvars" modified="No">True</Option>
    <Option name="BaggedSampleFraction" modified="Yes">5.000000e-01</Option>
    <Option name="UseYesNoLeaf" modified="No">True</Option>
    <Option name="NegWeightTreatment" modified="No">pray</Option>
    <Option name="Css" modified="No">1.000000e+00</Option>
    <Option name="Cts_sb" modified="No">1.000000e+00</Option>
    <Option name="Ctb_ss" modified="No">1.000000e+00</Option>
    <Option name="Cbb" modified="No">1.000000e+00</Option>
    <Option name="NodePurityLimit" modified="No">5.000000e-01</Option>
    <Option name="SeparationType" modified="No">giniindex</Option>
    <Option name="RegressionLossFunctionBDTG" modified="No">huber</Option>
    <Option name="HuberQuantile" modified="No">7.000000e-01</Option>
    <Option name="DoBoostMonitor" modified="No">False</Option>
    <Option name="UseFisherCuts" modified="No">False</Option>
    <Option name="MinLinCorrForFisher" modified="No">8.000000e-01</Option>
    <Option name="UseExclusiveVars" modified="No">False</Option>
    <Option name="DoPreselection" modified="No">False</Option>
    <Option name="SigToBkgFraction" modified="No">1.000000e+00</Option>
    <Option name="PruneMethod" modified="No">nopruning</Option>
    <Option name="PruneStrength" modified="No">0.000000e+00</Option>
    <Option name="PruningValFraction" modified="No">5.000000e-01</Option>
    <Option name="SkipNormalization" modified="No">False</Option>
    <Option name="nEventsMin" modified="No">0</Option>
    <Option name="UseBaggedGrad" modified="No">False</Option>
    <Option name="GradBaggingFraction" modified="No">5.000000e-01</Option>
    <Option name="UseNTrainEvents" modified="No">0</Option>
    <Option name="NNodesMax" modified="No">0</Option>
  </Options>
  <Variables NVar="35">
    <Variable VarIndex="0" Expression="lep1pt" Label="lep1pt" Title="lep1pt" Unit="" Internal="lep1pt" Type="F" Min="2.50014629e+01" Max="1.41439197e+03"/>
    <Variable VarIndex="1" Expression="lep2pt" Label="lep2pt" Title="lep2pt" Unit="" Internal="lep2pt" Type="F" Min="2.00000381e+01" Max="7.95314392e+02"/>
    <Variable VarIndex="2" Expression="lep1eta" Label="lep1eta" Title="lep1eta" Unit="" Internal="lep1eta" Type="F" Min="-2.49581718e+00" Max="2.49886513e+00"/>
    <Variable VarIndex="3" Expression="lep2eta" Label="lep2eta" Title="lep2eta" Unit="" Internal="lep2eta" Type="F" Min="-2.49923730e+00" Max="2.49890637e+00"/>
    <Variable VarIndex="4" Expression="njets" Label="njets" Title="njets" Unit="" Internal="njets" Type="F" Min="2.00000000e+00" Max="1.30000000e+01"/>
    <Variable VarIndex="5" Expression="nbtags" Label="nbtags" Title="nbtags" Unit="" Internal="nbtags" Type="F" Min="1.00000000e+00" Max="6.00000000e+00"/>
    <Variable VarIndex="6" Expression="met" Label="met" Title="met" Unit="" Internal="met" Type="F" Min="3.25943410e-01" Max="1.26476367e+03"/>
    <Variable VarIndex="7" Expression="ht" Label="ht" Title="ht" Unit="" Internal="ht" Type="F" Min="8.04477081e+01" Max="3.62264600e+03"/>
    <Variable VarIndex="8" Expression="mll" Label="mll" Title="mll" Unit="" Internal="mll" Type="F" Min="1.43682051e+00" Max="1.73912939e+03"/>
    <Variable VarIndex="9" Expression="nele" Label="nele" Title="nele" Unit="" Internal="nele" Type="F" Min="0.00000000e+00" Max="2.00000000e+00"/>
    <Variable VarIndex="10" Expression="jet1pt" Label="jet1pt" Title="jet1pt" Unit="" Internal="jet1pt" Type="F" Min="4.03255234e+01" Max="1.74880432e+03"/>
    <Variable VarIndex="11" Expression="jet2pt" Label="jet2pt" Title="jet2pt" Unit="" Internal="jet2pt" Type="F" Min="3.95486908e+01" Max="1.50192896e+03"/>
    <Variable VarIndex="12" Expression="btag1pt" Label="btag1pt" Title="btag1pt" Unit="" Internal="btag1pt" Type="F" Min="2.49693871e+01" Max="1.56162512e+03"/>
    <Variable VarIndex="13" Expression="drl1l2" Label="drl1l2" Title="drl1l2" Unit="" Internal="drl1l2" Type="F" Min="2.09880285e-02" Max="5.62911844e+00"/>
    <Variable VarIndex="14" Expression="mindrl1j" Label="mindrl1j" Title="mindrl1j" Unit="" Internal="mindrl1j" Type="F" Min="2.78167695e-01" Max="4.98079634e+00"/>
    <Variable VarIndex="15" Expression="mindrl2j" Label="mindrl2j" Title="mindrl2j" Unit="" Internal="mindrl2j" Type="F" Min="2.74428278e-01" Max="4.57626152e+00"/>
    <Variable VarIndex="16" Expression="mindrl1bt" Label="mindrl1bt" Title="mindrl1bt" Unit="" Internal="mindrl1bt" Type="F" Min="2.82718360e-01" Max="5.36119556e+00"/>
    <Variable VarIndex="17" Expression="mindrl2bt" Label="mindrl2bt" Title="mindrl2bt" Unit="" Internal="mindrl2bt" Type="F" Min="2.74428278e-01" Max="5.58260918e+00"/>
    <Variable VarIndex="18" Expression="dphil1met" Label="dphil1met" Title="dphil1met" Unit="" Internal="dphil1met" Type="F" Min="2.45571136e-05" Max="3.14157248e+00"/>
    <Variable VarIndex="19" Expression="dphil2met" Label="dphil2met" Title="dphil2met" Unit="" Internal="dphil2met" Type="F" Min="9.41753387e-06" Max="3.14155149e+00"/>
    <Variable VarIndex="20" Expression="mt1" Label="mt1" Title="mt1" Unit="" Internal="mt1" Type="F" Min="0.00000000e+00" Max="1.77948120e+03"/>
    <Variable VarIndex="21" Expression="mt2" Label="mt2" Title="mt2" Unit="" Internal="mt2" Type="F" Min="0.00000000e+00" Max="9.07312866e+02"/>
    <Variable VarIndex="22" Expression="dphil1l2" Label="dphil1l2" Title="dphil1l2" Unit="" Internal="dphil1l2" Type="F" Min="6.23762608e-05" Max="3.14156866e+00"/>
    <Variable VarIndex="23" Expression="l1miniiso" Label="l1miniiso" Title="l1miniiso" Unit="" Internal="l1miniiso" Type="F" Min="0.00000000e+00" Max="1.59952849e-01"/>
    <Variable VarIndex="24" Expression="l2miniiso" Label="l2miniiso" Title="l2miniiso" Unit="" Internal="l2miniiso" Type="F" Min="0.00000000e+00" Max="1.59964383e-01"/>
    <Variable VarIndex="25" Expression="l1dxy" Label="l1dxy" Title="l1dxy" Unit="" Internal="l1dxy" Type="F" Min="-4.07096855e-02" Max="4.57564667e-02"/>
    <Variable VarIndex="26" Expression="l1dz" Label="l1dz" Title="l1dz" Unit="" Internal="l1dz" Type="F" Min="-9.97967049e-02" Max="9.88003612e-02"/>
    <Variable VarIndex="27" Expression="l2dxy" Label="l2dxy" Title="l2dxy" Unit="" Internal="l2dxy" Type="F" Min="-3.17802019e-02" Max="4.86397967e-02"/>
    <Variable VarIndex="28" Expression="l2dz" Label="l2dz" Title="l2dz" Unit="" Internal="l2dz" Type="F" Min="-9.40432996e-02" Max="9.85995233e-02"/>
    <Variable VarIndex="29" Expression="l1ptratio" Label="l1ptratio" Title="l1ptratio" Unit="" Internal="l1ptratio" Type="F" Min="6.58643618e-02" Max="5.25271797e+00"/>
    <Variable VarIndex="30" Expression="l1ptrel" Label="l1ptrel" Title="l1ptrel" Unit="" Internal="l1ptrel" Type="F" Min="0.00000000e+00" Max="1.18350818e+03"/>
    <Variable VarIndex="31" Expression="l2ptratio" Label="l2ptratio" Title="l2ptratio" Unit="" Internal="l2ptratio" Type="F" Min="3.77189480e-02" Max="1.35078239e+01"/>
    <Variable VarIndex="32" Expression="l2ptrel" Label="l2ptrel" Title="l2ptrel" Unit="" Internal="l2ptrel" Type="F" Min="0.00000000e+00" Max="4.73726379e+02"/>
    <Variable VarIndex="33" Expression="jet3pt" Label="jet3pt" Title="jet3pt" Unit="" Internal="jet3pt" Type="F" Min="0.00000000e+00" Max="7.31749329e+02"/>
    <Variable VarIndex="34" Expression="fwd_jetpt" Label="fwd_jetpt" Title="fwd_jetpt" Unit="" Internal="fwd_jetpt" Type="F" Min="3.96819839e+01" Max="1.56162512e+03"/>
  </Variables>
  <Spectators NSpec="0"/>
  <Classes NClass="2">
    <Class Name="Signal" Index="0"/>
    <Class Name="Background" Index="1"/>
  </Classes>
  <Transformations NTransformations="0"/>
  <MVAPdfs/>
  <Weights NTrees="1000" AnalysisType="1">
    <BinaryTree type="DecisionTree" boostWeight="1.0000000000000000e+00" itree="0">
      <Node pos="s" depth="0" NCoef="0" IVar="24" Cut="5.3321462124586105e-02" cType="1" res="-5.8690421283245087e-03" rms="4.9996554851531982e-01" purity="4.9413096904754639e-01" nType="0">
        <Node pos="l" depth="1" NCoef="0" IVar="5" Cut="1.1904761791229248e+00" cType="1" res="4.3512802571058273e-02" rms="4.9810305237770081e-01" purity="5.4351276159286499e-01" nType="0">
          <Node pos="l" depth="2" NCoef="0" IVar="-1" Cut="0.0000000000000000e+00" cType="1" res="2.0786379463970661e-03" rms="4.9223235249519348e-01" purity="5.8779120445251465e-01" nType="-99"/>
          <Node pos="r" depth="2" NCoef="0" IVar="-1" Cut="0.0000000000000000e+00" cType="1" res="-4.7216033563017845e-03" rms="4.6588605642318726e-01" purity="3.1847813725471497e-01" nType="-99"/>
        </Node>
        <Node pos="r" depth="1" NCoef="0" IVar="31" Cut="8.5232996940612793e-01" cType="1" res="-2.6573944091796875e-01" rms="4.2353576421737671e-01" purity="2.3426054418087006e-01" nType="0">
          <Node pos="l" depth="2" NCoef="0" IVar="-1" Cut="0.0000000000000000e+00" cType="1" res="-5.4653780534863472e-03" rms="3.7602493166923523e-01" purity="1.7044690251350403e-01" nType="-99"/>
          <Node pos="r" depth="2" NCoef="0" IVar="-1" Cut="0.0000000000000000e+00" cType="1" res="-2.4989489465951920e-03" rms="4.7380697727203369e-01" purity="3.4029108285903931e-01" nType="-99"/>
        </Node>
      </Node>
    </BinaryTree>
    <BinaryTree type="DecisionTree" boostWeight="1.0000000000000000e+00" itree="1">
      <Node pos="s" depth="0" NCoef="0" IVar="24" Cut="5.3204227238893509e-02" cType="1" res="3.1618206412531435e-04" rms="4.9953001737594604e-01" purity="5.0037336349487305e-01" nType="0">
        <Node pos="l" depth="1" NCoef="0" IVar="5" Cut="1.1904761791229248e+00" cType="1" res="4.8720728605985641e-02" rms="4.9730128049850464e-01" purity="5.4921513795852661e-01" nType="0">
          <Node pos="l" depth="2" NCoef="0" IVar="-1" Cut="0.0000000000000000e+00" cType="1" res="2.4632043205201626e-03" rms="4.9057039618492126e-01" purity="5.9664714336395264e-01" nType="-99"/>
          <Node pos="r" depth="2" NCoef="0" IVar="-1" Cut="0.0000000000000000e+00" cType="1" res="-4.8828269354999065e-03" rms="4.5855608582496643e-01" purity="3.0068543553352356e-01" nType="-99"/>
        </Node>
        <Node pos="r" depth="1" NCoef="0" IVar="31" Cut="8.6633330583572388e-01" cType="1" res="-2.5015097856521606e-01" rms="4.3147253990173340e-01" purity="2.4764370918273926e-01" nType="0">
          <Node pos="l" depth="2" NCoef="0" IVar="-1" Cut="0.0000000000000000e+00" cType="1" res="-5.3471289575099945e-03" rms="3.8047865033149719e-01" purity="1.7562177777290344e-01" nType="-99"/>
          <Node pos="r" depth="2" NCoef="0" IVar="-1" Cut="0.0000000000000000e+00" cType="1" res="-1.5865337336435914e-03" rms="4.9353969097137451e-01" purity="4.1988167166709900e-01" nType="-99"/>
        </Node>
      </Node>
    </BinaryTree>
    <BinaryTree type="DecisionTree" boostWeight="1.0000000000000000e+00" itree="2">
      <Node pos="s" depth="0" NCoef="0" IVar="24" Cut="4.5665167272090912e-02" cType="1" res="-1.8306409940123558e-02" rms="4.9873214960098267e-01" purity="4.8195430636405945e-01" nType="0">
        <Node pos="l" depth="1" NCoef="0" IVar="5" Cut="1.1904761791229248e+00" cType="1" res="3.4148547798395157e-02" rms="4.9818167090415955e-01" purity="5.3523492813110352e-01" nType="0">
          <Node pos="l" depth="2" NCoef="0" IVar="-1" Cut="0.0000000000000000e+00" cType="1" res="1.9948752596974373e-03" rms="4.9280387163162231e-01" purity="5.8452421426773071e-01" nType="-99"/>
          <Node pos="r" depth="2" NCoef="0" IVar="-1" Cut="0.0000000000000000e+00" cType="1" res="-4.5263436622917652e-03" rms="4.5386177301406860e-01" purity="2.9021567106246948e-01" nType="-99"/>
        </Node>
        <Node pos="r" depth="1" NCoef="0" IVar="15" Cut="9.0797990560531616e-01" cType="1" res="-2.6111492514610291e-01" rms="4.2377060651779175e-01" purity="2.3532401025295258e-01" nType="0">
          <Node pos="l" depth="2" NCoef="0" IVar="-1" Cut="0.0000000000000000e+00" cType="1" res="-2.3676955606788397e-03" rms="4.8752018809318542e-01" purity="3.9035639166831970e-01" nType="-99"/>
          <Node pos="r" depth="2" NCoef="0" IVar="-1" Cut="0.0000000000000000e+00" cType="1" res="-4.6791494823992252e-03" rms="3.8612669706344604e-01" purity="1.8287342786788940e-01" nType="-99"/>
        </Node>
      </Node>
    </BinaryTree>
    <BinaryTree type="DecisionTree" boostWeight="1.0000000000000000e+00" itree="3">
      <Node pos="s" depth="0" NCoef="0" IVar="24" Cut="5.3321462124586105e-02" cType="1" res="-3.6500762216746807e-03" rms="4.9856311082839966e-01" purity="4.9653521180152893e-01" nType="0">
        <Node pos="l" depth="1" NCoef="0" IVar="5" Cut="1.1904761791229248e+00" cType="1" res="4.3989211320877075e-02" rms="4.9706757068634033e-01" purity="5.4545003175735474e-01" nType="0">
          <Node pos="l" depth="2" NCoef="0" IVar="-1" Cut="0.0000000000000000e+00" cType="1" res="2.3263699840754271e-03" rms="4.9065759778022766e-01" purity="5.9615004062652588e-01" nType="-99"/>
          <Node pos="r" depth="2" NCoef="0" IVar="-1" Cut="0.0000000000000000e+00" cType="1" res="-3.9756665937602520e-03" rms="4.5733109116554260e-01" purity="2.9789787530899048e-01" nType="-99"/>
        </Node>
        <Node pos="r" depth="1" NCoef="0" IVar="15" Cut="9.7798269987106323e-01" cType="1" res="-2.5128877162933350e-01" rms="4.2799884080886841e-01" purity="2.4226608872413635e-01" nType="0">
          <Node pos="l" depth="2" NCoef="0" IVar="-1" Cut="0.0000000000000000e+00" cType="1" res="-3.0139717273414135e-03" rms="4.8444101214408875e-01" purity="3.7750580906867981e-01" nType="-99"/>
          <Node pos="r" depth="2" NCoef="0" IVar="-1" Cut="0.0000000000000000e+00" cType="1" res="-4.7860476188361645e-03" rms="3.9180389046669006e-01" purity="1.8980944156646729e-01" nType="-99"/>
        </Node>
      </Node>
    </BinaryTree>
    <BinaryTree type="DecisionTree" boostWeight="1.0000000000000000e+00" itree="4">
      <Node pos="s" depth="0" NCoef="0" IVar="24" Cut="3.8020461797714233e-02" cType="1" res="-4.1349474340677261e-03" rms="4.9819147586822510e-01" purity="4.9647217988967896e-01" nType="0">
        <Node pos="l" depth="1" NCoef="0" IVar="5" Cut="1.1904761791229248e+00" cType="1" res="4.3893925845623016e-02" rms="4.9669516086578369e-01" purity="5.4607510566711426e-01" nType="0">
          <Node pos="l" depth="2" NCoef="0" IVar="-1" Cut="0.0000000000000000e+00" cType="1" res="2.3173678200691938e-03" rms="4.9003583192825317e-01" purity="5.9932202100753784e-01" nType="-99"/>
          <Node pos="r" depth="2" NCoef="0" IVar="-1" Cut="0.0000000000000000e+00" cType="1" res="-4.5580533333122730e-03" rms="4.4912785291671753e-01" purity="2.8026339411735535e-01" nType="-99"/>
        </Node>
        <Node pos="r" depth="1" NCoef="0" IVar="31" Cut="9.0572488307952881e-01" cType="1" res="-2.0170192420482635e-01" rms="4.5364832878112793e-01" purity="2.9243043065071106e-01" nType="0">
          <Node pos="l" depth="2" NCoef="0" IVar="-1" Cut="0.0000000000000000e+00" cType="1" res="-4.6684071421623230e-03" rms="4.1436591744422913e-01" purity="2.2134192287921906e-01" nType="-99"/>
          <Node pos="r" depth="2" NCoef="0" IVar="-1" Cut="0.0000000000000000e+00" cType="1" res="6.7212531575933099e-04" rms="4.9855160713195801e-01" purity="5.2851819992065430e-01" nType="-99"/>
        </Node>
      </Node>
    </BinaryTree>
    <BinaryTree type="DecisionTree" boostWeight="1.0000000000000000e+00" itree="5">
      <Node pos="s" depth="0" NCoef="0" IVar="5" Cut="1.2380952835083008e+00" cType="1" res="1.9000509055331349e-03" rms="4.9761885404586792e-01" purity="5.0243628025054932e-01" nType="0">
        <Node pos="l" depth="1" NCoef="0" IVar="24" Cut="6.8505965173244476e-02" cType="1" res="4.9129202961921692e-02" rms="4.9577698111534119e-01" purity="5.5205702781677246e-01" nType="0">
          <Node pos="l" depth="2" NCoef="0" IVar="-1" Cut="0.0000000000000000e+00" cType="1" res="2.2798646241426468e-03" rms="4.9046939611434937e-01" purity="5.9565246105194092e-01" nType="-99"/>
          <Node pos="r" depth="2" NCoef="0" IVar="-1" Cut="0.0000000000000000e+00" cType="1" res="-3.8856205064803362e-03" rms="4.1848313808441162e-01" purity="2.2752538323402405e-01" nType="-99"/>
        </Node>
        <Node pos="r" depth="1" NCoef="0" IVar="15" Cut="1.3012107610702515e+00" cType="1" res="-2.2810670733451843e-01" rms="4.3905487656593323e-01" purity="2.6078251004219055e-01" nType="0">
          <Node pos="l" depth="2" NCoef="0" IVar="-1" Cut="0.0000000000000000e+00" cType="1" res="-4.6331379562616348e-03" rms="4.6812507510185242e-01" purity="3.2435226440429688e-01" nType="-99"/>
          <Node pos="r" depth="2" NCoef="0" IVar="-1" Cut="0.0000000000000000e+00" cType="1" res="-4.1417484171688557e-03" rms="3.9982533454895020e-01" purity="1.9974991679191589e-01" nType="-99"/>
        </Node>
      </Node>
    </BinaryTree>
    <BinaryTree type="DecisionTree" boostWeight="1.0000000000000000e+00" itree="6">
      <Node pos="s" depth="0" NCoef="0" IVar="24" Cut="5.3321462124586105e-02" cType="1" res="1.4603622257709503e-03" rms="4.9704393744468689e-01" purity="5.0224190950393677e-01" nType="0">
        <Node pos="l" depth="1" NCoef="0" IVar="5" Cut="1.1904761791229248e+00" cType="1" res="4.9764119088649750e-02" rms="4.9535629153251648e-01" purity="5.5291128158569336e-01" nType="0">
          <Node pos="l" depth="2" NCoef="0" IVar="-1" Cut="0.0000000000000000e+00" cType="1" res="2.7131456881761551e-03" rms="4.8826134204864502e-01" purity="6.0731327533721924e-01" nType="-99"/>
          <Node pos="r" depth="2" NCoef="0" IVar="-1" Cut="0.0000000000000000e+00" cType="1" res="-4.1109169833362103e-03" rms="4.5034760236740112e-01" purity="2.8279015421867371e-01" nType="-99"/>
        </Node>
        <Node pos="r" depth="1" NCoef="0" IVar="15" Cut="1.0333054065704346e+00" cType="1" res="-2.5890913605690002e-01" rms="4.1917935013771057e-01" purity="2.2912116348743439e-01" nType="0">
          <Node pos="l" depth="2" NCoef="0" IVar="-1" Cut="0.0000000000000000e+00" cType="1" res="-2.4187695235013962e-03" rms="4.8390635848045349e-01" purity="3.7880614399909973e-01" nType="-99"/>
          <Node pos="r" depth="2" NCoef="0" IVar="-1" Cut="0.0000000000000000e+00" cType="1" res="-5.1628756336867809e-03" rms="3.6615696549415588e-01" purity="1.6026875376701355e-01" nType="-99"/>
        </Node>
      </Node>
    </BinaryTree>
    <BinaryTree type="DecisionTree" boostWeight="1.0000000000000000e+00" itree="7">
      <Node pos="s" depth="0" NCoef="0" IVar="24" Cut="3.8086757063865662e-02" cType="1" res="4.0652132593095303e-03" rms="4.9690714478492737e-01" purity="5.0560057163238525e-01" nType="0">
        <Node pos="l" depth="1" NCoef="0" IVar="5" Cut="1.1904761791229248e+00" cType="1" res="5.3142350167036057e-02" rms="4.9473488330841064e-01" purity="5.5737388134002686e-01" nType="0">
          <Node pos="l" depth="2" NCoef="0" IVar="-1" Cut="0.0000000000000000e+00" cType="1" res="2.5237633381038904e-03" rms="4.8811247944831848e-01" purity="6.0837757587432861e-01" nType="-99"/>
          <Node pos="r" depth="2" NCoef="0" IVar="-1" Cut="0.0000000000000000e+00" cType="1" res="-4.4113970361649990e-03" rms="4.5606675744056702e-01" purity="2.9504758119583130e-01" nType="-99"/>
        </Node>
        <Node pos="r" depth="1" NCoef="0" IVar="24" Cut="7.2915986180305481e-02" cType="1" res="-2.0075373351573944e-01" rms="4.5155718922615051e-01" purity="2.8952938318252563e-01" nType="0">
          <Node pos="l" depth="2" NCoef="0" IVar="-1" Cut="0.0000000000000000e+00" cType="1" res="-2.1745522972196341e-03" rms="4.8535004258155823e-01" purity="3.8432088494300842e-01" nType="-99"/>
          <Node pos="r" depth="2" NCoef="0" IVar="-1" Cut="0.0000000000000000e+00" cType="1" res="-4.6977740712463856e-03" rms="3.9972585439682007e-01" purity="2.0076672732830048e-01" nType="-99"/>
        </Node>
      </Node>
    </BinaryTree>
    <BinaryTree type="DecisionTree" boostWeight="1.0000000000000000e+00" itree="8">
      <Node pos="s" depth="0" NCoef="0" IVar="24" Cut="6.8556167185306549e-02" cType="1" res="8.5854297503829002e-03" rms="4.9600180983543396e-01" purity="5.0965321063995361e-01" nType="0">
        <Node pos="l" depth="1" NCoef="0" IVar="5" Cut="1.2380952835083008e+00" cType="1" res="4.7512587159872055e-02" rms="4.9468675255775452e-01" purity="5.5114841461181641e-01" nType="0">
          <Node pos="l" depth="2" NCoef="0" IVar="-1" Cut="0.0000000000000000e+00" cType="1" res="2.6807873509824276e-03" rms="4.8765724897384644e-01" purity="6.0859388113021851e-01" nType="-99"/>
          <Node pos="r" depth="2" NCoef="0" IVar="-1" Cut="0.0000000000000000e+00" cType="1" res="-3.7510262336581945e-03" rms="4.5129600167274475e-01" purity="2.8485324978828430e-01" nType="-99"/>
        </Node>
        <Node pos="r" depth="1" NCoef="0" IVar="-1" Cut="0.0000000000000000e+00" cType="1" res="-4.4893715530633926e-03" rms="4.1091129183769226e-01" purity="2.1642836928367615e-01" nType="-99"/>
      </Node>
    </BinaryTree>
    <BinaryTree type="DecisionTree" boostWeight="1.0000000000000000e+00" itree="9">
      <Node pos="s" depth="0" NCoef="0" IVar="24" Cut="3.8020461797714233e-02" cType="1" res="-6.6982498392462730e-03" rms="4.9596390128135681e-01" purity="4.9513879418373108e-01" nType="0">
        <Node pos="l" depth="1" NCoef="0" IVar="5" Cut="1.1904761791229248e+00" cType="1" res="4.4147100299596786e-02" rms="4.9497714638710022e-01" purity="5.4972606897354126e-01" nType="0">
          <Node pos="l" depth="2" NCoef="0" IVar="-1" Cut="0.0000000000000000e+00" cType="1" res="2.3246333003044128e-03" rms="4.8942235112190247e-01" purity="6.0230225324630737e-01" nType="-99"/>
          <Node pos="r" depth="2" NCoef="0" IVar="-1" Cut="0.0000000000000000e+00" cType="1" res="-3.9951368235051632e-03" rms="4.5371070504188538e-01" purity="2.8987610340118408e-01" nType="-99"/>
        </Node>
        <Node pos="r" depth="1" NCoef="0" IVar="15" Cut="1.1748371124267578e+00" cType="1" res="-2.0531456172466278e-01" rms="4.4749602675437927e-01" purity="2.8190541267395020e-01" nType="0">
          <Node pos="l" depth="2" NCoef="0" IVar="-1" Cut="0.0000000000000000e+00" cType="1" res="-1.9879438914358616e-03" rms="4.8747152090072632e-01" purity="3.9747616648674011e-01" nType="-99"/>
          <Node pos="r" depth="2" NCoef="0" IVar="-1" Cut="0.0000000000000000e+00" cType="1" res="-4.4406554661691189e-03" rms="3.9353561401367188e-01" purity="1.9451801478862762e-01" nType="-99"/>
        </Node>
      </Node>
    </BinaryTree>
    <BinaryTree type="DecisionTree" boostWeight="1.0000000000000000e+00" itree="10">
      <Node pos="s" depth="0" NCoef="0" IVar="24" Cut="3.8086757063865662e-02" cType="1" res="4.4636814855039120e-03" rms="4.9556267261505127e-01" purity="5.0641167163848877e-01" nType="0">
        <Node pos="l" depth="1" NCoef="0" IVar="23" Cut="3.0436214059591293e-02" cType="1" res="6.1270825564861298e-02" rms="4.9280998110771179e-01" purity="5.6760352849960327e-01" nType="0">
          <Node pos="l" depth="2" NCoef="0" IVar="-1" Cut="0.0000000000000000e+00" cType="1" res="2.9825267847627401e-03" rms="4.8508188128471375e-01" purity="6.0867184400558472e-01" nType="-99"/>
          <Node pos="r" depth="2" NCoef="0" IVar="-1" Cut="0.0000000000000000e+00" cType="1" res="-3.0169158708304167e-03" rms="4.6715313196182251e-01" purity="3.2502403855323792e-01" nType="-99"/>
        </Node>
        <Node pos="r" depth="1" NCoef="0" IVar="15" Cut="1.2433688640594482e+00" cType="1" res="-2.0693756639957428e-01" rms="4.4610258936882019e-01" purity="2.7869319915771484e-01" nType="0">
          <Node pos="l" depth="2" NCoef="0" IVar="-1" Cut="0.0000000000000000e+00" cType="1" res="-2.6349180843681097e-03" rms="4.8124873638153076e-01" purity="3.6901143193244934e-01" nType="-99"/>
          <Node pos="r" depth="2" NCoef="0" IVar="-1" Cut="0.0000000000000000e+00" cType="1" res="-4.2167841456830502e-03" rms="3.9610442519187927e-01" purity="1.9798004627227783e-01" nType="-99"/>
        </Node>
      </Node>
    </BinaryTree>
    <BinaryTree type="DecisionTree" boostWeight="1.0000000000000000e+00" itree="11">
      <Node pos="s" depth="0" NCoef="0" IVar="24" Cut="6.8436831235885620e-02" cType="1" res="1.6172900795936584e-02" rms="4.9485242366790771e-01" purity="5.1892578601837158e-01" nType="0">
        <Node pos="l" depth="1" NCoef="0" IVar="5" Cut="1.1904761791229248e+00" cType="1" res="5.5954374372959137e-02" rms="4.9316883087158203e-01" purity="5.6210911273956299e-01" nType="0">
          <Node pos="l" depth="2" NCoef="0" IVar="-1" Cut="0.0000000000000000e+00" cType="1" res="2.5543714873492718e-03" rms="4.8734021186828613e-01" purity="6.0875499248504639e-01" nType="-99"/>
          <Node pos="r" depth="2" NCoef="0" IVar="-1" Cut="0.0000000000000000e+00" cType="1" res="-4.1659190319478512e-03" rms="4.6798050403594971e-01" purity="3.2425823807716370e-01" nType="-99"/>
        </Node>
        <Node pos="r" depth="1" NCoef="0" IVar="-1" Cut="0.0000000000000000e+00" cType="1" res="-4.1663856245577335e-03" rms="3.9799311757087708e-01" purity="1.9859820604324341e-01" nType="-99"/>
      </Node>
    </BinaryTree>
    <BinaryTree type="DecisionTree" boostWeight="1.0000000000000000e+00" itree="12">
      <Node pos="s" depth="0" NCoef="0" IVar="24" Cut="5.3282413631677628e-02" cType="1" res="2.9582576826214790e-03" rms="4.9503394961357117e-01" purity="5.0621253252029419e-01" nType="0">
        <Node pos="l" depth="1" NCoef="0" IVar="23" Cut="3.8084011524915695e-02" cType="1" res="4.4985234737396240e-02" rms="4.9434489011764526e-01" purity="5.5268543958663940e-01" nType="0">
          <Node pos="l" depth="2" NCoef="0" IVar="-1" Cut="0.0000000000000000e+00" cType="1" res="2.1802121773362160e-03" rms="4.8892104625701904e-01" purity="5.8912330865859985e-01" nType="-99"/>
          <Node pos="r" depth="2" NCoef="0" IVar="-1" Cut="0.0000000000000000e+00" cType="1" res="-3.6121371667832136e-03" rms="4.5806485414505005e-01" purity="3.0156430602073669e-01" nType="-99"/>
        </Node>
        <Node pos="r" depth="1" NCoef="0" IVar="15" Cut="1.1444947719573975e+00" cType="1" res="-2.3566848039627075e-01" rms="4.2656531929969788e-01" purity="2.4234205484390259e-01" nType="0">
          <Node pos="l" depth="2" NCoef="0" IVar="-1" Cut="0.0000000000000000e+00" cType="1" res="-2.1557533182203770e-03" rms="4.7800967097282410e-01" purity="3.5738062858581543e-01" nType="-99"/>
          <Node pos="r" depth="2" NCoef="0" IVar="-1" Cut="0.0000000000000000e+00" cType="1" res="-4.5979777351021767e-03" rms="3.7123504281044006e-01" purity="1.6692315042018890e-01" nType="-99"/>
        </Node>
      </Node>
    </BinaryTree>
    <BinaryTree type="DecisionTree" boostWeight="1.0000000000000000e+00" itree="13">
      <Node pos="s" depth="0" NCoef="0" IVar="24" Cut="5.3321462124586105e-02" cType="1" res="-6.3926065340638161e-03" rms="4.9437391757965088e-01" purity="4.9687913060188293e-01" nType="0">
        <Node pos="l" depth="1" NCoef="0" IVar="23" Cut="5.3317617624998093e-02" cType="1" res="3.9572842419147491e-02" rms="4.9443516135215759e-01" purity="5.4792863130569458e-01" nType="0">
          <Node pos="l" depth="2" NCoef="0" IVar="-1" Cut="0.0000000000000000e+00" cType="1" res="1.9450064282864332e-03" rms="4.9001005291938782e-01" purity="5.8116668462753296e-01" nType="-99"/>
          <Node pos="r" depth="2" NCoef="0" IVar="-1" Cut="0.0000000000000000e+00" cType="1" res="-4.2461999692022800e-03" rms="4.2096304893493652e-01" purity="2.3105634748935699e-01" nType="-99"/>
        </Node>
        <Node pos="r" depth="1" NCoef="0" IVar="14" Cut="1.0488047599792480e+00" cType="1" res="-2.5041288137435913e-01" rms="4.1631919145584106e-01" purity="2.2586877644062042e-01" nType="0">
          <Node pos="l" depth="2" NCoef="0" IVar="-1" Cut="0.0000000000000000e+00" cType="1" res="-2.3730481043457985e-03" rms="4.7039839625358582e-01" purity="3.3671066164970398e-01" nType="-99"/>
          <Node pos="r" depth="2" NCoef="0" IVar="-1" Cut="0.0000000000000000e+00" cType="1" res="-5.1801018416881561e-03" rms="3.8121584057807922e-01" purity="1.7827387154102325e-01" nType="-99"/>
        </Node>
      </Node>
    </BinaryTree>
    <BinaryTree type="DecisionTree" boostWeight="1.0000000000000000e+00" itree="14">
      <Node pos="s" depth="0" NCoef="0" IVar="24" Cut="5.3282413631677628e-02" cType="1" res="-6.5447264350950718e-03" rms="4.9409025907516479e-01" purity="4.9708989262580872e-01" nType="0">
        <Node pos="l" depth="1" NCoef="0" IVar="23" Cut="5.3122431039810181e-02" cType="1" res="3.4540541470050812e-02" rms="4.9452099204063416e-01" purity="5.4343760013580322e-01" nType="0">
          <Node pos="l" depth="2" NCoef="0" IVar="-1" Cut="0.0000000000000000e+00" cType="1" res="1.7871458549052477e-03" rms="4.9051639437675476e-01" purity="5.7772743701934814e-01" nType="-99"/>
          <Node pos="r" depth="2" NCoef="0" IVar="-1" Cut="0.0000000000000000e+00" cType="1" res="-5.0586834549903870e-03" rms="4.1669157147407532e-01" purity="2.2537603974342346e-01" nType="-99"/>
        </Node>
        <Node pos="r" depth="1" NCoef="0" IVar="15" Cut="9.4669926166534424e-01" cType="1" res="-2.3764401674270630e-01" rms="4.2288103699684143e-01" purity="2.3639017343521118e-01" nType="0">
          <Node pos="l" depth="2" NCoef="0" IVar="-1" Cut="0.0000000000000000e+00" cType="1" res="-2.2889529354870319e-03" rms="4.7836723923683167e-01" purity="3.5981559753417969e-01" nType="-99"/>
          <Node pos="r" depth="2" NCoef="0" IVar="-1" Cut="0.0000000000000000e+00" cType="1" res="-4.6573760919272900e-03" rms="3.8485607504844666e-01" purity="1.8245264887809753e-01" nType="-99"/>
        </Node>
      </Node>
    </BinaryTree>
    <BinaryTree type="DecisionTree" boostWeight="1.0000000000000000e+00" itree="15">
      <Node pos="s" depth="0" NCoef="0" IVar="24" Cut="5.3321462124586105e-02" cType="1" res="-6.1368350870907307e-03" rms="4.9368724226951599e-01" purity="4.9731731414794922e-01" nType="0">
        <Node pos="l" depth="1" NCoef="0" IVar="23" Cut="3.8045268505811691e-02" cType="1" res="3.8968048989772797e-02" rms="4.9406412243843079e-01" purity="5.4844844341278076e-01" nType="0">
          <Node pos="l" depth="2" NCoef="0" IVar="-1" Cut="0.0000000000000000e+00" cType="1" res="2.1145634818822145e-03" rms="4.8888176679611206e-01" purity="5.8823031187057495e-01" nType="-99"/>
          <Node pos="r" depth="2" NCoef="0" IVar="-1" Cut="0.0000000000000000e+00" cType="1" res="-3.5695324186235666e-03" rms="4.5281198620796204e-01" purity="2.9150527715682983e-01" nType="-99"/>
        </Node>
        <Node pos="r" depth="1" NCoef="0" IVar="31" Cut="8.4249335527420044e-01" cType="1" res="-2.4138760566711426e-01" rms="4.1932278871536255e-01" purity="2.3063567280769348e-01" nType="0">
          <Node pos="l" depth="2" NCoef="0" IVar="-1" Cut="0.0000000000000000e+00" cType="1" res="-4.8194890841841698e-03" rms="3.6027321219444275e-01" purity="1.5446017682552338e-01" nType="-99"/>
          <Node pos="r" depth="2" NCoef="0" IVar="-1" Cut="0.0000000000000000e+00" cType="1" res="-2.6774259749799967e-03" rms="4.7291976213455200e-01" purity="3.4255537390708923e-01" nType="-99"/>
        </Node>
      </Node>
    </BinaryTree>
    <BinaryTree type="DecisionTree" boostWeight="1.0000000000000000e+00" itree="16">
      <Node pos="s" depth="0" NCoef="0" IVar="24" Cut="4.5624554157257080e-02" cType="1" res="3.2460479997098446e-03" rms="4.9330806732177734e-01" purity="5.0699293613433838e-01" nType="0">
        <Node pos="l" depth="1" NCoef="0" IVar="5" Cut="1.2380952835083008e+00" cType="1" res="4.5836124569177628e-02" rms="4.9276524782180786e-01" purity="5.5632853507995605e-01" nType="0">
          <Node pos="l" depth="2" NCoef="0" IVar="-1" Cut="0.0000000000000000e+00" cType="1" res="2.3234433028846979e-03" rms="4.8691451549530029e-01" purity="6.0803931951522827e-01" nType="-99"/>
          <Node pos="r" depth="2" NCoef="0" IVar="-1" Cut="0.0000000000000000e+00" cType="1" res="-4.0145469829440117e-03" rms="4.5488294959068298e-01" purity="2.9311105608940125e-01" nType="-99"/>
        </Node>
        <Node pos="r" depth="1" NCoef="0" IVar="15" Cut="9.6733278036117554e-01" cType="1" res="-1.8881985545158386e-01" rms="4.4799253344535828e-01" purity="2.8450706601142883e-01" nType="0">
          <Node pos="l" depth="2" NCoef="0" IVar="-1" Cut="0.0000000000000000e+00" cType="1" res="-1.0448751272633672e-03" rms="4.9387040734291077e-01" purity="4.3189787864685059e-01" nType="-99"/>
          <Node pos="r" depth="2" NCoef="0" IVar="-1" Cut="0.0000000000000000e+00" cType="1" res="-4.2866845615208149e-03" rms="4.0982204675674438e-01" purity="2.1769735217094421e-01" nType="-99"/>
        </Node>
      </Node>
    </BinaryTree>
    <BinaryTree type="DecisionTree" boostWeight="1.0000000000000000e+00" itree="17">
      <Node pos="s" depth="0" NCoef="0" IVar="24" Cut="6.8497747182846069e-02" cType="1" res="-6.0769903939217329e-04" rms="4.9324044585227966e-01" purity="5.0378847122192383e-01" nType="0">
        <Node pos="l" depth="1" NCoef="0" IVar="5" Cut="1.1904761791229248e+00" cType="1" res="3.3027410507202148e-02" rms="4.9386885762214661e-01" purity="5.4239118099212646e-01" nType="0">
          <Node pos="l" depth="2" NCoef="0" IVar="-1" Cut="0.0000000000000000e+00" cType="1" res="1.9189515151083469e-03" rms="4.9011602997779846e-01" purity="5.8947056531906128e-01" nType="-99"/>
          <Node pos="r" depth="2" NCoef="0" IVar="-1" Cut="0.0000000000000000e+00" cType="1" res="-4.1004954837262630e-03" rms="4.5966744422912598e-01" purity="3.0393663048744202e-01" nType="-99"/>
        </Node>
        <Node pos="r" depth="1" NCoef="0" IVar="-1" Cut="0.0000000000000000e+00" cType="1" res="-4.4473968446254730e-03" rms="4.0125659108161926e-01" purity="2.0311141014099121e-01" nType="-99"/>
      </Node>
    </BinaryTree>
    <BinaryTree type="DecisionTree" boostWeight="1.0000000000000000e+00" itree="18">
      <Node pos="s" depth="0" NCoef="0" IVar="24" Cut="3.7958756089210510e-02" cType="1" res="6.1836410313844681e-03" rms="4.9253457784652710e-01" purity="5.1091825962066650e-01" nType="0">
        <Node pos="l" depth="1" NCoef="0" IVar="5" Cut="1.2380952835083008e+00" cType="1" res="5.3678274154663086e-02" rms="4.9129390716552734e-01" purity="5.6568986177444458e-01" nType="0">
          <Node pos="l" depth="2" NCoef="0" IVar="-1" Cut="0.0000000000000000e+00" cType="1" res="2.5455253198742867e-03" rms="4.8511052131652832e-01" purity="6.1695206165313721e-01" nType="-99"/>
          <Node pos="r" depth="2" NCoef="0" IVar="-1" Cut="0.0000000000000000e+00" cType="1" res="-4.0656849741935730e-03" rms="4.6018752455711365e-01" purity="3.0568203330039978e-01" nType="-99"/>
        </Node>
        <Node pos="r" depth="1" NCoef="0" IVar="24" Cut="8.4238842129707336e-02" cType="1" res="-1.8765944242477417e-01" rms="4.4809642434120178e-01" purity="2.8737506270408630e-01" nType="0">
          <Node pos="l" depth="2" NCoef="0" IVar="-1" Cut="0.0000000000000000e+00" cType="1" res="-2.4001076817512512e-03" rms="4.8132133483886719e-01" purity="3.7558832764625549e-01" nType="-99"/>
          <Node pos="r" depth="2" NCoef="0" IVar="-1" Cut="0.0000000000000000e+00" cType="1" res="-3.9820550009608269e-03" rms="3.8191848993301392e-01" purity="1.7856705188751221e-01" nType="-99"/>
        </Node>
      </Node>
    </BinaryTree>
    <BinaryTree type="DecisionTree" boostWeight="1.0000000000000000e+00" itree="19">
      <Node pos="s" depth="0" NCoef="0" IVar="24" Cut="6.8325765430927277e-02" cType="1" res="2.2487505339086056e-03" rms="4.9158445000648499e-01" purity="5.0629621744155884e-01" nType="0">
        <Node pos="l" depth="1" NCoef="0" IVar="5" Cut="1.2380952835083008e+00" cType="1" res="4.1354514658451080e-02" rms="4.9210149049758911e-01" purity="5.5144524574279785e-01" nType="0">
          <Node pos="l" depth="2" NCoef="0" IVar="-1" Cut="0.0000000000000000e+00" cType="1" res="2.2769130300730467e-03" rms="4.8700374364852905e-01" purity="6.0471862554550171e-01" nType="-99"/>
          <Node pos="r" depth="2" NCoef="0" IVar="-1" Cut="0.0000000000000000e+00" cType="1" res="-3.7590244319289923e-03" rms="4.5746830105781555e-01" purity="2.9920727014541626e-01" nType="-99"/>
        </Node>
        <Node pos="r" depth="1" NCoef="0" IVar="-1" Cut="0.0000000000000000e+00" cType="1" res="-4.0476107969880104e-03" rms="3.8875210285186768e-01" purity="1.8770407140254974e-01" nType="-99"/>
      </Node>
    </BinaryTree>
    <BinaryTree type="DecisionTree" boostWeight="1.0000000000000000e+00" itree="20">
      <Node pos="s" depth="0" NCoef="0" IVar="24" Cut="5.3204227238893509e-02" cType="1" res="-1.1273149866610765e-03" rms="4.9183544516563416e-01" purity="5.0392860174179077e-01" nType="0">
        <Node pos="l" depth="1" NCoef="0" IVar="5" Cut="1.1904761791229248e+00" cType="1" res="3.6312427371740341e-02" rms="4.9248299002647400e-01" purity="5.4869705438613892e-01" nType="0">
          <Node pos="l" depth="2" NCoef="0" IVar="-1" Cut="0.0000000000000000e+00" cType="1" res="2.1108607761561871e-03" rms="4.8805284500122070e-01" purity="6.0271883010864258e-01" nType="-99"/>
          <Node pos="r" depth="2" NCoef="0" IVar="-1" Cut="0.0000000000000000e+00" cType="1" res="-3.6876848898828030e-03" rms="4.5096164941787720e-01" purity="2.8485518693923950e-01" nType="-99"/>
        </Node>
        <Node pos="r" depth="1" NCoef="0" IVar="15" Cut="9.5489543676376343e-01" cType="1" res="-2.1004554629325867e-01" rms="4.3229237198829651e-01" purity="2.5411531329154968e-01" nType="0">
          <Node pos="l" depth="2" NCoef="0" IVar="-1" Cut="0.0000000000000000e+00" cType="1" res="-1.5340831596404314e-03" rms="4.8756170272827148e-01" purity="4.0040051937103271e-01" nType="-99"/>
          <Node pos="r" depth="2" NCoef="0" IVar="-1" Cut="0.0000000000000000e+00" cType="1" res="-4.6336101368069649e-03" rms="3.9103591442108154e-01" purity="1.9108961522579193e-01" nType="-99"/>
        </Node>
      </Node>
    </BinaryTree>
    <BinaryTree type="DecisionTree" boostWeight="1.0000000000000000e+00" itree="21">
      <Node pos="s" depth="0" NCoef="0" IVar="24" Cut="5.3321462124586105e-02" cType="1" res="-4.1924747638404369e-03" rms="4.9136409163475037e-01" purity="5.0060999393463135e-01" nType="0">
        <Node pos="l" depth="1" NCoef="0" IVar="5" Cut="1.2380952835083008e+00" cType="1" res="3.4650120884180069e-02" rms="4.9234953522682190e-01" purity="5.4692846536636353e-01" nType="0">
          <Node pos="l" depth="2" NCoef="0" IVar="-1" Cut="0.0000000000000000e+00" cType="1" res="2.2359457798302174e-03" rms="4.8802608251571655e-01" purity="6.0234141349792480e-01" nType="-99"/>
          <Node pos="r" depth="2" NCoef="0" IVar="-1" Cut="0.0000000000000000e+00" cType="1" res="-3.2962441910058260e-03" rms="4.5529851317405701e-01" purity="2.9387411475181580e-01" nType="-99"/>
        </Node>
        <Node pos="r" depth="1" NCoef="0" IVar="31" Cut="8.6393266916275024e-01" cType="1" res="-2.2665673494338989e-01" rms="4.2161023616790771e-01" purity="2.3532910645008087e-01" nType="0">
          <Node pos="l" depth="2" NCoef="0" IVar="-1" Cut="0.0000000000000000e+00" cType="1" res="-4.4168648310005665e-03" rms="3.7802773714065552e-01" purity="1.7429782450199127e-01" nType="-99"/>
          <Node pos="r" depth="2" NCoef="0" IVar="-1" Cut="0.0000000000000000e+00" cType="1" res="-1.8137220758944750e-03" rms="4.8118290305137634e-01" purity="3.7354472279548645e-01" nType="-99"/>
        </Node>
      </Node>
    </BinaryTree>
    <BinaryTree type="DecisionTree" boostWeight="1.0000000000000000e+00" itree="22">
      <Node pos="s" depth="0" NCoef="0" IVar="5" Cut="1.1904761791229248e+00" cType="1" res="-2.2119947243481874e-03" rms="4.9116197228431702e-01" purity="5.0333356857299805e-01" nType="0">
        <Node pos="l" depth="1" NCoef="0" IVar="24" Cut="6.8505965173244476e-02" cType="1" res="3.7155628204345703e-02" rms="4.9095827341079712e-01" purity="5.5018675327301025e-01" nType="0">
          <Node pos="l" depth="2" NCoef="0" IVar="-1" Cut="0.0000000000000000e+00" cType="1" res="1.9417681032791734e-03" rms="4.8904055356979370e-01" purity="5.9464097023010254e-01" nType="-99"/>
          <Node pos="r" depth="2" NCoef="0" IVar="-1" Cut="0.0000000000000000e+00" cType="1" res="-4.2852433398365974e-03" rms="4.1079398989677429e-01" purity="2.1710838377475739e-01" nType="-99"/>
        </Node>
        <Node pos="r" depth="1" NCoef="0" IVar="7" Cut="2.0129878234863281e+02" cType="1" res="-2.0225389301776886e-01" rms="4.4086802005767822e-01" purity="2.6525455713272095e-01" nType="0">
          <Node pos="l" depth="2" NCoef="0" IVar="-1" Cut="0.0000000000000000e+00" cType="1" res="-2.1120347082614899e-03" rms="4.7915884852409363e-01" purity="3.6066707968711853e-01" nType="-99"/>
          <Node pos="r" depth="2" NCoef="0" IVar="-1" Cut="0.0000000000000000e+00" cType="1" res="-5.5811661295592785e-03" rms="4.1429179906845093e-01" purity="2.2073008120059967e-01" nType="-99"/>
        </Node>
      </Node>
    </BinaryTree>
    <BinaryTree type="DecisionTree" boostWeight="1.0000000000000000e+00" itree="23">
      <Node pos="s" depth="0" NCoef="0" IVar="24" Cut="4.5665167272090912e-02" cType="1" res="-9.0615898370742798e-03" rms="4.9096956849098206e-01" purity="4.9711474776268005e-01" nType="0">
        <Node pos="l" depth="1" NCoef="0" IVar="23" Cut="5.3263377398252487e-02" cType="1" res="3.5697057843208313e-02" rms="4.9217677116394043e-01" purity="5.5051767826080322e-01" nType="0">
          <Node pos="l" depth="2" NCoef="0" IVar="-1" Cut="0.0000000000000000e+00" cType="1" res="1.8657748587429523e-03" rms="4.8767253756523132e-01" purity="5.8591866493225098e-01" nType="-99"/>
          <Node pos="r" depth="2" NCoef="0" IVar="-1" Cut="0.0000000000000000e+00" cType="1" res="-4.6679815277457237e-03" rms="4.1181179881095886e-01" purity="2.1832077205181122e-01" nType="-99"/>
        </Node>
        <Node pos="r" depth="1" NCoef="0" IVar="15" Cut="1.2762519121170044e+00" cType="1" res="-2.2363898158073425e-01" rms="4.2392644286155701e-01" purity="2.4109564721584320e-01" nType="0">
          <Node pos="l" depth="2" NCoef="0" IVar="-1" Cut="0.0000000000000000e+00" cType="1" res="-2.7681824285537004e-03" rms="4.6830868721008301e-01" purity="3.3457368612289429e-01" nType="-99"/>
          <Node pos="r" depth="2" NCoef="0" IVar="-1" Cut="0.0000000000000000e+00" cType="1" res="-4.4412813149392605e-03" rms="3.6881059408187866e-01" purity="1.6526994109153748e-01" nType="-99"/>
        </Node>
      </Node>
    </BinaryTree>
    <BinaryTree type="DecisionTree" boostWeight="1.0000000000000000e+00" itree="24">
      <Node pos="s" depth="0" NCoef="0" IVar="24" Cut="5.3276028484106064e-02" cType="1" res="-1.5185543335974216e-02" rms="4.9087718129158020e-01" purity="4.9073728919029236e-01" nType="0">
        <Node pos="l" depth="1" NCoef="0" IVar="23" Cut="4.5560546219348907e-02" cType="1" res="2.1216174587607384e-02" rms="4.9330377578735352e-01" purity="5.3591185808181763e-01" nType="0">
          <Node pos="l" depth="2" NCoef="0" IVar="-1" Cut="0.0000000000000000e+00" cType="1" res="1.4783773804083467e-03" rms="4.8956874012947083e-01" purity="5.7376515865325928e-01" nType="-99"/>
          <Node pos="r" depth="2" NCoef="0" IVar="-1" Cut="0.0000000000000000e+00" cType="1" res="-3.7409961223602295e-03" rms="4.3205058574676514e-01" purity="2.5087019801139832e-01" nType="-99"/>
        </Node>
        <Node pos="r" depth="1" NCoef="0" IVar="15" Cut="1.0752767324447632e+00" cType="1" res="-2.1869820356369019e-01" rms="4.2282724380493164e-01" purity="2.3817795515060425e-01" nType="0">
          <Node pos="l" depth="2" NCoef="0" IVar="-1" Cut="0.0000000000000000e+00" cType="1" res="-2.2605280391871929e-03" rms="4.7046309709548950e-01" purity="3.3948037028312683e-01" nType="-99"/>
          <Node pos="r" depth="2" NCoef="0" IVar="-1" Cut="0.0000000000000000e+00" cType="1" res="-4.0070815011858940e-03" rms="3.8624790310859680e-01" purity="1.8492929637432098e-01" nType="-99"/>
        </Node>
      </Node>
    </BinaryTree>
    <BinaryTree type="DecisionTree" boostWeight="1.0000000000000000e+00" itree="25">
      <Node pos="s" depth="0" NCoef="0" IVar="24" Cut="6.8556167185306549e-02" cType="1" res="-5.1193581894040108e-03" rms="4.9042379856109619e-01" purity="5.0092887878417969e-01" nType="0">
        <Node pos="l" depth="1" NCoef="0" IVar="23" Cut="4.5654322952032089e-02" cType="1" res="3.0894447118043900e-02" rms="4.9241134524345398e-01" purity="5.4450380802154541e-01" nType="0">
          <Node pos="l" depth="2" NCoef="0" IVar="-1" Cut="0.0000000000000000e+00" cType="1" res="1.6390964156016707e-03" rms="4.8877033591270447e-01" purity="5.7698643207550049e-01" nType="-99"/>
          <Node pos="r" depth="2" NCoef="0" IVar="-1" Cut="0.0000000000000000e+00" cType="1" res="-3.7502984050661325e-03" rms="4.4896054267883301e-01" purity="2.8198689222335815e-01" nType="-99"/>
        </Node>
        <Node pos="r" depth="1" NCoef="0" IVar="10" Cut="1.2277986907958984e+02" cType="1" res="-2.7048766613006592e-01" rms="3.8228839635848999e-01" purity="1.7984610795974731e-01" nType="0">
          <Node pos="l" depth="2" NCoef="0" IVar="-1" Cut="0.0000000000000000e+00" cType="1" res="-4.7105001285672188e-03" rms="3.6299917101860046e-01" purity="1.5793447196483612e-01" nType="-99"/>
          <Node pos="r" depth="2" NCoef="0" IVar="-1" Cut="0.0000000000000000e+00" cType="1" res="-4.2753834277391434e-03" rms="4.1749778389930725e-01" purity="2.2740533947944641e-01" nType="-99"/>
        </Node>
      </Node>
    </BinaryTree>
    <BinaryTree type="DecisionTree" boostWeight="1.0000000000000000e+00" itree="26">
      <Node pos="s" depth="0" NCoef="0" IVar="24" Cut="4.5624554157257080e-02" cType="1" res="-1.4176341705024242e-02" rms="4.9046826362609863e-01" purity="4.9208945035934448e-01" nType="0">
        <Node pos="l" depth="1" NCoef="0" IVar="23" Cut="6.0872428119182587e-02" cType="1" res="2.4525491520762444e-02" rms="4.9292048811912537e-01" purity="5.4093742370605469e-01" nType="0">
          <Node pos="l" depth="2" NCoef="0" IVar="-1" Cut="0.0000000000000000e+00" cType="1" res="1.3318263227120042e-03" rms="4.9023076891899109e-01" purity="5.7148307561874390e-01" nType="-99"/>
          <Node pos="r" depth="2" NCoef="0" IVar="-1" Cut="0.0000000000000000e+00" cType="1" res="-4.8072799108922482e-03" rms="4.0377220511436462e-01" purity="2.0607946813106537e-01" nType="-99"/>
        </Node>
        <Node pos="r" depth="1" NCoef="0" IVar="15" Cut="9.0855753421783447e-01" cType="1" res="-1.9917657971382141e-01" rms="4.3318241834640503e-01" purity="2.5858929753303528e-01" nType="0">
          <Node pos="l" depth="2" NCoef="0" IVar="-1" Cut="0.0000000000000000e+00" cType="1" res="-7.3639134643599391e-04" rms="4.9119424819946289e-01" purity="4.3023169040679932e-01" nType="-99"/>
          <Node pos="r" depth="2" NCoef="0" IVar="-1" Cut="0.0000000000000000e+00" cType="1" res="-3.8213015068322420e-03" rms="3.9519593119621277e-01" purity="1.9796752929687500e-01" nType="-99"/>
        </Node>
      </Node>
    </BinaryTree>
    <BinaryTree type="DecisionTree" boostWeight="1.0000000000000000e+00" itree="27">
      <Node pos="s" depth="0" NCoef="0" IVar="23" Cut="4.5654322952032089e-02" cType="1" res="4.5665260404348373e-03" rms="4.8996654152870178e-01" purity="5.1156294345855713e-01" nType="0">
        <Node pos="l" depth="1" NCoef="0" IVar="5" Cut="1.1904761791229248e+00" cType="1" res="3.1992733478546143e-02" rms="4.8850256204605103e-01" purity="5.4043579101562500e-01" nType="0">
          <Node pos="l" depth="2" NCoef="0" IVar="-1" Cut="0.0000000000000000e+00" cType="1" res="1.8523571779951453e-03" rms="4.8464033007621765e-01" purity="5.8876967430114746e-01" nType="-99"/>
          <Node pos="r" depth="2" NCoef="0" IVar="-1" Cut="0.0000000000000000e+00" cType="1" res="-4.5127356424927711e-03" rms="4.5471903681755066e-01" purity="2.9358798265457153e-01" nType="-99"/>
        </Node>
        <Node pos="r" depth="1" NCoef="0" IVar="-1" Cut="0.0000000000000000e+00" cType="1" res="-4.4331564567983150e-03" rms="4.2727234959602356e-01" purity="2.4571743607521057e-01" nType="-99"/>
      </Node>
    </BinaryTree>
    <BinaryTree type="DecisionTree" boostWeight="1.0000000000000000e+00" itree="28">
      <Node pos="s" depth="0" NCoef="0" IVar="24" Cut="6.0886889696121216e-02" cType="1" res="-7.8445067629218102e-03" rms="4.8929473757743835e-01" purity="4.9876976013183594e-01" nType="0">
        <Node pos="l" depth="1" NCoef="0" IVar="23" Cut="5.3317617624998093e-02" cType="1" res="2.7864670380949974e-02" rms="4.9155077338218689e-01" purity="5.4320424795150757e-01" nType="0">
          <Node pos="l" depth="2" NCoef="0" IVar="-1" Cut="0.0000000000000000e+00" cType="1" res="1.5757470391690731e-03" rms="4.8790520429611206e-01" purity="5.7984447479248047e-01" nType="-99"/>
          <Node pos="r" depth="2" NCoef="0" IVar="-1" Cut="0.0000000000000000e+00" cType="1" res="-4.2090788483619690e-03" rms="4.1759547591209412e-01" purity="2.2498698532581329e-01" nType="-99"/>
        </Node>
        <Node pos="r" depth="1" NCoef="0" IVar="15" Cut="1.0552271604537964e+00" cType="1" res="-2.4141044914722443e-01" rms="4.0254464745521545e-01" purity="2.0813380181789398e-01" nType="0">
          <Node pos="l" depth="2" NCoef="0" IVar="-1" Cut="0.0000000000000000e+00" cType="1" res="-2.1819681860506535e-03" rms="4.7307470440864563e-01" purity="3.4520241618156433e-01" nType="-99"/>
          <Node pos="r" depth="2" NCoef="0" IVar="-1" Cut="0.0000000000000000e+00" cType="1" res="-4.2014168575406075e-03" rms="3.4496557712554932e-01" purity="1.4005006849765778e-01" nType="-99"/>
        </Node>
      </Node>
    </BinaryTree>
    <BinaryTree type="DecisionTree" boostWeight="1.0000000000000000e+00" itree="29">
      <Node pos="s" depth="0" NCoef="0" IVar="24" Cut="3.8058869540691376e-02" cType="1" res="-1.3407208956778049e-02" rms="4.8881971836090088e-01" purity="4.9250823259353638e-01" nType="0">
        <Node pos="l" depth="1" NCoef="0" IVar="5" Cut="1.1904761791229248e+00" cType="1" res="3.0581627041101456e-02" rms="4.9064159393310547e-01" purity="5.4761958122253418e-01" nType="0">
          <Node pos="l" depth="2" NCoef="0" IVar="-1" Cut="0.0000000000000000e+00" cType="1" res="1.9153633620589972e-03" rms="4.8698720335960388e-01" purity="6.0264515876770020e-01" nType="-99"/>
          <Node pos="r" depth="2" NCoef="0" IVar="-1" Cut="0.0000000000000000e+00" cType="1" res="-3.5613598302006721e-03" rms="4.5061621069908142e-01" purity="2.8498506546020508e-01" nType="-99"/>
        </Node>
        <Node pos="r" depth="1" NCoef="0" IVar="31" Cut="8.4483784437179565e-01" cType="1" res="-1.8289180099964142e-01" rms="4.4259339570999146e-01" purity="2.8016975522041321e-01" nType="0">
          <Node pos="l" depth="2" NCoef="0" IVar="-1" Cut="0.0000000000000000e+00" cType="1" res="-4.7071622684597969e-03" rms="3.8507467508316040e-01" purity="1.8679413199424744e-01" nType="-99"/>
          <Node pos="r" depth="2" NCoef="0" IVar="-1" Cut="0.0000000000000000e+00" cType="1" res="-1.5578052261844277e-03" rms="4.8188796639442444e-01" purity="3.8578906655311584e-01" nType="-99"/>
        </Node>
      </Node>
    </BinaryTree>
    <BinaryTree type="DecisionTree" boostWeight="1.0000000000000000e+00" itree="30">
      <Node pos="s" depth="0" NCoef="0" IVar="24" Cut="6.8556167185306549e-02" cType="1" res="-5.6047723628580570e-03" rms="4.8909655213356018e-01" purity="5.0150322914123535e-01" nType="0">
        <Node pos="l" depth="1" NCoef="0" IVar="23" Cut="5.3317617624998093e-02" cType="1" res="2.4951592087745667e-02" rms="4.9143168330192566e-01" purity="5.4022163152694702e-01" nType="0">
          <Node pos="l" depth="2" NCoef="0" IVar="-1" Cut="0.0000000000000000e+00" cType="1" res="1.3131253654137254e-03" rms="4.8898017406463623e-01" purity="5.7156395912170410e-01" nType="-99"/>
          <Node pos="r" depth="2" NCoef="0" IVar="-1" Cut="0.0000000000000000e+00" cType="1" res="-4.3526040390133858e-03" rms="4.3022841215133667e-01" purity="2.4770995974540710e-01" nType="-99"/>
        </Node>
        <Node pos="r" depth="1" NCoef="0" IVar="-1" Cut="0.0000000000000000e+00" cType="1" res="-3.8394406437873840e-03" rms="3.9504072070121765e-01" purity="1.9687430560588837e-01" nType="-99"/>
      </Node>
    </BinaryTree>
    <BinaryTree type="DecisionTree" boostWeight="1.0000000000000000e+00" itree="31">
      <Node pos="s" depth="0" NCoef="0" IVar="24" Cut="3.8002576678991318e-02" cType="1" res="-5.4228529334068298e-03" rms="4.8869463801383972e-01" purity="5.0204223394393921e-01" nType="0">
        <Node pos="l" depth="1" NCoef="0" IVar="5" Cut="1.2380952835083008e+00" cType="1" res="3.9578650146722794e-02" rms="4.8995649814605713e-01" purity="5.5842745304107666e-01" nType="0">
          <Node pos="l" depth="2" NCoef="0" IVar="-1" Cut="0.0000000000000000e+00" cType="1" res="1.9317053956910968e-03" rms="4.8625639081001282e-01" purity="6.0633057355880737e-01" nType="-99"/>
          <Node pos="r" depth="2" NCoef="0" IVar="-1" Cut="0.0000000000000000e+00" cType="1" res="-4.3725748546421528e-03" rms="4.6012765169143677e-01" purity="3.0577832460403442e-01" nType="-99"/>
        </Node>
        <Node pos="r" depth="1" NCoef="0" IVar="14" Cut="9.2436671257019043e-01" cType="1" res="-1.9135332107543945e-01" rms="4.3678703904151917e-01" purity="2.6907849311828613e-01" nType="0">
          <Node pos="l" depth="2" NCoef="0" IVar="-1" Cut="0.0000000000000000e+00" cType="1" res="-8.9097261661663651e-04" rms="4.8498973250389099e-01" purity="4.2598992586135864e-01" nType="-99"/>
          <Node pos="r" depth="2" NCoef="0" IVar="-1" Cut="0.0000000000000000e+00" cType="1" res="-4.0377294644713402e-03" rms="4.0970218181610107e-01" purity="2.2135165333747864e-01" nType="-99"/>
        </Node>
      </Node>
    </BinaryTree>
    <BinaryTree type="DecisionTree" boostWeight="1.0000000000000000e+00" itree="32">
      <Node pos="s" depth="0" NCoef="0" IVar="24" Cut="4.5704107731580734e-02" cType="1" res="-1.3370336964726448e-02" rms="4.8796051740646362e-01" purity="4.9345663189888000e-01" nType="0">
        <Node pos="l" depth="1" NCoef="0" IVar="5" Cut="1.2380952835083008e+00" cType="1" res="2.5595365092158318e-02" rms="4.9067506194114685e-01" purity="5.4401749372482300e-01" nType="0">
          <Node pos="l" depth="2" NCoef="0" IVar="-1" Cut="0.0000000000000000e+00" cType="1" res="1.7334094736725092e-03" rms="4.8808583617210388e-01" purity="5.9580039978027344e-01" nType="-99"/>
          <Node pos="r" depth="2" NCoef="0" IVar="-1" Cut="0.0000000000000000e+00" cType="1" res="-3.9875982329249382e-03" rms="4.4946315884590149e-01" purity="2.8205814957618713e-01" nType="-99"/>
        </Node>
        <Node pos="r" depth="1" NCoef="0" IVar="15" Cut="1.5564780235290527e+00" cType="1" res="-1.9827142357826233e-01" rms="4.2907607555389404e-01" purity="2.5353431701660156e-01" nType="0">
          <Node pos="l" depth="2" NCoef="0" IVar="-1" Cut="0.0000000000000000e+00" cType="1" res="-2.7639155741780996e-03" rms="4.6194612979888916e-01" purity="3.2165414094924927e-01" nType="-99"/>
          <Node pos="r" depth="2" NCoef="0" IVar="-1" Cut="0.0000000000000000e+00" cType="1" res="-4.5877299271523952e-03" rms="3.4195107221603394e-01" purity="1.4041532576084137e-01" nType="-99"/>
        </Node>
      </Node>
    </BinaryTree>
    <BinaryTree type="DecisionTree" boostWeight="1.0000000000000000e+00" itree="33">
      <Node pos="s" depth="0" NCoef="0" IVar="24" Cut="5.3204227238893509e-02" cType="1" res="-1.2732241302728653e-02" rms="4.8796129226684570e-01" purity="4.9359843134880066e-01" nType="0">
        <Node pos="l" depth="1" NCoef="0" IVar="23" Cut="3.0467208474874496e-02" cType="1" res="2.4222088977694511e-02" rms="4.9097999930381775e-01" purity="5.4184180498123169e-01" nType="0">
          <Node pos="l" depth="2" NCoef="0" IVar="-1" Cut="0.0000000000000000e+00" cType="1" res="1.5563875203952193e-03" rms="4.8700639605522156e-01" purity="5.8384126424789429e-01" nType="-99"/>
          <Node pos="r" depth="2" NCoef="0" IVar="-1" Cut="0.0000000000000000e+00" cType="1" res="-3.5313111729919910e-03" rms="4.5125028491020203e-01" purity="2.9304710030555725e-01" nType="-99"/>
        </Node>
        <Node pos="r" depth="1" NCoef="0" IVar="24" Cut="7.8558444976806641e-02" cType="1" res="-2.1513740718364716e-01" rms="4.1650068759918213e-01" purity="2.2936123609542847e-01" nType="0">
          <Node pos="l" depth="2" NCoef="0" IVar="-1" Cut="0.0000000000000000e+00" cType="1" res="-2.4289807770401239e-03" rms="4.6379029750823975e-01" purity="3.2185330986976624e-01" nType="-99"/>
          <Node pos="r" depth="2" NCoef="0" IVar="-1" Cut="0.0000000000000000e+00" cType="1" res="-4.2688637040555477e-03" rms="3.8006398081779480e-01" purity="1.7766042053699493e-01" nType="-99"/>
        </Node>
      </Node>
    </BinaryTree>
    <BinaryTree type="DecisionTree" boostWeight="1.0000000000000000e+00" itree="34">
      <Node pos="s" depth="0" NCoef="0" IVar="24" Cut="5.3276028484106064e-02" cType="1" res="-9.4031291082501411e-03" rms="4.8731318116188049e-01" purity="4.9751618504524231e-01" nType="0">
        <Node pos="l" depth="1" NCoef="0" IVar="23" Cut="4.5700814574956894e-02" cType="1" res="2.5916498154401779e-02" rms="4.8991942405700684e-01" purity="5.4401141405105591e-01" nType="0">
          <Node pos="l" depth="2" NCoef="0" IVar="-1" Cut="0.0000000000000000e+00" cType="1" res="1.5819336986169219e-03" rms="4.8673707246780396e-01" purity="5.7998102903366089e-01" nType="-99"/>
          <Node pos="r" depth="2" NCoef="0" IVar="-1" Cut="0.0000000000000000e+00" cType="1" res="-4.0878755971789360e-03" rms="4.3285816907882690e-01" purity="2.5196504592895508e-01" nType="-99"/>
        </Node>
        <Node pos="r" depth="1" NCoef="0" IVar="15" Cut="1.0821005105972290e+00" cType="1" res="-2.0950360596179962e-01" rms="4.1944864392280579e-01" purity="2.3410105705261230e-01" nType="0">
          <Node pos="l" depth="2" NCoef="0" IVar="-1" Cut="0.0000000000000000e+00" cType="1" res="-1.7621739534661174e-03" rms="4.7162362933158875e-01" purity="3.4273403882980347e-01" nType="-99"/>
          <Node pos="r" depth="2" NCoef="0" IVar="-1" Cut="0.0000000000000000e+00" cType="1" res="-4.0737241506576538e-03" rms="3.7550386786460876e-01" purity="1.7257636785507202e-01" nType="-99"/>
        </Node>
      </Node>
    </BinaryTree>
    <BinaryTree type="DecisionTree" boostWeight="1.0000000000000000e+00" itree="35">
      <Node pos="s" depth="0" NCoef="0" IVar="23" Cut="5.3263377398252487e-02" cType="1" res="-1.4161995612084866e-02" rms="4.8732599616050720e-01" purity="4.9297249317169189e-01" nType="0">
        <Node pos="l" depth="1" NCoef="0" IVar="24" Cut="6.0894187539815903e-02" cType="1" res="1.2915209867060184e-02" rms="4.8722890019416809e-01" purity="5.2256697416305542e-01" nType="0">
          <Node pos="l" depth="2" NCoef="0" IVar="-1" Cut="0.0000000000000000e+00" cType="1" res="1.2689618160948157e-03" rms="4.8836955428123474e-01" purity="5.7195621728897095e-01" nType="-99"/>
          <Node pos="r" depth="2" NCoef="0" IVar="-1" Cut="0.0000000000000000e+00" cType="1" res="-3.7653087638318539e-03" rms="4.1521170735359192e-01" purity="2.2739921510219574e-01" nType="-99"/>
        </Node>
        <Node pos="r" depth="1" NCoef="0" IVar="-1" Cut="0.0000000000000000e+00" cType="1" res="-4.4531677849590778e-03" rms="3.9802366495132446e-01" purity="1.9826613366603851e-01" nType="-99"/>
      </Node>
    </BinaryTree>
    <BinaryTree type="DecisionTree" boostWeight="1.0000000000000000e+00" itree="36">
      <Node pos="s" depth="0" NCoef="0" IVar="24" Cut="3.8054306060075760e-02" cType="1" res="-6.2354900874197483e-03" rms="4.8732262849807739e-01" purity="5.0051164627075195e-01" nType="0">
        <Node pos="l" depth="1" NCoef="0" IVar="5" Cut="1.1904761791229248e+00" cType="1" res="3.6431849002838135e-02" rms="4.8919314146041870e-01" purity="5.5673694610595703e-01" nType="0">
          <Node pos="l" depth="2" NCoef="0" IVar="-1" Cut="0.0000000000000000e+00" cType="1" res="1.9112848676741123e-03" rms="4.8543927073478699e-01" purity="6.0769563913345337e-01" nType="-99"/>
          <Node pos="r" depth="2" NCoef="0" IVar="-1" Cut="0.0000000000000000e+00" cType="1" res="-3.6149898078292608e-03" rms="4.6240192651748657e-01" purity="3.1131088733673096e-01" nType="-99"/>
        </Node>
        <Node pos="r" depth="1" NCoef="0" IVar="15" Cut="9.0194547176361084e-01" cType="1" res="-1.7183373868465424e-01" rms="4.4261240959167480e-01" purity="2.8229326009750366e-01" nType="0">
          <Node pos="l" depth="2" NCoef="0" IVar="-1" Cut="0.0000000000000000e+00" cType="1" res="-6.4503529574722052e-04" rms="4.9159637093544006e-01" purity="4.3868818879127502e-01" nType="-99"/>
          <Node pos="r" depth="2" NCoef="0" IVar="-1" Cut="0.0000000000000000e+00" cType="1" res="-3.4678694792091846e-03" rms="4.1017270088195801e-01" purity="2.2348384559154510e-01" nType="-99"/>
        </Node>
      </Node>
    </BinaryTree>
    <BinaryTree type="DecisionTree" boostWeight="1.0000000000000000e+00" itree="37">
      <Node pos="s" depth="0" NCoef="0" IVar="24" Cut="6.0938812792301178e-02" cType="1" res="-9.2125367373228073e-03" rms="4.8683696985244751e-01" purity="4.9785614013671875e-01" nType="0">
        <Node pos="l" depth="1" NCoef="0" IVar="23" Cut="2.2794425487518311e-02" cType="1" res="2.3527905344963074e-02" rms="4.8991656303405762e-01" purity="5.4218399524688721e-01" nType="0">
          <Node pos="l" depth="2" NCoef="0" IVar="-1" Cut="0.0000000000000000e+00" cType="1" res="1.6762611921876669e-03" rms="4.8540893197059631e-01" purity="5.8726716041564941e-01" nType="-99"/>
          <Node pos="r" depth="2" NCoef="0" IVar="-1" Cut="0.0000000000000000e+00" cType="1" res="-2.8518061153590679e-03" rms="4.6492701768875122e-01" purity="3.3099082112312317e-01" nType="-99"/>
        </Node>
        <Node pos="r" depth="1" NCoef="0" IVar="15" Cut="1.2063468694686890e+00" cType="1" res="-2.1155972778797150e-01" rms="4.1334035992622375e-01" purity="2.2389501333236694e-01" nType="0">
          <Node pos="l" depth="2" NCoef="0" IVar="-1" Cut="0.0000000000000000e+00" cType="1" res="-2.0327975507825613e-03" rms="4.7266131639480591e-01" purity="3.4484162926673889e-01" nType="-99"/>
          <Node pos="r" depth="2" NCoef="0" IVar="-1" Cut="0.0000000000000000e+00" cType="1" res="-3.9461180567741394e-03" rms="3.5185417532920837e-01" purity="1.4635041356086731e-01" nType="-99"/>
        </Node>
      </Node>
    </BinaryTree>
    <BinaryTree type="DecisionTree" boostWeight="1.0000000000000000e+00" itree="38">
      <Node pos="s" depth="0" NCoef="0" IVar="23" Cut="6.0856461524963379e-02" cType="1" res="1.5470512444153428e-03" rms="4.8590499162673950e-01" purity="5.0861299037933350e-01" nType="0">
        <Node pos="l" depth="1" NCoef="0" IVar="24" Cut="5.3321462124586105e-02" cType="1" res="2.5556255131959915e-02" rms="4.8531320691108704e-01" purity="5.3502976894378662e-01" nType="0">
          <Node pos="l" depth="2" NCoef="0" IVar="-1" Cut="0.0000000000000000e+00" cType="1" res="1.8415056401863694e-03" rms="4.8476129770278931e-01" purity="5.9016966819763184e-01" nType="-99"/>
          <Node pos="r" depth="2" NCoef="0" IVar="-1" Cut="0.0000000000000000e+00" cType="1" res="-3.1390234362334013e-03" rms="4.3302440643310547e-01" purity="2.5678098201751709e-01" nType="-99"/>
        </Node>
        <Node pos="r" depth="1" NCoef="0" IVar="-1" Cut="0.0000000000000000e+00" cType="1" res="-4.9315341748297215e-03" rms="3.8711774349212646e-01" purity="1.8553119897842407e-01" nType="-99"/>
      </Node>
    </BinaryTree>
    <BinaryTree type="DecisionTree" boostWeight="1.0000000000000000e+00" itree="39">
      <Node pos="s" depth="0" NCoef="0" IVar="5" Cut="1.1904761791229248e+00" cType="1" res="-1.2550003826618195e-02" rms="4.8576673865318298e-01" purity="4.9499249458312988e-01" nType="0">
        <Node pos="l" depth="1" NCoef="0" IVar="31" Cut="8.6314463615417480e-01" cType="1" res="2.6123560965061188e-02" rms="4.8645585775375366e-01" purity="5.4381388425827026e-01" nType="0">
          <Node pos="l" depth="2" NCoef="0" IVar="-1" Cut="0.0000000000000000e+00" cType="1" res="-2.7862100396305323e-03" rms="4.5942294597625732e-01" purity="3.4989041090011597e-01" nType="-99"/>
          <Node pos="r" depth="2" NCoef="0" IVar="-1" Cut="0.0000000000000000e+00" cType="1" res="2.2139493376016617e-03" rms="4.8163697123527527e-01" purity="6.1537271738052368e-01" nType="-99"/>
        </Node>
        <Node pos="r" depth="1" NCoef="0" IVar="9" Cut="9.5238097012042999e-02" cType="1" res="-1.9940480589866638e-01" rms="4.3656745553016663e-01" purity="2.5910773873329163e-01" nType="0">
          <Node pos="l" depth="2" NCoef="0" IVar="-1" Cut="0.0000000000000000e+00" cType="1" res="-3.9945892058312893e-03" rms="4.7443869709968567e-01" purity="3.5376015305519104e-01" nType="-99"/>
          <Node pos="r" depth="2" NCoef="0" IVar="-1" Cut="0.0000000000000000e+00" cType="1" res="-3.7829931825399399e-03" rms="4.1495221853256226e-01" purity="2.2268518805503845e-01" nType="-99"/>
        </Node>
      </Node>
    </BinaryTree>
    <BinaryTree type="DecisionTree" boostWeight="1.0000000000000000e+00" itree="40">
      <Node pos="s" depth="0" NCoef="0" IVar="23" Cut="4.5588850975036621e-02" cType="1" res="-9.6050081774592400e-03" rms="4.8655784130096436e-01" purity="4.9873393774032593e-01" nType="0">
        <Node pos="l" depth="1" NCoef="0" IVar="24" Cut="6.8505965173244476e-02" cType="1" res="1.9762197509407997e-02" rms="4.8607656359672546e-01" purity="5.3148108720779419e-01" nType="0">
          <Node pos="l" depth="2" NCoef="0" IVar="-1" Cut="0.0000000000000000e+00" cType="1" res="1.2816727394238114e-03" rms="4.8731696605682373e-01" purity="5.7392883300781250e-01" nType="-99"/>
          <Node pos="r" depth="2" NCoef="0" IVar="-1" Cut="0.0000000000000000e+00" cType="1" res="-3.7254171911627054e-03" rms="4.0783113241195679e-01" purity="2.1528224647045135e-01" nType="-99"/>
        </Node>
        <Node pos="r" depth="1" NCoef="0" IVar="-1" Cut="0.0000000000000000e+00" cType="1" res="-4.3522315099835396e-03" rms="4.1851663589477539e-01" purity="2.2940054535865784e-01" nType="-99"/>
      </Node>
    </BinaryTree>
    <BinaryTree type="DecisionTree" boostWeight="1.0000000000000000e+00" itree="41">
      <Node pos="s" depth="0" NCoef="0" IVar="24" Cut="6.8556167185306549e-02" cType="1" res="-4.4300104491412640e-03" rms="4.8525995016098022e-01" purity="5.0282734632492065e-01" nType="0">
        <Node pos="l" depth="1" NCoef="0" IVar="23" Cut="5.3149353712797165e-02" cType="1" res="3.0107550323009491e-02" rms="4.8875945806503296e-01" purity="5.4917776584625244e-01" nType="0">
          <Node pos="l" depth="2" NCoef="0" IVar="-1" Cut="0.0000000000000000e+00" cType="1" res="1.5918621793389320e-03" rms="4.8614773154258728e-01" purity="5.8203881978988647e-01" nType="-99"/>
          <Node pos="r" depth="2" NCoef="0" IVar="-1" Cut="0.0000000000000000e+00" cType="1" res="-3.8947425782680511e-03" rms="4.2963203787803650e-01" purity="2.4439246952533722e-01" nType="-99"/>
        </Node>
        <Node pos="r" depth="1" NCoef="0" IVar="15" Cut="1.1748371124267578e+00" cType="1" res="-2.4428431689739227e-01" rms="3.8208812475204468e-01" purity="1.8093609809875488e-01" nType="0">
          <Node pos="l" depth="2" NCoef="0" IVar="-1" Cut="0.0000000000000000e+00" cType="1" res="-2.9669527430087328e-03" rms="4.3720734119415283e-01" purity="2.6142096519470215e-01" nType="-99"/>
          <Node pos="r" depth="2" NCoef="0" IVar="-1" Cut="0.0000000000000000e+00" cType="1" res="-4.2045125737786293e-03" rms="3.2879793643951416e-01" purity="1.2428905069828033e-01" nType="-99"/>
        </Node>
      </Node>
    </BinaryTree>
    <BinaryTree type="DecisionTree" boostWeight="1.0000000000000000e+00" itree="42">
      <Node pos="s" depth="0" NCoef="0" IVar="5" Cut="1.2380952835083008e+00" cType="1" res="-3.9260941557586193e-03" rms="4.8546054959297180e-01" purity="5.0472593307495117e-01" nType="0">
        <Node pos="l" depth="1" NCoef="0" IVar="31" Cut="8.4112805128097534e-01" cType="1" res="3.1302988529205322e-02" rms="4.8550337553024292e-01" purity="5.4993331432342529e-01" nType="0">
          <Node pos="l" depth="2" NCoef="0" IVar="-1" Cut="0.0000000000000000e+00" cType="1" res="-3.4254475031048059e-03" rms="4.5678052306175232e-01" purity="3.3330118656158447e-01" nType="-99"/>
          <Node pos="r" depth="2" NCoef="0" IVar="-1" Cut="0.0000000000000000e+00" cType="1" res="2.0970739424228668e-03" rms="4.8074057698249817e-01" purity="6.0799050331115723e-01" nType="-99"/>
        </Node>
        <Node pos="r" depth="1" NCoef="0" IVar="18" Cut="1.4959894418716431e+00" cType="1" res="-1.8565271794795990e-01" rms="4.4275367259979248e-01" purity="2.7152672410011292e-01" nType="0">
          <Node pos="l" depth="2" NCoef="0" IVar="-1" Cut="0.0000000000000000e+00" cType="1" res="-4.7851842828094959e-03" rms="4.0754607319831848e-01" purity="2.1300952136516571e-01" nType="-99"/>
          <Node pos="r" depth="2" NCoef="0" IVar="-1" Cut="0.0000000000000000e+00" cType="1" res="-2.9138971585780382e-03" rms="4.7001799941062927e-01" purity="3.3519428968429565e-01" nType="-99"/>
        </Node>
      </Node>
    </BinaryTree>
    <BinaryTree type="DecisionTree" boostWeight="1.0000000000000000e+00" itree="43">
      <Node pos="s" depth="0" NCoef="0" IVar="5" Cut="1.2380952835083008e+00" cType="1" res="-2.5447681546211243e-03" rms="4.8585963249206543e-01" purity="5.0625067949295044e-01" nType="0">
        <Node pos="l" depth="1" NCoef="0" IVar="24" Cut="3.8020461797714233e-02" cType="1" res="3.0713498592376709e-02" rms="4.8583322763442993e-01" purity="5.4992800951004028e-01" nType="0">
          <Node pos="l" depth="2" NCoef="0" IVar="-1" Cut="0.0000000000000000e+00" cType="1" res="1.9455106230452657e-03" rms="4.8418954014778137e-01" purity="6.0941338539123535e-01" nType="-99"/>
          <Node pos="r" depth="2" NCoef="0" IVar="-1" Cut="0.0000000000000000e+00" cType="1" res="-2.6851331349462271e-03" rms="4.5407032966613770e-01" purity="3.1033265590667725e-01" nType="-99"/>
        </Node>
        <Node pos="r" depth="1" NCoef="0" IVar="9" Cut="9.5238097012042999e-02" cType="1" res="-1.7346948385238647e-01" rms="4.4865521788597107e-01" purity="2.8177908062934875e-01" nType="0">
          <Node pos="l" depth="2" NCoef="0" IVar="-1" Cut="0.0000000000000000e+00" cType="1" res="-3.9062853902578354e-03" rms="4.8089680075645447e-01" purity="3.7048786878585815e-01" nType="-99"/>
          <Node pos="r" depth="2" NCoef="0" IVar="-1" Cut="0.0000000000000000e+00" cType="1" res="-3.9355624467134476e-03" rms="4.2778944969177246e-01" purity="2.4308361113071442e-01" nType="-99"/>
        </Node>
      </Node>
    </BinaryTree>
    <BinaryTree type="DecisionTree" boostWeight="1.0000000000000000e+00" itree="44">
      <Node pos="s" depth="0" NCoef="0" IVar="24" Cut="4.5704107731580734e-02" cType="1" res="-1.5499680303037167e-02" rms="4.8429527878761292e-01" purity="4.9219301342964172e-01" nType="0">
        <Node pos="l" depth="1" NCoef="0" IVar="23" Cut="5.3317617624998093e-02" cType="1" res="2.4595519527792931e-02" rms="4.8819485306739807e-01" purity="5.4809451103210449e-01" nType="0">
          <Node pos="l" depth="2" NCoef="0" IVar="-1" Cut="0.0000000000000000e+00" cType="1" res="1.4621294103562832e-03" rms="4.8554736375808716e-01" purity="5.8459478616714478e-01" nType="-99"/>
          <Node pos="r" depth="2" NCoef="0" IVar="-1" Cut="0.0000000000000000e+00" cType="1" res="-4.5900940895080566e-03" rms="4.1232210397720337e-01" purity="2.1618866920471191e-01" nType="-99"/>
        </Node>
        <Node pos="r" depth="1" NCoef="0" IVar="32" Cut="9.3926219940185547e+00" cType="1" res="-1.9333630800247192e-01" rms="4.2304301261901855e-01" purity="2.4424959719181061e-01" nType="0">
          <Node pos="l" depth="2" NCoef="0" IVar="-1" Cut="0.0000000000000000e+00" cType="1" res="-3.6642362829297781e-03" rms="3.9979928731918335e-01" purity="2.0790259540081024e-01" nType="-99"/>
          <Node pos="r" depth="2" NCoef="0" IVar="-1" Cut="0.0000000000000000e+00" cType="1" res="7.2984272264875472e-05" rms="4.9230033159255981e-01" purity="4.5100328326225281e-01" nType="-99"/>
        </Node>
      </Node>
    </BinaryTree>
    <BinaryTree type="DecisionTree" boostWeight="1.0000000000000000e+00" itree="45">
      <Node pos="s" depth="0" NCoef="0" IVar="24" Cut="5.3282413631677628e-02" cType="1" res="-7.8554647043347359e-03" rms="4.8491397500038147e-01" purity="5.0132411718368530e-01" nType="0">
        <Node pos="l" depth="1" NCoef="0" IVar="23" Cut="5.3317617624998093e-02" cType="1" res="2.6015354320406914e-02" rms="4.8848471045494080e-01" purity="5.4969590902328491e-01" nType="0">
          <Node pos="l" depth="2" NCoef="0" IVar="-1" Cut="0.0000000000000000e+00" cType="1" res="1.3506809482350945e-03" rms="4.8634842038154602e-01" purity="5.8211660385131836e-01" nType="-99"/>
          <Node pos="r" depth="2" NCoef="0" IVar="-1" Cut="0.0000000000000000e+00" cType="1" res="-4.3569044210016727e-03" rms="4.2185905575752258e-01" purity="2.3245884478092194e-01" nType="-99"/>
        </Node>
        <Node pos="r" depth="1" NCoef="0" IVar="31" Cut="8.7080824375152588e-01" cType="1" res="-1.9655178487300873e-01" rms="4.1686975955963135e-01" purity="2.3184219002723694e-01" nType="0">
          <Node pos="l" depth="2" NCoef="0" IVar="-1" Cut="0.0000000000000000e+00" cType="1" res="-4.0383655577898026e-03" rms="3.7282672524452209e-01" purity="1.7022556066513062e-01" nType="-99"/>
          <Node pos="r" depth="2" NCoef="0" IVar="-1" Cut="0.0000000000000000e+00" cType="1" res="-7.4244500137865543e-04" rms="4.8887664079666138e-01" purity="4.1314172744750977e-01" nType="-99"/>
        </Node>
      </Node>
    </BinaryTree>
    <BinaryTree type="DecisionTree" boostWeight="1.0000000000000000e+00" itree="46">
      <Node pos="s" depth="0" NCoef="0" IVar="24" Cut="6.8144038319587708e-02" cType="1" res="-1.9243353977799416e-02" rms="4.8464092612266541e-01" purity="4.8937261104583740e-01" nType="0">
        <Node pos="l" depth="1" NCoef="0" IVar="23" Cut="4.5700814574956894e-02" cType="1" res="8.2868123427033424e-03" rms="4.8922312259674072e-01" purity="5.2856177091598511e-01" nType="0">
          <Node pos="l" depth="2" NCoef="0" IVar="-1" Cut="0.0000000000000000e+00" cType="1" res="8.8119786232709885e-04" rms="4.8844823241233826e-01" purity="5.6202435493469238e-01" nType="-99"/>
          <Node pos="r" depth="2" NCoef="0" IVar="-1" Cut="0.0000000000000000e+00" cType="1" res="-3.4839368890970945e-03" rms="4.3499505519866943e-01" purity="2.6043263077735901e-01" nType="-99"/>
        </Node>
        <Node pos="r" depth="1" NCoef="0" IVar="-1" Cut="0.0000000000000000e+00" cType="1" res="-4.2083007283508778e-03" rms="3.8692781329154968e-01" purity="1.8754476308822632e-01" nType="-99"/>
      </Node>
    </BinaryTree>
    <BinaryTree type="DecisionTree" boostWeight="1.0000000000000000e+00" itree="47">
      <Node pos="s" depth="0" NCoef="0" IVar="24" Cut="6.8405434489250183e-02" cType="1" res="-1.5899050980806351e-02" rms="4.8465076088905334e-01" purity="4.9189215898513794e-01" nType="0">
        <Node pos="l" depth="1" NCoef="0" IVar="5" Cut="1.1904761791229248e+00" cType="1" res="1.1986245401203632e-02" rms="4.8922014236450195e-01" purity="5.3217160701751709e-01" nType="0">
          <Node pos="l" depth="2" NCoef="0" IVar="-1" Cut="0.0000000000000000e+00" cType="1" res="1.1265748180449009e-03" rms="4.8842921853065491e-01" purity="5.8131009340286255e-01" nType="-99"/>
          <Node pos="r" depth="2" NCoef="0" IVar="-1" Cut="0.0000000000000000e+00" cType="1" res="-3.0394892673939466e-03" rms="4.5546483993530273e-01" purity="2.9797536134719849e-01" nType="-99"/>
        </Node>
        <Node pos="r" depth="1" NCoef="0" IVar="-1" Cut="0.0000000000000000e+00" cType="1" res="-3.6103071179240942e-03" rms="3.9165404438972473e-01" purity="1.9327481091022491e-01" nType="-99"/>
      </Node>
    </BinaryTree>
    <BinaryTree type="DecisionTree" boostWeight="1.0000000000000000e+00" itree="48">
      <Node pos="s" depth="0" NCoef="0" IVar="24" Cut="5.3282413631677628e-02" cType="1" res="-1.3669572770595551e-02" rms="4.8307415843009949e-01" purity="4.9403640627861023e-01" nType="0">
        <Node pos="l" depth="1" NCoef="0" IVar="5" Cut="1.1904761791229248e+00" cType="1" res="2.2099310532212257e-02" rms="4.8775306344032288e-01" purity="5.4585719108581543e-01" nType="0">
          <Node pos="l" depth="2" NCoef="0" IVar="-1" Cut="0.0000000000000000e+00" cType="1" res="1.6320612048730254e-03" rms="4.8549339175224304e-01" purity="5.9762692451477051e-01" nType="-99"/>
          <Node pos="r" depth="2" NCoef="0" IVar="-1" Cut="0.0000000000000000e+00" cType="1" res="-3.9903293363749981e-03" rms="4.5098662376403809e-01" purity="2.8550305962562561e-01" nType="-99"/>
        </Node>
        <Node pos="r" depth="1" NCoef="0" IVar="15" Cut="1.0037233829498291e+00" cType="1" res="-2.0208601653575897e-01" rms="4.0889212489128113e-01" purity="2.2106489539146423e-01" nType="0">
          <Node pos="l" depth="2" NCoef="0" IVar="-1" Cut="0.0000000000000000e+00" cType="1" res="-1.5400162665173411e-03" rms="4.7599399089813232e-01" purity="3.6547061800956726e-01" nType="-99"/>
          <Node pos="r" depth="2" NCoef="0" IVar="-1" Cut="0.0000000000000000e+00" cType="1" res="-3.8775182329118252e-03" rms="3.6679157614707947e-01" purity="1.6449807584285736e-01" nType="-99"/>
        </Node>
      </Node>
    </BinaryTree>
    <BinaryTree type="DecisionTree" boostWeight="1.0000000000000000e+00" itree="49">
      <Node pos="s" depth="0" NCoef="0" IVar="24" Cut="4.5704107731580734e-02" cType="1" res="-6.3585573807358742e-03" rms="4.8390546441078186e-01" purity="5.0219660997390747e-01" nType="0">
        <Node pos="l" depth="1" NCoef="0" IVar="5" Cut="1.1904761791229248e+00" cType="1" res="2.8422636911273003e-02" rms="4.8759165406227112e-01" purity="5.5359745025634766e-01" nType="0">
          <Node pos="l" depth="2" NCoef="0" IVar="-1" Cut="0.0000000000000000e+00" cType="1" res="1.6053679864853621e-03" rms="4.8533636331558228e-01" purity="6.0213994979858398e-01" nType="-99"/>
          <Node pos="r" depth="2" NCoef="0" IVar="-1" Cut="0.0000000000000000e+00" cType="1" res="-3.8387340027838945e-03" rms="4.5929166674613953e-01" purity="3.0591270327568054e-01" nType="-99"/>
        </Node>
        <Node pos="r" depth="1" NCoef="0" IVar="15" Cut="9.4669926166534424e-01" cType="1" res="-1.7081293463706970e-01" rms="4.2949599027633667e-01" purity="2.5916016101837158e-01" nType="0">
          <Node pos="l" depth="2" NCoef="0" IVar="-1" Cut="0.0000000000000000e+00" cType="1" res="-9.0248166816309094e-04" rms="4.8642060160636902e-01" purity="4.0935379266738892e-01" nType="-99"/>
          <Node pos="r" depth="2" NCoef="0" IVar="-1" Cut="0.0000000000000000e+00" cType="1" res="-3.6482098512351513e-03" rms="3.9469403028488159e-01" purity="2.0271299779415131e-01" nType="-99"/>
        </Node>
      </Node>
    </BinaryTree>
    <BinaryTree type="DecisionTree" boostWeight="1.0000000000000000e+00" itree="50">
      <Node pos="s" depth="0" NCoef="0" IVar="5" Cut="1.1904761791229248e+00" cType="1" res="-1.3739434070885181e-02" rms="4.8224568367004395e-01" purity="4.9272534251213074e-01" nType="0">
        <Node pos="l" depth="1" NCoef="0" IVar="24" Cut="4.5670639723539352e-02" cType="1" res="2.2981856018304825e-02" rms="4.8351871967315674e-01" purity="5.4142689704895020e-01" nType="0">
          <Node pos="l" depth="2" NCoef="0" IVar="-1" Cut="0.0000000000000000e+00" cType="1" res="1.7188250785693526e-03" rms="4.8419553041458130e-01" purity="6.0492342710494995e-01" nType="-99"/>
          <Node pos="r" depth="2" NCoef="0" IVar="-1" Cut="0.0000000000000000e+00" cType="1" res="-2.7215806767344475e-03" rms="4.3753701448440552e-01" purity="2.7451860904693604e-01" nType="-99"/>
        </Node>
        <Node pos="r" depth="1" NCoef="0" IVar="22" Cut="1.9449611902236938e+00" cType="1" res="-1.9258014857769012e-01" rms="4.3361490964889526e-01" purity="2.5553798675537109e-01" nType="0">
          <Node pos="l" depth="2" NCoef="0" IVar="-1" Cut="0.0000000000000000e+00" cType="1" res="-4.6025193296372890e-03" rms="3.9899319410324097e-01" purity="1.9982276856899261e-01" nType="-99"/>
          <Node pos="r" depth="2" NCoef="0" IVar="-1" Cut="0.0000000000000000e+00" cType="1" res="-3.5871965810656548e-03" rms="4.6038642525672913e-01" purity="3.1518599390983582e-01" nType="-99"/>
        </Node>
      </Node>
    </BinaryTree>
    <BinaryTree type="DecisionTree" boostWeight="1.0000000000000000e+00" itree="51">
      <Node pos="s" depth="0" NCoef="0" IVar="24" Cut="3.8054306060075760e-02" cType="1" res="-1.2815800495445728e-02" rms="4.8331105709075928e-01" purity="4.9615085124969482e-01" nType="0">
        <Node pos="l" depth="1" NCoef="0" IVar="5" Cut="1.2380952835083008e+00" cType="1" res="2.3912580683827400e-02" rms="4.8715937137603760e-01" purity="5.4960608482360840e-01" nType="0">
          <Node pos="l" depth="2" NCoef="0" IVar="-1" Cut="0.0000000000000000e+00" cType="1" res="1.5655072638764977e-03" rms="4.8502582311630249e-01" purity="6.0429590940475464e-01" nType="-99"/>
          <Node pos="r" depth="2" NCoef="0" IVar="-1" Cut="0.0000000000000000e+00" cType="1" res="-3.1988022383302450e-03" rms="4.5508331060409546e-01" purity="2.9466119408607483e-01" nType="-99"/>
        </Node>
        <Node pos="r" depth="1" NCoef="0" IVar="32" Cut="8.9578866958618164e+00" cType="1" res="-1.6580021381378174e-01" rms="4.3475329875946045e-01" purity="2.7349409461021423e-01" nType="0">
          <Node pos="l" depth="2" NCoef="0" IVar="-1" Cut="0.0000000000000000e+00" cType="1" res="-3.7413609679788351e-03" rms="4.1036605834960938e-01" purity="2.3011156916618347e-01" nType="-99"/>
          <Node pos="r" depth="2" NCoef="0" IVar="-1" Cut="0.0000000000000000e+00" cType="1" res="-3.6433374043554068e-04" rms="4.8799261450767517e-01" purity="4.3595823645591736e-01" nType="-99"/>
        </Node>
      </Node>
    </BinaryTree>
    <BinaryTree type="DecisionTree" boostWeight="1.0000000000000000e+00" itree="52">
      <Node pos="s" depth="0" NCoef="0" IVar="23" Cut="3.8084011524915695e-02" cType="1" res="-3.3244085498154163e-03" rms="4.8326146602630615e-01" purity="5.0546807050704956e-01" nType="0">
        <Node pos="l" depth="1" NCoef="0" IVar="31" Cut="8.7589490413665771e-01" cType="1" res="3.0907729640603065e-02" rms="4.8260167241096497e-01" purity="5.4473167657852173e-01" nType="0">
          <Node pos="l" depth="2" NCoef="0" IVar="-1" Cut="0.0000000000000000e+00" cType="1" res="-2.5370055809617043e-03" rms="4.6426877379417419e-01" purity="3.6653801798820496e-01" nType="-99"/>
          <Node pos="r" depth="2" NCoef="0" IVar="-1" Cut="0.0000000000000000e+00" cType="1" res="2.7967104688286781e-03" rms="4.7641012072563171e-01" purity="6.2203222513198853e-01" nType="-99"/>
        </Node>
        <Node pos="r" depth="1" NCoef="0" IVar="30" Cut="8.6364974975585938e+00" cType="1" res="-2.2773446142673492e-01" rms="4.2388376593589783e-01" purity="2.4807417392730713e-01" nType="0">
          <Node pos="l" depth="2" NCoef="0" IVar="-1" Cut="0.0000000000000000e+00" cType="1" res="-4.3012285605072975e-03" rms="3.7087553739547729e-01" purity="1.6904708743095398e-01" nType="-99"/>
          <Node pos="r" depth="2" NCoef="0" IVar="-1" Cut="0.0000000000000000e+00" cType="1" res="-1.3519402127712965e-03" rms="4.7405511140823364e-01" purity="3.9621174335479736e-01" nType="-99"/>
        </Node>
      </Node>
    </BinaryTree>
    <BinaryTree type="DecisionTree" boostWeight="1.0000000000000000e+00" itree="53">
      <Node pos="s" depth="0" NCoef="0" IVar="5" Cut="1.1904761791229248e+00" cType="1" res="-3.0664526857435703e-03" rms="4.8144164681434631e-01" purity="5.0476318597793579e-01" nType="0">
        <Node pos="l" depth="1" NCoef="0" IVar="24" Cut="3.8003019988536835e-02" cType="1" res="3.2725334167480469e-02" rms="4.8174279928207397e-01" purity="5.5284172296524048e-01" nType="0">
          <Node pos="l" depth="2" NCoef="0" IVar="-1" Cut="0.0000000000000000e+00" cType="1" res="2.2528269328176975e-03" rms="4.8042452335357666e-01" purity="6.2264931201934814e-01" nType="-99"/>
          <Node pos="r" depth="2" NCoef="0" IVar="-1" Cut="0.0000000000000000e+00" cType="1" res="-2.3415670730173588e-03" rms="4.4732242822647095e-01" purity="3.0353793501853943e-01" nType="-99"/>
        </Node>
        <Node pos="r" depth="1" NCoef="0" IVar="1" Cut="5.7132316589355469e+01" cType="1" res="-1.8473513424396515e-01" rms="4.3681588768959045e-01" purity="2.6073086261749268e-01" nType="0">
          <Node pos="l" depth="2" NCoef="0" IVar="-1" Cut="0.0000000000000000e+00" cType="1" res="-3.6700235214084387e-03" rms="4.4975259900093079e-01" purity="2.8811156749725342e-01" nType="-99"/>
          <Node pos="r" depth="2" NCoef="0" IVar="-1" Cut="0.0000000000000000e+00" cType="1" res="-4.3365349993109703e-03" rms="3.6266314983367920e-01" purity="1.5664629638195038e-01" nType="-99"/>
        </Node>
      </Node>
    </BinaryTree>
    <BinaryTree type="DecisionTree" boostWeight="1.0000000000000000e+00" itree="54">
      <Node pos="s" depth="0" NCoef="0" IVar="23" Cut="5.3263377398252487e-02" cType="1" res="-8.3651626482605934e-04" rms="4.8285746574401855e-01" purity="5.0926727056503296e-01" nType="0">
        <Node pos="l" depth="1" NCoef="0" IVar="24" Cut="3.8086757063865662e-02" cType="1" res="2.2143732756376266e-02" rms="4.8237401247024536e-01" purity="5.3618586063385010e-01" nType="0">
          <Node pos="l" depth="2" NCoef="0" IVar="-1" Cut="0.0000000000000000e+00" cType="1" res="1.7755440203472972e-03" rms="4.8250907659530640e-01" purity="5.9502285718917847e-01" nType="-99"/>
          <Node pos="r" depth="2" NCoef="0" IVar="-1" Cut="0.0000000000000000e+00" cType="1" res="-2.6982408016920090e-03" rms="4.5111337304115295e-01" purity="3.0965226888656616e-01" nType="-99"/>
        </Node>
        <Node pos="r" depth="1" NCoef="0" IVar="-1" Cut="0.0000000000000000e+00" cType="1" res="-3.7919669412076473e-03" rms="4.2519587278366089e-01" purity="2.4279123544692993e-01" nType="-99"/>
      </Node>
    </BinaryTree>
    <BinaryTree type="DecisionTree" boostWeight="1.0000000000000000e+00" itree="55">
      <Node pos="s" depth="0" NCoef="0" IVar="24" Cut="5.3282413631677628e-02" cType="1" res="-1.5482609160244465e-03" rms="4.8164385557174683e-01" purity="5.0793027877807617e-01" nType="0">
        <Node pos="l" depth="1" NCoef="0" IVar="5" Cut="1.1904761791229248e+00" cType="1" res="3.0092563480138779e-02" rms="4.8537564277648926e-01" purity="5.5674451589584351e-01" nType="0">
          <Node pos="l" depth="2" NCoef="0" IVar="-1" Cut="0.0000000000000000e+00" cType="1" res="1.7451930325478315e-03" rms="4.8288783431053162e-01" purity="6.0922169685363770e-01" nType="-99"/>
          <Node pos="r" depth="2" NCoef="0" IVar="-1" Cut="0.0000000000000000e+00" cType="1" res="-3.3061916474252939e-03" rms="4.5632714033126831e-01" purity="2.9938119649887085e-01" nType="-99"/>
        </Node>
        <Node pos="r" depth="1" NCoef="0" IVar="15" Cut="9.4669926166534424e-01" cType="1" res="-1.7624644935131073e-01" rms="4.1953420639038086e-01" purity="2.3841309547424316e-01" nType="0">
          <Node pos="l" depth="2" NCoef="0" IVar="-1" Cut="0.0000000000000000e+00" cType="1" res="-3.3558448194526136e-04" rms="4.8846712708473206e-01" purity="4.1455334424972534e-01" nType="-99"/>
          <Node pos="r" depth="2" NCoef="0" IVar="-1" Cut="0.0000000000000000e+00" cType="1" res="-3.5556573420763016e-03" rms="3.7616574764251709e-01" purity="1.7549827694892883e-01" nType="-99"/>
        </Node>
      </Node>
    </BinaryTree>
    <BinaryTree type="DecisionTree" boostWeight="1.0000000000000000e+00" itree="56">
      <Node pos="s" depth="0" NCoef="0" IVar="5" Cut="1.1904761791229248e+00" cType="1" res="-1.2130003422498703e-02" rms="4.8142698407173157e-01" purity="4.9621203541755676e-01" nType="0">
        <Node pos="l" depth="1" NCoef="0" IVar="24" Cut="3.8002576678991318e-02" cType="1" res="2.5085501372814178e-02" rms="4.8309063911437988e-01" purity="5.4823082685470581e-01" nType="0">
          <Node pos="l" depth="2" NCoef="0" IVar="-1" Cut="0.0000000000000000e+00" cType="1" res="1.7254287376999855e-03" rms="4.8322123289108276e-01" purity="6.0933047533035278e-01" nType="-99"/>
          <Node pos="r" depth="2" NCoef="0" IVar="-1" Cut="0.0000000000000000e+00" cType="1" res="-2.5523428339511156e-03" rms="4.5007047057151794e-01" purity="3.0776929855346680e-01" nType="-99"/>
        </Node>
        <Node pos="r" depth="1" NCoef="0" IVar="9" Cut="1.0476191043853760e+00" cType="1" res="-1.8136210739612579e-01" rms="4.3535917997360229e-01" purity="2.5966387987136841e-01" nType="0">
          <Node pos="l" depth="2" NCoef="0" IVar="-1" Cut="0.0000000000000000e+00" cType="1" res="-2.9458589851856232e-03" rms="4.5020642876625061e-01" purity="2.9166406393051147e-01" nType="-99"/>
          <Node pos="r" depth="2" NCoef="0" IVar="-1" Cut="0.0000000000000000e+00" cType="1" res="-3.7697814404964447e-03" rms="3.3913913369178772e-01" purity="1.3268359005451202e-01" nType="-99"/>
        </Node>
      </Node>
    </BinaryTree>
    <BinaryTree type="DecisionTree" boostWeight="1.0000000000000000e+00" itree="57">
      <Node pos="s" depth="0" NCoef="0" IVar="23" Cut="5.3153973072767258e-02" cType="1" res="-1.8193744122982025e-02" rms="4.8131212592124939e-01" purity="4.9124380946159363e-01" nType="0">
        <Node pos="l" depth="1" NCoef="0" IVar="24" Cut="3.8020461797714233e-02" cType="1" res="6.6904723644256592e-03" rms="4.8193660378456116e-01" purity="5.2067756652832031e-01" nType="0">
          <Node pos="l" depth="2" NCoef="0" IVar="-1" Cut="0.0000000000000000e+00" cType="1" res="1.2570869876071811e-03" rms="4.8408648371696472e-01" purity="5.8501499891281128e-01" nType="-99"/>
          <Node pos="r" depth="2" NCoef="0" IVar="-1" Cut="0.0000000000000000e+00" cType="1" res="-2.6192555669695139e-03" rms="4.3862241506576538e-01" purity="2.8135707974433899e-01" nType="-99"/>
        </Node>
        <Node pos="r" depth="1" NCoef="0" IVar="-1" Cut="0.0000000000000000e+00" cType="1" res="-4.0263524278998375e-03" rms="4.0495297312736511e-01" purity="2.1118694543838501e-01" nType="-99"/>
      </Node>
    </BinaryTree>
    <BinaryTree type="DecisionTree" boostWeight="1.0000000000000000e+00" itree="58">
      <Node pos="s" depth="0" NCoef="0" IVar="23" Cut="3.0428230762481689e-02" cType="1" res="-9.8744090646505356e-03" rms="4.8125705122947693e-01" purity="4.9902608990669250e-01" nType="0">
        <Node pos="l" depth="1" NCoef="0" IVar="24" Cut="3.8020461797714233e-02" cType="1" res="2.1046357229351997e-02" rms="4.8018667101860046e-01" purity="5.3540688753128052e-01" nType="0">
          <Node pos="l" depth="2" NCoef="0" IVar="-1" Cut="0.0000000000000000e+00" cType="1" res="1.7762099159881473e-03" rms="4.8035928606987000e-01" purity="5.9949356317520142e-01" nType="-99"/>
          <Node pos="r" depth="2" NCoef="0" IVar="-1" Cut="0.0000000000000000e+00" cType="1" res="-2.5819791480898857e-03" rms="4.4524127244949341e-01" purity="2.9541328549385071e-01" nType="-99"/>
        </Node>
        <Node pos="r" depth="1" NCoef="0" IVar="29" Cut="9.0114343166351318e-01" cType="1" res="-1.8737626075744629e-01" rms="4.4779524207115173e-01" purity="2.9018053412437439e-01" nType="0">
          <Node pos="l" depth="2" NCoef="0" IVar="-1" Cut="0.0000000000000000e+00" cType="1" res="-4.1487980633974075e-03" rms="4.1899749636650085e-01" purity="2.3021654784679413e-01" nType="-99"/>
          <Node pos="r" depth="2" NCoef="0" IVar="-1" Cut="0.0000000000000000e+00" cType="1" res="-4.0532543789595366e-04" rms="4.8833322525024414e-01" purity="4.6383249759674072e-01" nType="-99"/>
        </Node>
      </Node>
    </BinaryTree>
    <BinaryTree type="DecisionTree" boostWeight="1.0000000000000000e+00" itree="59">
      <Node pos="s" depth="0" NCoef="0" IVar="24" Cut="7.6117739081382751e-02" cType="1" res="-1.3426272198557854e-02" rms="4.8159378767013550e-01" purity="4.9637806415557861e-01" nType="0">
        <Node pos="l" depth="1" NCoef="0" IVar="23" Cut="5.3263377398252487e-02" cType="1" res="1.0203856974840164e-02" rms="4.8629820346832275e-01" purity="5.3230881690979004e-01" nType="0">
          <Node pos="l" depth="2" NCoef="0" IVar="-1" Cut="0.0000000000000000e+00" cType="1" res="8.8711973512545228e-04" rms="4.8541012406349182e-01" purity="5.6380420923233032e-01" nType="-99"/>
          <Node pos="r" depth="2" NCoef="0" IVar="-1" Cut="0.0000000000000000e+00" cType="1" res="-4.1516982018947601e-03" rms="4.2555117607116699e-01" purity="2.3823863267898560e-01" nType="-99"/>
        </Node>
        <Node pos="r" depth="1" NCoef="0" IVar="-1" Cut="0.0000000000000000e+00" cType="1" res="-3.6414724308997393e-03" rms="3.7611487507820129e-01" purity="1.7481683194637299e-01" nType="-99"/>
      </Node>
    </BinaryTree>
    <BinaryTree type="DecisionTree" boostWeight="1.0000000000000000e+00" itree="60">
      <Node pos="s" depth="0" NCoef="0" IVar="24" Cut="5.3125157952308655e-02" cType="1" res="-1.4107190072536469e-02" rms="4.7933569550514221e-01" purity="4.9443730711936951e-01" nType="0">
        <Node pos="l" depth="1" NCoef="0" IVar="5" Cut="1.2380952835083008e+00" cType="1" res="2.0847804844379425e-02" rms="4.8501357436180115e-01" purity="5.4869556427001953e-01" nType="0">
          <Node pos="l" depth="2" NCoef="0" IVar="-1" Cut="0.0000000000000000e+00" cType="1" res="1.5528881922364235e-03" rms="4.8322001099586487e-01" purity="6.0473716259002686e-01" nType="-99"/>
          <Node pos="r" depth="2" NCoef="0" IVar="-1" Cut="0.0000000000000000e+00" cType="1" res="-3.3589731901884079e-03" rms="4.4817554950714111e-01" purity="2.8092625737190247e-01" nType="-99"/>
        </Node>
        <Node pos="r" depth="1" NCoef="0" IVar="15" Cut="1.2385327816009521e+00" cType="1" res="-1.9684918224811554e-01" rms="4.0169027447700500e-01" purity="2.1077917516231537e-01" nType="0">
          <Node pos="l" depth="2" NCoef="0" IVar="-1" Cut="0.0000000000000000e+00" cType="1" res="-2.1746265701949596e-03" rms="4.4971853494644165e-01" purity="2.9338532686233521e-01" nType="-99"/>
          <Node pos="r" depth="2" NCoef="0" IVar="-1" Cut="0.0000000000000000e+00" cType="1" res="-3.6573600955307484e-03" rms="3.5108521580696106e-01" purity="1.4832165837287903e-01" nType="-99"/>
        </Node>
      </Node>
    </BinaryTree>
    <BinaryTree type="DecisionTree" boostWeight="1.0000000000000000e+00" itree="61">
      <Node pos="s" depth="0" NCoef="0" IVar="31" Cut="8.5241466760635376e-01" cType="1" res="-1.1719421017915010e-03" rms="4.8032876849174500e-01" purity="5.0877928733825684e-01" nType="0">
        <Node pos="l" depth="1" NCoef="0" IVar="32" Cut="1.0227511405944824e+01" cType="1" res="-1.4125888049602509e-01" rms="4.4822791218757629e-01" purity="3.2981368899345398e-01" nType="0">
          <Node pos="l" depth="2" NCoef="0" IVar="-1" Cut="0.0000000000000000e+00" cType="1" res="-3.5911381710320711e-03" rms="4.2980456352233887e-01" purity="2.7884247899055481e-01" nType="-99"/>
          <Node pos="r" depth="2" NCoef="0" IVar="-1" Cut="0.0000000000000000e+00" cType="1" res="1.4485138235613704e-03" rms="4.7630724310874939e-01" purity="5.3917253017425537e-01" nType="-99"/>
        </Node>
        <Node pos="r" depth="1" NCoef="0" IVar="5" Cut="1.2380952835083008e+00" cType="1" res="4.2969584465026855e-02" rms="4.8163881897926331e-01" purity="5.6517148017883301e-01" nType="0">
          <Node pos="l" depth="2" NCoef="0" IVar="-1" Cut="0.0000000000000000e+00" cType="1" res="2.1910006180405617e-03" rms="4.7708120942115784e-01" purity="6.1902779340744019e-01" nType="-99"/>
          <Node pos="r" depth="2" NCoef="0" IVar="-1" Cut="0.0000000000000000e+00" cType="1" res="-2.9602311551570892e-03" rms="4.6404725313186646e-01" purity="3.1442230939865112e-01" nType="-99"/>
        </Node>
      </Node>
    </BinaryTree>
    <BinaryTree type="DecisionTree" boostWeight="1.0000000000000000e+00" itree="62">
      <Node pos="s" depth="0" NCoef="0" IVar="23" Cut="4.5588850975036621e-02" cType="1" res="-7.9991305246949196e-03" rms="4.8062869906425476e-01" purity="5.0209742784500122e-01" nType="0">
        <Node pos="l" depth="1" NCoef="0" IVar="5" Cut="1.1904761791229248e+00" cType="1" res="2.0412135869264603e-02" rms="4.8070305585861206e-01" purity="5.3640413284301758e-01" nType="0">
          <Node pos="l" depth="2" NCoef="0" IVar="-1" Cut="0.0000000000000000e+00" cType="1" res="1.3884697109460831e-03" rms="4.7853961586952209e-01" purity="5.8496302366256714e-01" nType="-99"/>
          <Node pos="r" depth="2" NCoef="0" IVar="-1" Cut="0.0000000000000000e+00" cType="1" res="-3.1646334100514650e-03" rms="4.5738667249679565e-01" purity="3.0151489377021790e-01" nType="-99"/>
        </Node>
        <Node pos="r" depth="1" NCoef="0" IVar="-1" Cut="0.0000000000000000e+00" cType="1" res="-3.6810010205954313e-03" rms="4.1328793764114380e-01" purity="2.2391931712627411e-01" nType="-99"/>
      </Node>
    </BinaryTree>
    <BinaryTree type="DecisionTree" boostWeight="1.0000000000000000e+00" itree="63">
      <Node pos="s" depth="0" NCoef="0" IVar="24" Cut="5.3282413631677628e-02" cType="1" res="-1.5473407693207264e-02" rms="4.7954776883125305e-01" purity="4.9306625127792358e-01" nType="0">
        <Node pos="l" depth="1" NCoef="0" IVar="23" Cut="3.0436214059591293e-02" cType="1" res="1.7108086496591568e-02" rms="4.8491480946540833e-01" purity="5.4493677616119385e-01" nType="0">
          <Node pos="l" depth="2" NCoef="0" IVar="-1" Cut="0.0000000000000000e+00" cType="1" res="1.3644421705976129e-03" rms="4.8274388909339905e-01" purity="5.8709818124771118e-01" nType="-99"/>
          <Node pos="r" depth="2" NCoef="0" IVar="-1" Cut="0.0000000000000000e+00" cType="1" res="-2.7244731318205595e-03" rms="4.5297709107398987e-01" purity="3.1141608953475952e-01" nType="-99"/>
        </Node>
        <Node pos="r" depth="1" NCoef="0" IVar="15" Cut="9.8374551534652710e-01" cType="1" res="-1.8440479040145874e-01" rms="4.1120025515556335e-01" purity="2.2412334382534027e-01" nType="0">
          <Node pos="l" depth="2" NCoef="0" IVar="-1" Cut="0.0000000000000000e+00" cType="1" res="-1.0648361640051007e-03" rms="4.7506365180015564e-01" purity="3.5458245873451233e-01" nType="-99"/>
